tree
version=v3
num_class=1
num_tree_per_iteration=1
label_index=0
max_feature_idx=9
objective=regression
feature_names=Column_0 Column_1 Column_2 Column_3 Column_4 Column_5 Column_6 Column_7 Column_8 Column_9
feature_infos=[-1.7184014473981108:3.4296065849366881] [-0.36736956976063001:4.5073862167209864] [-0.37415374890067377:3.5236858115154415] [-3.6517635803490323:1.7791484577622931] [-3.1097451489441763:2.3713831528676375] [-1.201866876188199:4.2131429597125756] [-3.3451767903550453:1.1186576803893349] [-0.28988551782622374:4.6961453887848252] [-0.59494859147436485:4.6701534906827984] [-0.67380103080858744:3.2777646832369034]
tree_sizes=982 1058 1149 1232 1153 1247 984 1163 904 1244 1235 1162 994 1263 1082 1154 1084 1269 1263 1270 1175 1156 1184 1269 1260 1249 1094 1214 1183 1271 1270 1291 1273 1275 1262 1274 1188 1019 1281 1281 1016 1278 1277 1108 1269 1025 1285 1277 1265 1205 1181 1262 1118 1245 1288 1117 1273 1265 1277 1290 1291 1293 1253 1257 1267 1290 1271 1282 1271 1203 1116 1013 1295 1300

Tree=0
num_leaves=10
num_cat=0
split_feature=9 0 3 8 4 9 3 5 4
split_gain=58.2267 31.1675 58.2644 4.26062 3.4415 2.76341 0.483208 0.274858 0.174964
threshold=-0.45668203553136266 0.87973181847747051 0.12857715206179232 -0.54135527050386112 0.84098732948491051 -0.22870709049027663 -0.25009585200730322 0.12816694466280126 -0.76320932142166997
decision_type=2 2 2 2 2 2 2 2 2
left_child=4 3 -3 6 -1 7 -2 -5 -8
right_child=1 2 -4 5 -6 -7 8 -9 -10
leaf_value=-0.27733725093705225 0.011388996968401753 -0.14926948336584911 0.60906167845153136 0.014779798511198046 -0.052743108277262703 0.12074597822110045 -0.0082887788444284873 -0.032984433699269976 -0.062796641999027236
leaf_weight=94 24 21 33 33 39 78 30 20 58
leaf_count=94 24 21 33 33 39 78 30 20 58
internal_value=-1.40998e-09 0.117762 0.368426 0.0254243 -0.234668 0.076888 -0.0384175 -0.00876287 -0.0515095
internal_weight=0 297 54 243 133 131 112 53 88
internal_count=430 297 54 243 133 131 112 53 88
is_linear=0
shrinkage=1


Tree=1
num_leaves=11
num_cat=0
split_feature=9 8 6 0 5 0 4 6 3 6
split_gain=26.2637 18.444 35.0652 1.44457 1.33225 1.01168 0.949014 1.22458 1.53836 0.5148
threshold=-0.45668203553136266 -0.1789230757209174 -1.1987461962622048 0.87973181847747051 0.050879986095853889 0.87973181847747051 0.73136476344867418 0.10907308037399757 0.54558600581167371 0.57513108843647098
decision_type=2 2 2 2 2 2 2 2 2 2
left_child=3 6 -3 -1 5 -4 7 -2 9 -9
right_child=1 2 4 -5 -6 -7 -8 8 -10 -11
leaf_value=-0.17587784367559722 -0.076635788838955068 -0.12068175590858618 0.093650886540627309 -0.026540504871771016 0.078159940228920047 0.50404848769708621 0.054402385474890833 -0.0067577095946940542 -0.055215651234437287 0.050578138278678207
leaf_weight=101 28 30 20 32 20 22 21 46 39 71
leaf_count=101 28 30 20 32 20 22 21 46 39 71
internal_value=0 0.0845176 0.231835 -0.152194 0.385476 0.434231 -0.00404504 -0.0178786 0.00391433 0.0313651
internal_weight=0 297 92 133 62 42 205 184 156 117
internal_count=430 297 92 133 62 42 205 184 156 117
is_linear=0
shrinkage=0.484407


Tree=2
num_leaves=12
num_cat=0
split_feature=9 8 9 6 8 4 8 8 3 5 8
split_gain=17.0653 14.0918 2.95491 3.34354 3.90814 1.05136 0.874752 0.306394 0.213542 0.163236 0.0954861
threshold=-0.22870709049027663 -0.1789230757209174 -0.57066950805190564 -1.1987461962622048 -0.1789230757209174 0.668318287661824 -0.54135527050386112 -0.46974045918503443 0.17372826390805127 -0.052318465818089813 1.0326393407683125
decision_type=2 2 2 2 2 2 2 2 2 2 2
left_child=2 6 5 -4 7 -1 9 8 -5 -2 -7
right_child=1 -3 3 4 -6 10 -8 -9 -10 -11 -12
leaf_value=-0.12533943787557958 0.0024474888155794033 0.293883222579365 -0.10587516800126927 -0.020426787326316545 0.12682606075706088 0.0040253745243053769 0.044482603879174264 -0.048367903163907211 0.017922345914776192 -0.041107658273843328 -0.029258554629142924
leaf_weight=87 26 42 25 34 30 21 58 27 38 22 20
leaf_count=87 26 42 25 34 30 21 58 27 38 22 20
internal_value=0 0.131769 -0.0553483 -0.00604201 0.0305188 -0.101459 0.0139415 -0.0225423 -0.00079211 -0.025861 -0.0177813
internal_weight=0 148 282 154 129 128 106 99 72 48 41
internal_count=430 148 282 154 129 128 106 99 72 48 41
is_linear=0
shrinkage=0.484407


Tree=3
num_leaves=13
num_cat=0
split_feature=0 3 5 9 9 5 6 6 0 6 6 3
split_gain=9.38228 20.8427 6.52452 2.15084 0.886951 0.698663 0.641571 0.604217 0.338798 0.100412 0.0933455 0.236258
threshold=0.87973181847747051 0.12857715206179232 -0.36670230133216369 -0.57066950805190564 2.2735893300797394 0.15166182204997405 -2.3307072394094588 0.8154538295463204 -1.0419998853082129 0.24778884213467658 0.10907308037399757 0.096630610661137456
decision_type=2 2 2 2 2 2 2 2 2 2 2 2
left_child=3 6 -3 9 5 7 -2 8 -5 -1 -7 -12
right_child=1 2 -4 4 -6 10 -8 -9 -10 -11 11 -13
leaf_value=-0.10137726791338984 -0.11006818852448985 0.38887372457423841 0.022349416276464373 -0.012799498361321869 0.054543680496997961 -0.057328573638668091 -0.006851565610094615 -0.03237732578882007 0.037910626530075243 -0.033326053793253478 0.012511913706264132 -0.031261299839913582
leaf_weight=36 20 20 20 24 24 25 26 29 81 60 25 40
leaf_count=36 20 20 20 24 24 25 26 29 81 60 25 40
internal_value=0 0.129529 0.297475 -0.0270458 -0.000587559 -0.0126529 -0.078721 0.00943126 0.0259517 -0.0779899 -0.039449 -0.0157389
internal_weight=0 86 40 344 248 224 46 134 105 96 90 65
internal_count=430 86 40 344 248 224 46 134 105 96 90 65
is_linear=0
shrinkage=0.484407


Tree=4
num_leaves=12
num_cat=0
split_feature=1 6 9 4 6 6 0 8 3 3 6
split_gain=7.19173 20.2867 1.76026 0.866694 1.01689 1.15659 0.827878 0.401109 0.321398 0.249462 0.0260773
threshold=1.0000000180025095e-35 -0.8184780333299243 2.2735893300797394 0.8951235967023129 0.24778884213467658 0.8154538295463204 -0.060200278938813571 -0.41388561785709427 0.29171749014780307 0.21951830658232335 -2.3307072394094588
decision_type=2 2 2 2 2 2 2 2 2 2 2
left_child=2 10 3 4 9 6 -6 -5 -7 -1 -2
right_child=1 -3 -4 7 5 8 -8 -9 -10 -11 -12
leaf_value=-0.091680620234100202 -0.089640881094583458 0.33375233605084487 0.058250404877772236 0.04481446588798009 -0.011504662540829243 -0.0019054580983458096 0.056961543572150754 -0.014736540668852445 -0.07375938958515503 -0.017275507441715535 -0.016592874090475416
leaf_weight=55 20 21 31 23 112 21 27 28 39 33 20
leaf_count=55 20 21 31 23 112 21 27 28 39 33 20
internal_value=0 0.130765 -0.0187337 -0.0302785 -0.040087 -0.0157937 0.00993964 0.0189312 -0.058185 -0.0759781 -0.0769674
internal_weight=0 61 369 338 287 199 139 51 60 88 40
internal_count=430 61 369 338 287 199 139 51 60 88 40
is_linear=0
shrinkage=0.484407


Tree=5
num_leaves=13
num_cat=0
split_feature=9 0 6 6 0 6 3 0 3 6 4 9
split_gain=5.08483 5.45712 1.51392 2.03323 1.03068 0.740225 0.655007 0.437083 0.175418 0.179417 0.135859 0.0582749
threshold=-0.22870709049027663 0.87973181847747051 -1.3368723949795782 0.060813134114817612 -0.70973359540770897 -0.3983722533285477 0.54558600581167371 -0.060200278938813571 0.55623485294522534 0.18487404308475122 -0.20231709210133844 -0.57066950805190564
decision_type=2 2 2 2 2 2 2 2 2 2 2 2
left_child=2 8 -1 5 11 -4 7 -6 9 -2 -11 -5
right_child=1 -3 3 4 6 -7 -8 -9 -10 10 -12 -13
leaf_value=-0.08860470799155773 -0.0066581890548002755 0.20441273648943656 -0.00028728771842645375 -0.087143427576118662 -0.0066958095470399642 0.086090554061932736 -0.047313740446281782 0.047437962995252846 -0.0109629224193439 0.04198535050897937 0.00086165840289919313 -0.021906493688526353
leaf_weight=40 24 22 38 28 67 26 20 28 25 50 27 35
leaf_count=40 24 22 38 28 67 26 20 28 25 50 27 35
internal_value=0 0.0753634 -0.0268564 -0.00740073 -0.0333955 0.0517548 -0.00189027 0.0171386 0.0157357 0.0234838 0.0321777 -0.0706913
internal_weight=0 148 282 242 178 64 115 95 126 101 77 63
internal_count=430 148 282 242 178 64 115 95 126 101 77 63
is_linear=0
shrinkage=0.484407


Tree=6
num_leaves=10
num_cat=0
split_feature=8 6 9 3 0 0 6 4 9
split_gain=5.02757 8.87911 0.549606 0.515707 0.378689 0.794075 0.633388 0.206461 0.0670041
threshold=1.0326393407683125 -1.3368723949795782 2.2735893300797394 -0.25009585200730322 -1.0419998853082129 -0.24332171996739357 0.8154538295463204 1.2303364433377497 -0.45668203553136266
decision_type=2 2 2 2 2 2 2 2 2
left_child=2 -2 3 8 -5 6 -6 -7 -1
right_child=1 -3 -4 4 5 7 -8 -9 -10
leaf_value=-0.0035107672010176202 -0.054324897579874722 0.2246581595794086 0.029459474895090709 -0.068757627647343264 0.043757127637397787 -0.042355573124945416 -0.022010222870811207 -2.8158119809231716e-05 0.020162379031831313
leaf_weight=31 30 28 31 22 45 134 35 33 41
leaf_count=31 30 28 31 22 45 134 35 33 41
internal_value=0 0.11235 -0.0142623 -0.020467 -0.029523 -0.0184597 0.0168218 -0.0354062 0.0119237
internal_weight=0 58 372 341 269 247 80 167 72
internal_count=430 58 372 341 269 247 80 167 72
is_linear=0
shrinkage=0.484407


Tree=7
num_leaves=12
num_cat=0
split_feature=4 5 8 6 3 5 9 5 3 5 4
split_gain=3.04644 12.2006 0.894331 0.601196 0.926386 0.376378 0.224414 0.0988992 0.080317 0.0739248 0.0736772
threshold=-0.36032479073287893 -0.45003079979866983 1.0000000180025095e-35 0.55365414900175747 0.6024508495048394 -0.022200270615104559 -0.22870709049027663 0.21632867504895442 -0.25009585200730322 1.0475550609334257 0.10819017622790221
decision_type=2 2 2 2 2 2 2 2 2 2 2
left_child=1 -1 5 7 9 6 8 -3 -2 -5 -8
right_child=2 3 -4 4 -6 -7 10 -9 -10 -11 -12
leaf_value=0.2513045174399986 0.00020531096021255988 -0.0054775955225071305 -0.05469079801237451 0.047789566540087682 -0.040966555928830438 0.028273214832861812 -0.0060293453500126241 -0.052336179241513715 -0.032175954131247325 0.0065955299698381726 0.019426107555797829
leaf_weight=22 21 23 89 34 24 42 28 37 59 27 24
leaf_count=22 21 23 89 34 24 42 28 37 59 27 24
internal_value=0 0.054906 -0.0227435 -0.0150807 0.010681 -0.000357443 -0.0132959 -0.0426858 -0.0259534 0.038259 0.00851807
internal_weight=0 167 263 145 85 174 132 60 80 61 52
internal_count=430 167 263 145 85 174 132 60 80 61 52
is_linear=0
shrinkage=0.484407


Tree=8
num_leaves=9
num_cat=0
split_feature=8 4 4 6 3 0 9 4
split_gain=2.64131 5.56089 0.345126 0.577862 0.386957 0.247695 0.449062 0.144161
threshold=1.0326393407683125 0.84098732948491051 0.8951235967023129 0.10907308037399757 0.86994988949965613 -0.060200278938813571 -0.22870709049027663 1.6699067327638402
decision_type=2 2 2 2 2 2 2 2
left_child=2 -2 3 -1 5 6 -5 -4
right_child=1 -3 7 4 -6 -7 -8 -9
leaf_value=-0.046588330997252222 0.18759379444586519 -0.033733323167560433 0.031737887193750973 -0.018539105219843158 -0.037946805889368405 0.031031682886993841 0.022762924001555624 -0.0063218108503159164
leaf_weight=60 21 37 36 122 24 38 71 21
leaf_count=60 21 37 36 122 24 38 71 21
internal_value=0 0.0846368 -0.00725152 -0.0137077 -0.00157456 0.0063408 -0.00221141 0.020366
internal_weight=0 58 372 315 255 231 193 57
internal_count=430 58 372 315 255 231 193 57
is_linear=0
shrinkage=0.484407


Tree=9
num_leaves=13
num_cat=0
split_feature=1 6 4 3 6 8 4 5 4 4 5 3
split_gain=1.75712 5.21083 0.218562 0.257196 0.318909 0.21797 0.207032 0.199102 0.134329 0.118569 0.0983881 0.0955783
threshold=1.0000000180025095e-35 -0.8184780333299243 1.1621598474654597 0.55623485294522534 0.6043397260676816 -0.47904567315573726 -0.5324808205474213 -0.86868713876438675 -0.11575306581755172 1.6699067327638402 0.38817692108084684 0.18501604186961604
decision_type=2 2 2 2 2 2 2 2 2 2 2 2
left_child=2 -2 3 4 5 8 -6 -7 -1 -4 -5 -8
right_child=1 -3 9 10 6 7 11 -9 -10 -11 -12 -13
leaf_value=-0.037009705795814002 -0.037148060740017773 0.17167845933169115 0.030986341325038795 -0.0021158255606490714 0.033211068685486803 -0.022164772909498084 0.011001304864769532 0.013445574947462142 0.00070953229890177694 -0.0051130530707632479 -0.046392777824977485 -0.016834745886492
leaf_weight=58 40 21 24 20 43 23 26 79 27 21 21 27
leaf_count=58 40 21 24 20 43 23 26 79 27 21 21 27
internal_value=0 0.0690965 -0.00496684 -0.00971973 -0.00272964 -0.013746 0.0167017 0.00193782 -0.0280266 0.0188842 -0.0353845 -0.00404665
internal_weight=0 61 369 324 283 187 96 102 85 45 41 53
internal_count=430 61 369 324 283 187 96 102 85 45 41 53
is_linear=0
shrinkage=0.484407


Tree=10
num_leaves=13
num_cat=0
split_feature=9 3 8 3 3 6 8 0 8 9 3 8
split_gain=1.59791 1.49808 1.13607 0.558968 0.545788 0.466158 0.454705 0.230597 0.219899 0.0941284 0.057743 0.0341313
threshold=-0.22870709049027663 0.17372826390805127 -0.54135527050386112 0.022088680726276122 0.54558600581167371 0.55365414900175747 -0.1789230757209174 -0.43609486087924648 -0.46974045918503443 2.2735893300797394 0.45762652848853741 -0.47268514715044668
decision_type=2 2 2 2 2 2 2 2 2 2 2 2
left_child=3 2 -2 5 6 -1 7 11 -3 -10 -9 -5
right_child=1 8 -4 4 -6 -7 -8 10 9 -11 -12 -13
leaf_value=-0.052749987937327554 0.0040262423915637825 0.02315572331297136 0.12778536482101008 0.023797675470488267 -0.029117939467633091 0.0036276907458232099 0.053970701572931448 -0.027178117607433546 -0.023475992787088489 0.0055095319411160625 0.0010465143109401576 0.00021094889849256277
leaf_weight=72 28 30 27 28 44 45 28 24 38 25 20 21
leaf_count=72 28 30 27 28 44 45 28 24 38 25 20 21
internal_value=0 0.0440514 0.0896668 -0.0133052 0.00513653 -0.0348858 0.0211705 0 0.000858044 -0.0138793 -0.0191762 0.017924
internal_weight=0 148 55 282 165 117 121 93 93 63 44 49
internal_count=430 148 55 282 165 117 121 93 93 63 44 49
is_linear=0
shrinkage=0.484407


Tree=11
num_leaves=12
num_cat=0
split_feature=8 5 5 9 5 6 8 0 5 0 0
split_gain=1.71279 1.9419 0.174245 0.152325 0.187725 0.180467 0.12588 0.111547 0.110287 0.0820721 0.0210688
threshold=1.0326393407683125 -0.38335010016650323 1.5156625227807157 -0.45668203553136266 -0.45003079979866983 0.060813134114817612 -0.48599513675411027 -0.70973359540770897 0.98476779812541904 -0.70973359540770897 -0.15521735143832963
decision_type=2 2 2 2 2 2 2 2 2 2 2
left_child=2 -2 3 5 6 -1 -5 -7 9 -6 -9
right_child=1 -3 -4 4 8 7 -8 10 -10 -11 -12
leaf_value=0.011457760365298907 0.12631644641738288 -0.010349094067170691 -0.030598661938070384 0.0079621198118182031 0.002834691255008934 -0.037334564394956804 -0.020239894730557078 0.0049842419665898918 -0.0058551825059696069 0.029068207013939883 -0.0087713268811295663
leaf_weight=24 22 36 26 39 52 33 59 20 33 63 23
leaf_count=24 22 36 26 39 52 33 59 20 33 63 23
internal_value=0 0.06795 -0.0060327 -0.00170793 0.0048356 -0.0151494 -0.00973434 -0.024568 0.014563 0.0204998 -0.00282488
internal_weight=0 58 372 346 246 100 98 76 148 115 43
internal_count=430 58 372 346 246 100 98 76 148 115 43
is_linear=0
shrinkage=0.484407


Tree=12
num_leaves=10
num_cat=0
split_feature=8 4 3 5 4 6 8 0 4
split_gain=1.12359 1.8679 0.112538 0.147332 0.200324 0.0919629 0.0875415 0.205248 0.0676017
threshold=1.0326393407683125 0.84098732948491051 0.86994988949965613 1.5156625227807157 -0.65336265013959605 0.6043397260676816 -0.45687806215211357 -1.0419998853082129 -0.20231709210133844
decision_type=2 2 2 2 2 2 2 2 2
left_child=2 -2 3 4 5 -1 7 -6 -8
right_child=1 -3 -4 -5 6 -7 8 -9 -10
leaf_value=0.00058911325608430258 0.11420612423580465 -0.015908281222347019 -0.025046618356999877 -0.023977340376696157 -0.01970305364575747 0.030976117638523207 0.0027790488674794061 0.015669974404879796 -0.017492747087566776
leaf_weight=39 21 37 24 26 26 35 43 85 94
leaf_count=39 21 37 24 26 26 35 43 85 94
internal_value=0 0.0550271 -0.00489081 -0.00146665 0.00233297 0.0201049 -0.00462977 0.00473611 -0.0117437
internal_weight=0 58 372 348 322 74 248 111 137
internal_count=430 58 372 348 322 74 248 111 137
is_linear=0
shrinkage=0.484407


Tree=13
num_leaves=13
num_cat=0
split_feature=5 4 6 4 6 4 6 3 0 4 0 9
split_gain=0.837703 1.81386 1.58025 0.529613 0.237084 0.140105 0.188332 0.0784184 0.0617504 0.0219128 0.0151672 0.0067203
threshold=0.15689782329625832 -0.39542561237009743 0.38254610917601634 1.8367706387007712 0.060813134114817612 0.84098732948491051 0.10907308037399757 0.096630610661137456 -0.12984903215053853 1.0000000180025095e-35 -0.12984903215053853 -0.45668203553136266
decision_type=2 2 2 2 2 2 2 2 2 2 2 2
left_child=1 2 -1 4 -3 6 -2 11 9 -6 -4 -8
right_child=5 3 10 -5 8 -7 7 -9 -10 -11 -12 -13
leaf_value=0.13059456371938505 -0.042099871818818392 0.02540642402237794 0.0091465247812311003 -0.047496332788333324 -0.016445951896343472 0.0083780197355748185 0.0086590455311352892 -0.016431920223679508 0.0074635907043961438 -0.0010134568213190152 -0.0028945283655808268 -0.00029053335449442372
leaf_weight=22 48 60 26 21 48 20 22 50 31 38 20 24
leaf_count=22 48 60 26 21 48 20 22 50 31 38 20 24
internal_value=0 0.0212788 0.0744472 -0.00479066 0.00675197 -0.0195558 -0.0243232 -0.00700245 -0.00615563 -0.0118587 0.00472719 0.00564486
internal_weight=0 266 68 198 177 164 144 96 117 86 46 46
internal_count=430 266 68 198 177 164 144 96 117 86 46 46
is_linear=0
shrinkage=0.484407


Tree=14
num_leaves=11
num_cat=0
split_feature=3 3 6 0 9 8 9 5 3 5
split_gain=0.779815 1.88033 0.444604 0.138443 0.175251 0.134296 0.0931461 0.0850143 0.0278336 0.00331826
threshold=0.12857715206179232 0.18501604186961604 0.69754122088514814 -1.4301547346679382 -0.22870709049027663 -0.45687806215211357 2.2735893300797394 -0.42586464020043496 0.022088680726276122 0.50954474484087087
decision_type=2 2 2 2 2 2 2 2 2 2
left_child=2 -2 3 -1 8 7 -7 -3 -5 -9
right_child=1 5 -4 4 -6 6 -8 9 -10 -11
leaf_value=0.0047432107356367619 0.09110484391483771 -0.0070111635156669414 0.021089964056471778 -0.042502227284089693 0.0011202794804172293 -0.01732739983937474 0.0080173756458618954 0.02083386403415257 -0.0084898657143586565 0.0034424235517703989
leaf_weight=20 37 25 34 84 30 88 25 40 27 20
leaf_count=20 37 25 34 84 30 88 25 40 27 20
internal_value=0 0.0223612 -0.0163064 -0.0264625 -0.0310146 -0.00138199 -0.011106 0.010946 -0.0380793 0.0183892
internal_weight=0 235 195 161 141 198 113 85 111 60
internal_count=430 235 195 161 141 198 113 85 111 60
is_linear=0
shrinkage=0.484407


Tree=15
num_leaves=12
num_cat=0
split_feature=8 6 4 6 0 4 3 0 3 5 4
split_gain=0.693289 0.767344 0.0917642 0.0776524 0.0951935 0.0641417 0.0640476 0.0592177 0.0559367 0.0466293 0.0187813
threshold=1.0326393407683125 -2.3307072394094588 1.1621598474654597 0.10907308037399757 -0.060200278938813571 -0.8073472545988708 0.86994988949965613 -1.0419998853082129 0.21951830658232335 0.38817692108084684 1.6699067327638402
decision_type=2 2 2 2 2 2 2 2 2 2 2
left_child=2 -2 3 8 5 9 -6 -7 -1 -5 -4
right_child=1 -3 10 4 6 7 -8 -9 -10 -11 -12
leaf_value=-0.025174488932374985 -0.0176120672798009 0.068826966495210182 0.016335276633898752 0.0014403829038139408 0.019038287396129262 0.012810752036157027 -0.0054693398053374939 -0.0055488861062296902 0 -0.022299096133829528 -4.3330806310553915e-05
leaf_weight=42 20 38 24 20 38 26 20 109 29 43 21
leaf_count=42 20 38 24 20 38 26 20 109 29 43 21
internal_value=0 0.0432456 -0.00381818 -0.00684598 -0.00200228 -0.0070724 0.0115235 -0.000157463 -0.0181242 -0.0167032 0.0117121
internal_weight=0 58 372 327 256 198 58 135 71 63 45
internal_count=430 58 372 327 256 198 58 135 71 63 45
is_linear=0
shrinkage=0.484407


Tree=16
num_leaves=11
num_cat=0
split_feature=9 4 5 1 0 5 9 8 4 5
split_gain=0.547785 0.407338 0.369888 0.850381 0.22332 0.131289 0.088413 0.0688369 0.0333188 0.0299682
threshold=0.41722192045946715 1.8124700698750045 0.84916879149087887 1.0000000180025095e-35 0.18937442006986729 1.0475550609334257 -0.57066950805190564 -0.47103612188981586 -0.39542561237009743 1.5156625227807157
decision_type=2 2 2 2 2 2 2 2 2 2
left_child=1 2 3 6 -2 -4 8 -8 -1 -7
right_child=4 -3 5 -5 -6 9 7 -9 -10 -11
leaf_value=-0.021275272784328145 0.0012004009393655293 -0.042437905241002091 -0.039852653184607213 0.059028998125891553 0.058809236720143633 0.0044601554741003331 0.011661637458479325 -0.0050740886122782889 -0.0023608782438761279 -0.011062859046408607
leaf_weight=25 25 22 20 35 21 33 90 82 53 24
leaf_count=25 25 22 20 35 21 33 90 82 53 24
internal_value=0 -0.00322051 0.00240558 0.0106279 0.0410349 -0.0220815 -0.00206984 0.00408436 -0.0129736 -0.00358035
internal_weight=0 384 362 285 46 77 250 172 78 57
internal_count=430 384 362 285 46 77 250 172 78 57
is_linear=0
shrinkage=0.484407


Tree=17
num_leaves=13
num_cat=0
split_feature=4 8 1 3 6 4 0 4 4 9 4 0
split_gain=0.567954 1.59595 0.267714 0.0753682 0.114889 0.0704855 0.0403685 0.0718089 0.0699614 0.0377372 0.0221843 0.0121345
threshold=-0.30632352667561935 -0.15300982162528931 1.0000000180025095e-35 0.85142089548727617 0.57513108843647098 1.1621598474654597 -0.5419374886532442 -0.038585259479728157 1.0000000180025095e-35 -0.45668203553136266 -0.65336265013959605 -0.12984903215053853
decision_type=2 2 2 2 2 2 2 2 2 2 2 2
left_child=1 3 5 4 9 6 8 -8 -2 -1 -6 -11
right_child=2 -3 -4 -5 10 -7 7 -9 -10 11 -12 -13
leaf_value=-0.017741635071735398 -0.011490109190368244 0.094749977370957639 -0.036253474571345298 -0.017974179225771259 0.018530789521609407 0.010279407196963984 0.0028041215173060545 -0.020821208569298557 0.010892711061039695 0.0054649528700146275 0.0009199920643750499 -0.0043958468380672624
leaf_weight=21 26 20 46 20 43 45 36 49 43 23 28 30
leaf_count=21 26 20 46 20 43 45 36 49 43 23 28 30
internal_value=0 0.0209076 -0.0121897 -0.00199506 0.00300952 -0.00230249 -0.00718309 -0.0126952 0.00137186 -0.00862176 0.014152 0.000195715
internal_weight=0 185 245 165 145 199 154 85 69 74 71 53
internal_count=430 185 245 165 145 199 154 85 69 74 71 53
is_linear=0
shrinkage=0.484407


Tree=18
num_leaves=13
num_cat=0
split_feature=3 0 4 3 3 5 5 6 3 4 4 0
split_gain=0.395168 0.930976 0.454307 0.0996448 0.0636684 0.0945364 0.0855128 0.0535662 0.0439785 0.0319519 0.0291818 0.0276904
threshold=0.022088680726276122 0.87973181847747051 1.2600371385692422 -0.25009585200730322 0.86994988949965613 -0.45003079979866983 0.98476779812541904 -1.3368723949795782 0.17372826390805127 -0.17882654223643055 -0.36032479073287893 -0.12984903215053853
decision_type=2 2 2 2 2 2 2 2 2 2 2 2
left_child=3 4 -3 10 5 8 -7 -5 -2 -10 -1 -8
right_child=1 2 -4 7 -6 6 11 -9 9 -11 -12 -13
leaf_value=-0.008591761682313754 0.0051775322462633382 0.084596219717202145 -0.00026769890805093926 -0.0038708065222615505 -0.01610240096297651 0.015732086949873141 0.0040941775656429431 -0.033997941988497184 0.00076898476859413344 -0.018412453544425396 0.0056213082894765176 -0.012167756990645383
leaf_weight=35 21 20 20 30 24 95 21 38 23 43 37 23
leaf_count=35 21 20 20 30 24 95 21 38 23 43 37 23
internal_value=0 0.0123453 0.0608094 -0.0164194 -0.00142209 0.0019059 0.00903778 -0.0263375 -0.00875496 -0.01355 -0.00169678 -0.00580426
internal_weight=0 290 40 140 250 226 139 68 87 66 72 44
internal_count=430 290 40 140 250 226 139 68 87 66 72 44
is_linear=0
shrinkage=0.484407


Tree=19
num_leaves=13
num_cat=0
split_feature=4 5 5 5 0 8 4 6 9 5 6 3
split_gain=0.289356 1.08639 0.151667 0.179225 0.105626 0.098429 0.0510653 0.0335097 0.0316766 0.0401395 0.0239336 0.00803517
threshold=-0.33610522380319807 -0.53810302589001469 0.84916879149087887 1.0000000180025095e-35 -0.060200278938813571 -0.45687806215211357 0.50779953025162072 -0.8184780333299243 -0.22870709049027663 0.050879986095853889 -1.1987461962622048 0.53536311256346403
decision_type=2 2 2 2 2 2 2 2 2 2 2 2
left_child=1 -1 3 5 8 11 -7 -5 9 -3 -8 -2
right_child=2 4 -4 7 -6 6 10 -9 -10 -11 -12 -13
leaf_value=0.074002836280922385 0.0054482566853758883 0.00066068867767102703 -0.029538317204942863 0.021781300970006537 0.011472159271217405 -0.0024206418845154872 -0.0039971421190817813 0.00058569261149042954 -0.00026521702243485626 -0.021364995571820148 -0.03143932312136611 -0.0023390791104851826
leaf_weight=23 48 22 29 33 40 42 22 28 45 46 27 25
leaf_count=23 48 22 29 33 40 42 22 28 45 46 27 25
internal_value=0 0.0156482 -0.00810031 -0.00193987 -0.00440367 -0.0100791 -0.0185118 0.0157402 -0.011401 -0.0162013 -0.0257321 0.00277172
internal_weight=0 176 254 225 153 164 91 61 113 68 49 73
internal_count=430 176 254 225 153 164 91 61 113 68 49 73
is_linear=0
shrinkage=0.484407


Tree=20
num_leaves=12
num_cat=0
split_feature=9 3 4 5 8 4 8 0 7 3 4
split_gain=0.239373 0.154996 0.148294 0.208008 0.188463 0.117545 0.153279 0.0475052 0.0354859 0.0171542 0.0168463
threshold=0.41722192045946715 0.39373344568722773 1.8124700698750045 -0.95071782495617285 -0.35819567905521715 0.668318287661824 -0.41388561785709427 -0.060200278938813571 1.0000000180025095e-35 0.096630610661137456 -0.59868637028162108
decision_type=2 2 2 2 2 2 2 2 2 2 2
left_child=2 -2 3 4 9 6 7 -5 -7 -1 -8
right_child=1 -3 -4 5 -6 8 10 -9 -10 -11 -12
leaf_value=0.004486385141888781 0.0399717091705344 -0.0033125445075253787 -0.02657916301156343 -0.0041756098689131544 0.038870816575701919 -0.00063210605009817518 -0.0050553364698337367 0.012070299261035792 0.017754733235531121 -0.0078642883449127014 -0.02657012094091454
leaf_weight=22 24 22 22 115 23 38 31 27 24 21 61
leaf_count=22 24 22 22 115 23 38 31 27 24 21 61
internal_value=0 0.0262829 -0.00294132 0.000519787 0.0200661 -0.00534446 -0.010171 0.000507227 0.00999882 -0.0021762 -0.0226041
internal_weight=0 46 384 362 66 296 234 142 62 43 92
internal_count=430 46 384 362 66 296 234 142 62 43 92
is_linear=0
shrinkage=0.484407


Tree=21
num_leaves=12
num_cat=0
split_feature=3 0 5 6 0 9 4 8 9 9 6
split_gain=0.209845 0.554506 0.320299 0.135234 0.0726693 0.115411 0.0631971 0.0444407 0.0327891 0.0153779 0.0190668
threshold=0.12857715206179232 0.87973181847747051 -0.36670230133216369 0.69754122088514814 -0.15521735143832963 -0.45668203553136266 -1.0579941217206394 -0.45687806215211357 -0.45668203553136266 -0.22870709049027663 0.6043397260676816
decision_type=2 2 2 2 2 2 2 2 2 2 2
left_child=3 6 -3 4 8 -6 -2 9 -1 10 -8
right_child=1 2 -4 -5 5 -7 7 -9 -10 -11 -12
leaf_value=-0.0092758888026567531 0.012951101714526831 0.067584326798637434 -0.0015626230309206356 0.011759848224245291 0 -0.0329234018142643 0.0042293532348485147 -0.011110407663306893 0.0054452182864490207 0.0081004048414377167 -0.0085932075963697403
leaf_weight=37 23 20 20 34 37 45 27 97 42 28 20
leaf_count=37 23 20 20 34 37 45 27 97 42 28 20
internal_value=0 0.0112851 0.0475735 -0.00875973 -0.0143908 -0.0222628 -0.00179554 -0.00555554 -0.00203498 0.00270018 -0.00235633
internal_weight=0 235 40 195 161 82 195 172 79 75 47
internal_count=430 235 40 195 161 82 195 172 79 75 47
is_linear=0
shrinkage=0.484407


Tree=22
num_leaves=12
num_cat=0
split_feature=4 8 9 0 3 6 5 3 7 4 0
split_gain=0.158994 0.608402 0.0882526 0.12267 0.0555222 0.0410932 0.0359389 0.0497122 0.0192215 0.00961787 0.00125194
threshold=0.48652303221306054 -0.10141888847126609 -0.57066950805190564 0.87973181847747051 0.86994988949965613 0.69754122088514814 -0.70959325474267387 -0.7606015835897677 1.0000000180025095e-35 -0.5324808205474213 -0.20086728331867368
decision_type=2 2 2 2 2 2 2 2 2 2 2
left_child=1 4 8 -4 5 6 10 -8 -2 -7 -1
right_child=2 -3 3 -5 -6 9 7 -9 -10 -11 -12
leaf_value=-0.0018205899686302048 -0.0028518641570334968 0.05658733077369283 0.002744414459989518 -0.029286780868080873 -0.014196447235173042 0.015094048792124042 -0.010193594153613055 0.0064727821224923139 0.010379249462347011 0.0019275253000078502 -0.011835808876607328
leaf_weight=21 28 20 36 42 24 25 25 132 20 34 23
leaf_count=21 28 20 36 42 24 25 25 132 20 34 23
internal_value=0 0.00852194 -0.0101406 -0.0179162 -0.000244555 0.00242631 -0.00120946 0.00247448 0.00447071 0.0109931 -0.00999701
internal_weight=0 304 126 78 284 260 201 157 48 59 44
internal_count=430 304 126 78 284 260 201 157 48 59 44
is_linear=0
shrinkage=0.484407


Tree=23
num_leaves=13
num_cat=0
split_feature=5 1 4 8 5 3 5 3 8 9 0 5
split_gain=0.159401 0.284473 0.375135 0.076864 0.0402655 0.0307059 0.044966 0.0279875 0.0281457 0.013649 0.00842249 0.00456795
threshold=0.84916879149087887 1.0000000180025095e-35 1.0565063743374321 -0.15300982162528931 1.5414397596854996 0.86994988949965613 1.0000000180025095e-35 0.51193564886965071 -0.41388561785709427 -0.22870709049027663 0.091553137469130033 0.42487368195224046
decision_type=2 2 2 2 2 2 2 2 2 2 2 2
left_child=1 5 -3 4 -2 6 7 8 -1 11 -9 -8
right_child=3 2 -4 -5 -6 -7 9 10 -10 -11 -12 -13
leaf_value=0.00057092563537734775 0.0070836433945985393 0.056586554978810225 -0.00625574807860427 -0.025873019970764834 -0.01067773286342749 -0.010922670002930727 0.0047560398340729297 0.0084079282464323071 -0.011296724516599561 0.014910689362796482 -0.0010838980823939415 -0.0014846675786221418
leaf_weight=85 38 21 28 27 20 20 27 29 61 27 21 26
leaf_count=85 38 21 28 27 20 20 27 29 61 27 21 26
internal_value=0 0.00689558 0.0322941 -0.0135821 -0.000538164 -2.97399e-05 0.00178084 -0.00226763 -0.00546792 0.00960681 0.00541771 0.00215471
internal_weight=0 345 49 85 58 296 276 196 146 80 50 53
internal_count=430 345 49 85 58 296 276 196 146 80 50 53
is_linear=0
shrinkage=0.484407


Tree=24
num_leaves=13
num_cat=0
split_feature=5 4 0 8 4 3 0 9 4 0 0 6
split_gain=0.121509 0.172829 0.465555 0.0488641 0.0431241 0.029092 0.0283132 0.0309337 0.0167558 0.0342825 0.01149 0.00767914
threshold=0.15689782329625832 1.8367706387007712 0.87973181847747051 -0.35819567905521715 0.668318287661824 0.51193564886965071 -0.060200278938813571 -0.45668203553136266 1.0000000180025095e-35 -0.70973359540770897 -0.12984903215053853 0.62960671363793286
decision_type=2 2 2 2 2 2 2 2 2 2 2 2
left_child=1 2 5 6 -5 8 7 -2 10 -10 -1 -7
right_child=3 -3 -4 4 -6 11 -8 -9 9 -11 -12 -13
leaf_value=-0.0091356468280181131 0.0048623464133889646 -0.018564681439358001 0.046290383000881515 -0.021292019799020089 0.00087874619915790893 0.00020233602480854214 0.0077091503982996412 -0.010790049156689888 0.0086846562692713888 -0.0076599830966435425 0.0007467393597307678 0.010728487766882485
leaf_weight=60 24 21 38 40 24 27 34 42 41 20 30 29
leaf_count=60 24 21 38 40 24 27 34 42 41 20 30 29
internal_value=0 0.0079884 0.0121984 -0.00755247 -0.0153466 0.000502285 0 -0.00525243 -0.00299363 0.00240656 -0.00641811 0.00771134
internal_weight=0 266 245 164 64 207 100 66 151 61 90 56
internal_count=430 266 245 164 64 207 100 66 151 61 90 56
is_linear=0
shrinkage=0.484407


Tree=25
num_leaves=13
num_cat=0
split_feature=5 4 3 8 9 9 0 0 0 3 9 3
split_gain=0.123943 0.407778 0.07388 0.0353216 0.0368068 0.0358763 0.0627479 0.0302879 0.0260643 0.00986589 0.0192864 0.0402253
threshold=-0.95071782495617285 -0.038585259479728157 0.05403522212693098 -0.41388561785709427 0.41722192045946715 -0.45668203553136266 0.39062540547378416 -1.0419998853082129 0.87973181847747051 0.54558600581167371 -0.45668203553136266 0.45762652848853741
decision_type=2 2 2 2 2 2 2 2 2 2 2 2
left_child=1 -1 -3 7 5 8 -7 -2 -5 10 -9 -12
right_child=3 2 -4 4 -6 6 -8 9 -10 -11 11 -13
leaf_value=0.046086335445257365 -0.0076070855388609563 -0.017608567239472409 0.0058136989535084215 -0.0070540461762597052 0.0052373555286433279 0 -0.022754108483440838 0.013139848680276048 0.0074394696217093756 -0.00087652466412571975 -0.0069534056887882879 0.0099501257474109966
leaf_weight=23 31 32 38 26 23 43 48 30 26 41 41 28
leaf_count=23 31 32 38 26 23 43 48 30 26 41 41 28
internal_value=0 0.01455 -0.00695488 -0.00309636 -0.00753779 -0.0102435 -0.0147491 0.00166954 0.000128994 0.00482927 0.00691562 0.000775126
internal_weight=0 93 70 337 166 143 91 171 52 140 99 69
internal_count=430 93 70 337 166 143 91 171 52 140 99 69
is_linear=0
shrinkage=0.484407


Tree=26
num_leaves=11
num_cat=0
split_feature=9 0 4 5 6 4 8 6 4 4
split_gain=0.0843237 0.0796858 0.0615359 0.0625553 0.0648782 0.0417293 0.113112 0.0380513 0.0169678 0.00669701
threshold=0.41722192045946715 0.18937442006986729 1.8124700698750045 -0.95071782495617285 0.18487404308475122 0.668318287661824 -0.10141888847126609 0.8154538295463204 1.2303364433377497 0.10819017622790221
decision_type=2 2 2 2 2 2 2 2 2 2
left_child=2 -2 3 4 -1 6 7 -5 -7 -6
right_child=1 -3 -4 5 9 8 -8 -9 -10 -11
leaf_value=0.023324584003624353 -0.0028085312395397959 0.026913564142181427 -0.016496875853792527 0.0033035133219058575 -0.0046887211021171887 0.010913903335123439 -0.025021686255741707 -0.0094657421391410364 -0.0016004120820335545 0.0028708701014022882
leaf_weight=20 25 21 22 169 20 35 22 43 27 26
leaf_count=20 25 21 22 169 20 35 22 43 27 26
internal_value=0 0.0161074 -0.00124689 0.000922476 0.011608 -0.00233001 -0.00527196 -0.000145785 0.00665717 -0.000845243
internal_weight=0 46 384 362 66 296 234 212 62 46
internal_count=430 46 384 362 66 296 234 212 62 46
is_linear=0
shrinkage=0.484407


Tree=27
num_leaves=13
num_cat=0
split_feature=3 0 5 4 6 3 5 3 4 9 3 5
split_gain=0.0751225 0.205593 0.0806854 0.0356268 0.0733603 0.026865 0.0631715 0.021752 0.020636 0.0205643 0.0216637 0.0144615
threshold=0.022088680726276122 0.87973181847747051 -0.36670230133216369 0.50779953025162072 -1.3368723949795782 0.86994988949965613 -0.45003079979866983 0.17372826390805127 -0.17882654223643055 -0.45668203553136266 0.29171749014780307 -0.70959325474267387
decision_type=2 2 2 2 2 2 2 2 2 2 2 2
left_child=3 5 -3 8 -5 6 7 -2 -1 -8 -11 -9
right_child=1 2 -4 4 -6 -7 9 11 -10 10 -12 -13
leaf_value=-0.0042929989940622242 0.0028293294835402224 0.038180211446742267 0.00052064361435943561 0.0026148827681354795 -0.02417897588359293 -0.010578318627174206 -0.0017958485000008526 -0.013862189480508798 0.0076181533993102228 0 0.013635970230089818 0
leaf_weight=63 21 20 20 30 26 24 35 45 21 39 65 21
leaf_count=63 21 20 20 30 26 24 35 45 21 39 65 21
internal_value=0 0.00535609 0.028141 -0.00718022 -0.0139798 -0.0010437 0.00111704 -0.00753265 0 0.006997 0.00976605 -0.0107941
internal_weight=0 290 40 140 56 250 226 87 84 139 104 66
internal_count=430 290 40 140 56 250 226 87 84 139 104 66
is_linear=0
shrinkage=0.484407


Tree=28
num_leaves=12
num_cat=0
split_feature=5 4 3 8 8 4 7 3 5 6 4
split_gain=0.0827092 0.229806 0.0401286 0.0512634 0.0211033 0.0425412 0.0491727 0.033179 0.0263719 0.0281517 0.029919
threshold=-0.95071782495617285 -0.038585259479728157 0.51193564886965071 -0.45687806215211357 -0.10141888847126609 0.668318287661824 1.0000000180025095e-35 0.86994988949965613 1.5414397596854996 0.69754122088514814 -0.24684113431654872
decision_type=2 2 2 2 2 2 2 2 2 2 2
left_child=1 -1 3 -3 7 -6 -7 8 9 10 -2
right_child=4 2 -4 -5 5 6 -8 -9 -10 -11 -12
leaf_value=0.035259994319323161 -0.0041561589609685314 0.0044032180644853983 0.0071083697086468788 -0.01808353335878899 -0.017762628351695477 -0.0085551448628646814 0.010993532730958851 -0.011440303445328398 -0.0082092890475119803 0.011816884569039739 0.0068500906766806946
leaf_weight=23 109 21 20 29 24 33 24 20 20 41 66
leaf_count=23 109 21 20 29 24 33 24 20 20 41 66
internal_value=0 0.0116339 -0.00467971 -0.0104732 -0.0027755 -0.0082883 0.000543439 -0.000259873 0.00190433 0.00383099 0.000358417
internal_weight=0 93 70 50 337 81 57 256 236 216 175
internal_count=430 93 70 50 337 81 57 256 236 216 175
is_linear=0
shrinkage=0.484407


Tree=29
num_leaves=13
num_cat=0
split_feature=5 3 8 5 3 3 5 5 9 0 6 9
split_gain=0.06433 0.182392 0.150717 0.0217277 0.0328499 0.0584248 0.0407038 0.0419663 0.040031 0.0370049 0.0263919 0.0179687
threshold=-0.96915570968667797 0.05403522212693098 -0.35819567905521715 -0.45003079979866983 0.52471426542991251 0.29171749014780307 0.84916879149087887 1.0000000180025095e-35 -0.57066950805190564 1.0000000180025095e-35 0.51435556100082691 -0.22870709049027663
decision_type=2 2 2 2 2 2 2 2 2 2 2 2
left_child=1 -1 -3 10 5 6 7 -5 -8 -6 -2 -7
right_child=3 2 -4 4 9 11 8 -9 -10 -11 -12 -13
leaf_value=-0.010367160371742052 -0.014676242570174152 -0.003188107179925979 0.038517124803294729 -0.0062650519639195516 -0.014472317741365898 0.018267318070041189 0.0034720146149115226 0.0093613515181171364 -0.016905559873293237 0.0026681231880775515 0.00039864967545521265 0.00055632025903146296
leaf_weight=37 30 24 24 39 33 26 20 66 29 37 43 22
leaf_count=37 30 24 24 39 33 26 20 66 29 37 43 22
internal_value=0 0.0106227 0.0246128 -0.00237017 -3.65343e-05 0.00309448 -0.00197969 0.00336473 -0.0103672 -0.00731312 -0.00828258 0.0137767
internal_weight=0 85 48 345 272 202 154 105 49 70 73 48
internal_count=430 85 48 345 272 202 154 105 49 70 73 48
is_linear=0
shrinkage=0.484407


Tree=30
num_leaves=13
num_cat=0
split_feature=4 0 4 8 4 6 0 9 6 3 6 4
split_gain=0.0604669 0.146034 0.0426735 0.0315187 0.0441282 0.072111 0.0599198 0.0298614 0.0401102 0.0286978 0.0519465 0.020725
threshold=-0.5324808205474213 -0.060200278938813571 -0.76320932142166997 -0.47103612188981586 -0.21716743971708471 -0.8184780333299243 -0.5419374886532442 -0.45668203553136266 -1.3368723949795782 0.52471426542991251 0.62960671363793286 -0.17882654223643055
decision_type=2 2 2 2 2 2 2 2 2 2 2 2
left_child=1 9 -3 11 -5 7 -7 -6 -9 10 -1 -2
right_child=3 2 -4 4 5 6 -8 8 -10 -11 -12 -13
leaf_value=-0.0068576456157720496 -0.0046704745558822421 0.0016317257186851811 0.031444497979876508 0.0050675944878889184 0.0081965435253143499 -0.0016803591163960117 -0.028033218621668174 0.0052099615055061707 -0.013474088255060305 -0.011739358327905652 0.012846787227595588 0.0064495277350065158
leaf_weight=40 32 20 22 38 32 38 30 25 26 25 24 78
leaf_count=40 32 20 22 38 32 38 30 25 26 25 24 78
internal_value=0 0.00824075 0.0242731 -0.00315045 -0.00657468 -0.00994345 -0.0186949 0.000347526 -0.00570454 -0.00366856 0.0022381 0.00280816
internal_weight=0 131 42 299 189 151 68 83 51 89 64 110
internal_count=430 131 42 299 189 151 68 83 51 89 64 110
is_linear=0
shrinkage=0.484407


Tree=31
num_leaves=13
num_cat=0
split_feature=5 4 8 9 5 5 5 3 4 0 5 4
split_gain=0.0487494 0.13359 0.0182655 0.0486671 0.0186385 0.0362005 0.0248744 0.016556 0.0151396 0.00928858 0.00791893 0.00773264
threshold=-0.95071782495617285 -0.038585259479728157 -0.35819567905521715 1.0000000180025095e-35 -0.38335010016650323 0.38817692108084684 0.90931567760204124 0.05403522212693098 -1.0984410684995267 1.0000000180025095e-35 1.0000000180025095e-35 -0.17882654223643055
decision_type=2 2 2 2 2 2 2 2 2 2 2 2
left_child=1 -1 3 8 9 10 -7 -3 -2 -4 -6 -10
right_child=2 7 4 -5 5 6 -8 -9 11 -11 -12 -13
leaf_value=0.026753474260147587 0.0037640759400050833 -0.0086702314505446836 -0.00082221501418027788 0.011100267860449873 -9.5885287550954382e-05 -0.012483021549248288 0.0023612552495959256 0.0024489503511535902 -0.0080721369708188131 -0.015283770297888794 0.0098950147795905056 -8.4982446389373321e-05
leaf_weight=23 26 32 20 43 24 37 27 38 73 21 22 44
leaf_count=23 26 32 20 43 24 37 27 38 73 21 22 44
internal_value=0 0.00872291 -0.00233634 0.000855125 -0.00579002 -0.00127668 -0.00740618 -0.00365115 -0.00363355 -0.0118524 0.0066414 -0.00581261
internal_weight=0 93 337 186 151 110 64 70 143 41 46 117
internal_count=430 93 337 186 151 110 64 70 143 41 46 117
is_linear=0
shrinkage=0.484407


Tree=32
num_leaves=13
num_cat=0
split_feature=4 4 4 5 3 3 6 9 5 9 4 4
split_gain=0.0461139 0.106437 0.0204072 0.023447 0.0207663 0.0169691 0.0314568 0.0626761 0.0333591 0.0278124 0.017321 0.00741247
threshold=-0.5324808205474213 -0.71924419228945236 -0.95976582240048514 1.5414397596854996 0.29171749014780307 1.0000000180025095e-35 -0.8184780333299243 1.0000000180025095e-35 0.56136773153486341 0.90031168495129232 0.28315427177342239 -0.17882654223643055
decision_type=2 2 2 2 2 2 2 2 2 2 2 2
left_child=1 2 3 4 -1 11 8 10 -7 -9 -8 -2
right_child=5 -3 -4 -5 -6 6 7 9 -10 -11 -12 -13
leaf_value=-0.0020620851671049258 -0.0017276540122417522 0.022860444582265986 -0.0080569470358575167 -0.0057121149799589785 0.012972622624233135 0.0072856425447326697 -0.0049970939822499396 0.0096197107443080528 -0.007188622663294216 -0.00559498665345836 -0.020630842249441776 0.0065091599424947598
leaf_weight=21 22 31 36 20 23 66 65 33 29 21 32 31
leaf_count=21 22 31 36 20 23 66 65 33 29 21 32 31
internal_value=0 0.00723284 -0.00191258 0.00296338 0.00780607 -0.00271445 -0.00437373 -0.00814558 0.00207493 0.00368888 -0.0141007 0.00359357
internal_weight=0 131 100 64 44 299 246 151 95 54 97 53
internal_count=430 131 100 64 44 299 246 151 95 54 97 53
is_linear=0
shrinkage=0.484407


Tree=33
num_leaves=13
num_cat=0
split_feature=3 3 4 6 8 9 0 6 6 6 9 3
split_gain=0.044294 0.132978 0.0923403 0.0377102 0.0285925 0.0265623 0.0229877 0.032434 0.0252821 0.014349 0.0120212 0.0142203
threshold=0.32025640046572146 0.12857715206179232 -0.17882654223643055 0.69754122088514814 -0.46974045918503443 -0.45668203553136266 -0.15521735143832963 -0.8184780333299243 -2.3307072394094588 1.0000000180025095e-35 -0.22870709049027663 0.54558600581167371
decision_type=2 2 2 2 2 2 2 2 2 2 2 2
left_child=1 3 -3 6 10 -6 -1 8 -8 -7 11 -2
right_child=4 2 -4 -5 5 9 7 -9 -10 -11 -12 -13
leaf_value=0.00050007309010891932 0.0041297249561248637 0.030994616566934766 -0.00097625772677921213 0.0079556030291560598 0.002065036492821012 -0.0014831973524279964 -0.0070676392404630563 -0.015936005159958178 0.0080037857194085616 -0.016061157600314541 0.0070667149833137342 -0.0068652898045917987
leaf_weight=79 21 27 29 34 27 31 20 42 20 48 24 28
leaf_count=79 21 27 29 34 27 31 20 42 20 48 24 28
internal_value=0 0.00432156 0.0199953 -0.00232475 -0.00494544 -0.00911439 -0.00551981 -0.00992642 0.000516578 -0.0125308 0.00193504 -0.00224162
internal_weight=0 251 56 195 179 106 161 82 40 79 73 49
internal_count=430 251 56 195 179 106 161 82 40 79 73 49
is_linear=0
shrinkage=0.484407


Tree=34
num_leaves=13
num_cat=0
split_feature=9 3 8 4 4 3 6 0 6 9 0 0
split_gain=0.0372434 0.0410764 0.0334625 0.0170264 0.0362982 0.0359168 0.033447 0.0147597 0.013845 0.0113768 0.0706618 0.0536446
threshold=0.41722192045946715 0.45762652848853741 -0.41388561785709427 0.60265275056819656 -0.55548535903581364 0.18501604186961604 -1.1987461962622048 -1.0419998853082129 -2.3307072394094588 -0.45668203553136266 -0.12984903215053853 -0.12984903215053853
decision_type=2 2 2 2 2 2 2 2 2 2 2 2
left_child=2 -2 7 4 -4 -6 8 -1 -5 11 -11 -9
right_child=1 -3 3 6 5 -7 -8 9 -10 10 -12 -13
leaf_value=-0.0034075914034649873 0.017394744246133721 -0.0033668386457171651 -0.0092304009506477599 -0.0057559718498224116 0.011984191113319869 -0.0048689232322766908 -0.016551668674336092 0.016885593343725122 0.0049822173729474695 -0.0076949305131699015 0.012085651138081053 -0.0054174540143303593
leaf_weight=42 25 21 34 20 37 27 35 31 29 65 43 21
leaf_count=42 25 21 34 20 37 27 35 31 29 65 43 21
internal_value=0 0.0102852 -0.00123487 -0.00555282 -0.000537562 0.00550414 -0.00953392 0.00283473 0 0.00482992 0.00106513 0.00911396
internal_weight=0 46 384 182 98 64 84 202 49 160 108 52
internal_count=430 46 384 182 98 64 84 202 49 160 108 52
is_linear=0
shrinkage=0.484407


Tree=35
num_leaves=13
num_cat=0
split_feature=5 6 8 4 2 3 6 5 9 3 0 9
split_gain=0.0316113 0.11525 0.0199393 0.0236416 0.0256908 0.0205225 0.0156301 0.0146863 0.0108788 0.0142861 0.0170811 0.00662692
threshold=-0.96915570968667797 0.060813134114817612 -0.41388561785709427 0.668318287661824 2.4423137506114281 0.29171749014780307 0.6043397260676816 1.0000000180025095e-35 -0.22870709049027663 0.54558600581167371 -0.70973359540770897 1.0000000180025095e-35
decision_type=2 2 2 2 2 2 2 2 2 2 2 2
left_child=1 -1 8 4 5 -4 -3 -5 9 10 -2 -7
right_child=2 6 3 7 -6 11 -8 -9 -10 -11 -12 -13
leaf_value=0.021553837334725077 -0.0048679447557682144 -0.010360965271148943 -0.015860079558719372 -0.0045126269838161323 0.0030222762540145459 0.0029345462372948662 0.0020454010137273397 0.0063624077426888649 0.0058797410801941247 -0.0074383998786687229 0.0055337648994833811 -0.0047455954267461341
leaf_weight=33 28 30 49 20 22 20 22 37 57 22 68 22
leaf_count=33 28 30 49 20 22 20 22 37 57 22 68 22
internal_value=0 0.007438 -0.00166769 -0.0050039 -0.00837812 -0.0112977 -0.00619983 0.00216533 0.00179135 -0.000943692 0.00194898 -0.00124607
internal_weight=0 85 345 170 113 91 52 57 175 118 96 42
internal_count=430 85 345 170 113 91 52 57 175 118 96 42
is_linear=0
shrinkage=0.484407


Tree=36
num_leaves=12
num_cat=0
split_feature=4 0 5 9 9 0 0 0 0 8 0
split_gain=0.0374957 0.0540428 0.0772977 0.0176269 0.0234585 0.0433014 0.0597994 0.0307716 0.0573417 0.00347007 0.00228491
threshold=1.8367706387007712 0.87973181847747051 0.43516667585519242 0.29780647305699354 -0.45668203553136266 1.0000000180025095e-35 -1.0419998853082129 -0.12984903215053853 -0.20086728331867368 -0.35819567905521715 0.39062540547378416
decision_type=2 2 2 2 2 2 2 2 2 2 2
left_child=1 3 -3 4 5 6 -1 8 -6 -5 -9
right_child=-2 2 -4 9 7 -7 -8 10 -10 -11 -12
leaf_value=-0.010269789843617202 -0.011895521393836999 0.020808856665179301 -0.0045627001331471776 -0.00059748295449588108 0.0041699744196775513 -0.014928763299092641 0.010069103677745949 0.011488908524889548 -0.014534907219232665 -0.0096722612159442015 0.0016837759421987821
leaf_weight=26 21 38 30 21 107 24 50 45 21 24 23
leaf_count=26 21 38 30 21 107 24 50 45 21 24 23
internal_value=0 0.0017147 0.011631 -0.0010647 0.000542481 -0.00460699 0.0020185 0.00349983 -0.00113139 -0.00760291 0.00989488
internal_weight=0 409 68 341 296 100 76 196 128 45 68
internal_count=430 409 68 341 296 100 76 196 128 45 68
is_linear=0
shrinkage=0.484407


Tree=37
num_leaves=10
num_cat=0
split_feature=9 3 4 5 3 1 6 0 0
split_gain=0.0345879 0.0305825 0.0235232 0.014413 0.0342162 0.0300231 0.0238825 0.0121288 0.00973254
threshold=0.41722192045946715 0.45762652848853741 1.2303364433377497 -0.95071782495617285 0.17372826390805127 1.0000000180025095e-35 0.8154538295463204 0.87973181847747051 -0.060200278938813571
decision_type=2 2 2 2 2 2 2 2 2
left_child=2 -2 3 4 -1 6 8 -4 -5
right_child=1 -3 7 5 -6 -7 -8 -9 -10
leaf_value=0.011323458009842987 0.015014556599313767 -0.0028796251605655724 0.00012371841474272588 0.00034455337267225964 -0.0053245926548430864 -0.011040763957152424 -0.0067569678621922421 -0.012531383024801068 0.0071234946545010273
leaf_weight=36 25 21 21 135 24 34 46 34 54
leaf_count=36 25 21 21 135 24 34 46 34 54
internal_value=0 0.00887562 -0.00222509 -0.000285327 0.00500487 -0.00191264 0.000536153 -0.00930542 0.00308877
internal_weight=0 46 384 329 60 269 235 55 189
internal_count=430 46 384 329 60 269 235 55 189
is_linear=0
shrinkage=0.484407


Tree=38
num_leaves=13
num_cat=0
split_feature=3 0 5 3 9 6 3 6 4 4 4 3
split_gain=0.0233931 0.0828123 0.0199176 0.0268194 0.0182231 0.0164595 0.0144297 0.0245052 0.0166601 0.0125744 0.0114858 0.00697314
threshold=0.12857715206179232 0.87973181847747051 -0.70959325474267387 0.86994988949965613 1.0000000180025095e-35 1.0000000180025095e-35 -0.25009585200730322 -1.3368723949795782 0.39763695157481194 -0.10495281300609986 1.2600371385692422 0.45762652848853741
decision_type=2 2 2 2 2 2 2 2 2 2 2 2
left_child=6 2 11 4 5 -4 -1 -8 9 -9 -3 -2
right_child=1 10 3 -5 -6 -7 7 8 -10 -11 -12 -13
leaf_value=0.0010961519572542696 -0.011378620700817218 0.020898060865735878 -0.0067121581746275505 -0.0086363111989473211 0.0097226322230662392 0.0036548184932509633 0.0029685347619555066 -0.0064298087123141542 -0.016410552162962916 0.0033458434161191962 0.0020898092490505569 -0.0005190603640383341
leaf_weight=72 23 20 27 20 40 59 30 45 24 24 20 26
leaf_count=72 23 20 27 20 40 59 30 45 24 24 20 26
internal_value=0 0.00268421 -0.00212496 0.000985074 0.00403249 -0.000443957 -0.0039993 -0.00666513 -0.0098294 -0.00293255 0.0167805 -0.00824987
internal_weight=0 235 195 146 126 86 195 123 93 69 40 49
internal_count=430 235 195 146 126 86 195 123 93 69 40 49
is_linear=0
shrinkage=0.484407


Tree=39
num_leaves=13
num_cat=0
split_feature=5 6 5 5 6 6 9 0 9 4 3 6
split_gain=0.0195368 0.0765177 0.013808 0.0188983 0.0173153 0.0123182 0.0146164 0.00944489 0.0143719 0.0136369 0.00563528 0.00560107
threshold=-0.95573006546543626 0.060813134114817612 -0.45003079979866983 0.58642893408118091 0.51435556100082691 0.69754122088514814 -0.45668203553136266 0.39062540547378416 -0.57066950805190564 -0.65336265013959605 0.51193564886965071 0.62960671363793286
decision_type=2 2 2 2 2 2 2 2 2 2 2 2
left_child=1 -1 4 7 -2 6 -5 8 -4 -10 -8 -6
right_child=2 -3 3 5 11 -7 10 -9 9 -11 -12 -13
leaf_value=0.016757340030792298 -0.012410175967938877 -0.0054496109352823348 -0.0058990963430386838 0.00085807303730770618 0.003761479238492807 0.0027010031558702963 -0.013065168721672597 0.0066163820349989114 0.0077952445814178954 -0.0017487565039426237 -0.0012462244843992676 -0.0032308995563352159
leaf_weight=33 26 56 32 31 20 21 27 52 35 51 23 23
leaf_count=33 26 56 32 31 20 21 27 52 35 51 23 23
internal_value=0 0.00495353 -0.00212194 -0.000249977 -0.0069593 -0.00471513 -0.00696144 0.00269614 -2.51481e-06 0.00310305 -0.0103872 8.55544e-05
internal_weight=0 89 341 272 69 102 81 170 118 86 50 43
internal_count=430 89 341 272 69 102 81 170 118 86 50 43
is_linear=0
shrinkage=0.484407


Tree=40
num_leaves=10
num_cat=0
split_feature=4 5 6 1 9 3 5 4 8
split_gain=0.02169 0.0366766 0.0755994 0.0117279 0.0143242 0.0132554 0.0155331 0.0240004 0.010375
threshold=1.8367706387007712 -0.95573006546543626 0.10907308037399757 1.0000000180025095e-35 -0.45668203553136266 0.86994988949965613 1.5156625227807157 -0.65336265013959605 -0.45687806215211357
decision_type=2 2 2 2 2 2 2 2 2
left_child=1 2 -1 5 -5 6 7 -3 -4
right_child=-2 3 8 4 -6 -7 -8 -9 -10
leaf_value=0.021715668150635092 -0.00959076370572709 0.0084327717191249735 0.0024909317757527178 0.0016360011959591718 -0.010934803221600247 -0.0072349574027485179 -0.0061638484507370948 -0.00071627245999005592 -0.0069434638077732341
leaf_weight=21 21 71 27 20 25 20 26 175 24
leaf_count=21 21 71 27 20 25 20 26 175 24
internal_value=0 0.000758735 0.00875753 -0.00153366 -0.00684594 -8.06138e-05 0.0011176 0.00255317 -0.00277876
internal_weight=0 409 72 337 45 292 272 246 51
internal_count=430 409 72 337 45 292 272 246 51
is_linear=0
shrinkage=0.484407


Tree=41
num_leaves=13
num_cat=0
split_feature=9 0 4 4 6 6 5 3 6 5 3 4
split_gain=0.0188739 0.0330702 0.0218884 0.0106071 0.0139699 0.0120659 0.0142708 0.0106875 0.00749795 0.0149562 0.00533179 0.00392187
threshold=0.41722192045946715 0.18937442006986729 1.539763686385845 -0.59868637028162108 0.6043397260676816 0.060813134114817612 0.15689782329625832 0.52471426542991251 0.69754122088514814 -0.96915570968667797 0.17372826390805127 0.668318287661824
decision_type=2 2 2 2 2 2 2 2 2 2 2 2
left_child=2 -2 3 4 10 6 -5 -6 9 -7 -1 -8
right_child=1 -3 -4 5 7 8 11 -9 -10 -11 -12 -13
leaf_value=-0.0094196795957174166 -0.0038303794879609022 0.013839182235134756 -0.010040481643843305 0.0089014057806117482 0.0057439853146545967 -0.0084926943494286408 -0.0035428358755470492 -0.0036659221979843501 0.0029773044335910026 0.0010822275609138686 -1.2407784024463468e-05 0.0021596209534614137
leaf_weight=37 25 21 31 50 29 34 25 22 39 72 21 24
leaf_count=37 25 21 31 50 29 34 25 22 39 72 21 24
internal_value=0 0.00646527 -0.00173306 -0.000195094 -0.0036207 0.00153703 0.00495749 0.00169794 -0.00120954 -0.00316851 -0.00736228 -0.000858496
internal_weight=0 46 384 353 109 244 99 51 145 106 58 49
internal_count=430 46 384 353 109 244 99 51 145 106 58 49
is_linear=0
shrinkage=0.484407


Tree=42
num_leaves=13
num_cat=0
split_feature=5 3 3 9 0 0 6 0 4 0 3 0
split_gain=0.0148776 0.0610526 0.0768237 0.0106184 0.0334567 0.0163026 0.0251782 0.0154346 0.0133237 0.0128404 0.00986128 0.00404139
threshold=-0.95573006546543626 0.022088680726276122 0.17372826390805127 -0.45668203553136266 0.87973181847747051 0.39062540547378416 0.55365414900175747 -0.12984903215053853 -0.24684113431654872 -1.0419998853082129 0.29171749014780307 0.18937442006986729
decision_type=2 2 2 2 2 2 2 2 2 2 2 2
left_child=1 -1 -3 5 7 6 -2 9 11 -5 -11 -9
right_child=3 2 -4 4 -6 -7 -8 8 -10 10 -12 -13
leaf_value=-0.0077769973433020187 -0.0088282446374486883 0.023979357812011784 -0.0028876102317810168 0.0033701079800090303 -0.012481875019989874 0.0072320898577206754 0.0046024074776668672 0.0021147532698862792 0.0091322006989068439 -0.0095839783794393341 -0.00055603112020762935 -0.0038572198493586627
leaf_weight=34 33 20 35 27 40 37 36 21 28 36 61 22
leaf_count=34 33 20 35 27 40 37 36 21 28 36 61 22
internal_value=0 0.0042881 0.0119969 -0.0018854 -0.00357017 0.00172754 -0.00247184 -0.00018118 0.00439156 -0.0032391 -0.00554978 -0.00113015
internal_weight=0 89 55 341 235 106 69 195 71 124 97 43
internal_count=430 89 55 341 235 106 69 195 71 124 97 43
is_linear=0
shrinkage=0.484407


Tree=43
num_leaves=11
num_cat=0
split_feature=9 0 4 9 4 5 8 8 6 0
split_gain=0.0124134 0.0245318 0.012205 0.0070008 0.00687161 0.0140737 0.0202572 0.00600159 0.00544692 0.00510634
threshold=0.41722192045946715 0.18937442006986729 1.2303364433377497 -0.45668203553136266 0.668318287661824 -0.95071782495617285 -0.10141888847126609 -0.45687806215211357 0.8154538295463204 0.87973181847747051
decision_type=2 2 2 2 2 2 2 2 2 2
left_child=2 -2 4 -4 5 7 8 -1 -7 -6
right_child=1 -3 3 -5 9 6 -8 -9 -10 -11
leaf_value=-0.00029914721400368038 -0.0032955726720726376 0.011898321116258001 0.00024419237580242142 -0.0088318680932922434 -0.0006382746652766108 0.0010590475607408047 -0.010834544865069597 0.0078656786845196797 -0.0037658441582020113 0.0067895715505184194
leaf_weight=27 25 21 23 32 23 169 22 21 43 24
leaf_count=27 25 21 23 32 23 169 22 21 43 24
internal_value=0 0.00553607 -0.00111437 -0.00621515 0.000184386 -0.000816714 -0.00246946 0.00485262 -0.000239747 0.00422696
internal_weight=0 46 384 55 329 282 234 48 212 47
internal_count=430 46 384 55 329 282 234 48 212 47
is_linear=0
shrinkage=0.484407


Tree=44
num_leaves=13
num_cat=0
split_feature=0 3 9 9 6 0 0 9 0 9 5 3
split_gain=0.010947 0.0560808 0.0163565 0.0102249 0.0238565 0.0207592 0.0354233 0.0383432 0.0191635 0.00699101 0.00528974 0.00438422
threshold=0.87973181847747051 0.12857715206179232 0.29780647305699354 -0.57066950805190564 0.6043397260676816 -0.12984903215053853 -0.20086728331867368 -0.22870709049027663 -0.70973359540770897 -0.45668203553136266 -0.36670230133216369 0.55623485294522534
decision_type=2 2 2 2 2 2 2 2 2 2 2 2
left_child=2 9 3 4 8 6 7 -5 -1 -2 -3 -7
right_child=1 10 -4 5 -6 11 -8 -9 -10 -11 -12 -13
leaf_value=0.0017246286613122235 0.00017186537999402 0.01605560909502594 -0.00760812001970181 0.0085996885780282341 0.0050110107913053153 0.0016613576864807416 -0.011974799981899034 -0.0059051481207028876 -0.011520820563008917 -0.009014552485661494 0.0018433906025053411 0.010338360067347273
leaf_weight=26 25 20 45 67 29 42 21 45 41 21 20 28
leaf_count=26 25 20 45 67 29 42 21 45 41 21 20 28
internal_value=0 0.00402849 -0.00131501 0.000244815 -0.00322261 0.00215049 -0.00145198 0.00267435 -0.00737284 -0.00585908 0.0131013 0.00740924
internal_weight=0 86 344 299 96 203 133 112 67 46 40 70
internal_count=430 86 344 299 96 203 133 112 67 46 40 70
is_linear=0
shrinkage=0.484407


Tree=45
num_leaves=10
num_cat=0
split_feature=9 3 5 8 5 1 3 3 9
split_gain=0.0119719 0.0219648 0.0126405 0.0186257 0.0110046 0.0103753 0.00750857 0.00721955 0.00149877
threshold=0.41722192045946715 0.39373344568722773 -1.0899865076778521 -0.41388561785709427 -0.739666697798255 1.0000000180025095e-35 0.83598006714362616 0.21951830658232335 -0.45668203553136266
decision_type=2 2 2 2 2 2 2 2 2
left_child=2 -2 3 -1 -4 6 7 -6 -7
right_child=1 -3 4 -5 5 8 -8 -9 -10
leaf_value=0.0013921702500757467 0.011084530434774108 -0.003352958438893083 0.0068862566712568768 -0.010698330855608579 -0.00072488082811325821 -0.00049888304889890943 -0.0045446001079417764 0.0041771956707628514 -0.0071880038613514781
leaf_weight=40 24 22 21 34 120 20 21 107 21
leaf_count=40 24 22 21 34 120 20 21 107 21
internal_value=0 0.00549431 -0.00103806 -0.00561349 0.0004458 -0.000629637 0.000735973 0.00177304 -0.00573797
internal_weight=0 46 384 74 310 289 248 227 41
internal_count=430 46 384 74 310 289 248 227 41
is_linear=0
shrinkage=0.484407


Tree=46
num_leaves=13
num_cat=0
split_feature=3 3 9 6 8 5 4 9 9 6 4 3
split_gain=0.0153265 0.0369554 0.0478302 0.0199064 0.0236082 0.0198749 0.0157607 0.0158924 0.0176832 0.0135591 0.00634956 0.00634491
threshold=0.32025640046572146 0.12857715206179232 1.0000000180025095e-35 -0.8184780333299243 -0.35819567905521715 1.0000000180025095e-35 1.4368912783567662 0.29780647305699354 1.0000000180025095e-35 -2.3307072394094588 -1.1308418269338822 -0.37788201760992263
decision_type=2 2 2 2 2 2 2 2 2 2 2 2
left_child=1 3 -3 9 10 -6 7 8 -2 -1 -5 -12
right_child=6 2 -4 4 5 -7 -8 -9 -10 -11 11 -13
leaf_value=-0.0019987745825520123 -0.0042966172219466537 -0.0017027158272141082 0.019721268890467675 -0.003829714415058535 -0.014841946990156282 0.00097919102512171669 0.0041350197262067755 -0.011335346264857124 0.0061105171639185222 0.010080962924452508 -0.0020217304055712235 0.0046388744032889121
leaf_weight=20 95 35 21 22 26 20 28 33 23 20 27 60
leaf_count=20 95 35 21 22 26 20 28 33 23 20 27 60
internal_value=0 0.00219378 0.0104671 -0.00127801 -0.00380485 -0.0102446 -0.00325663 -0.00517633 -0.00131592 0.00568317 0.000547458 0.00248697
internal_weight=0 251 56 195 155 46 179 151 118 40 109 87
internal_count=430 251 56 195 155 46 179 151 118 40 109 87
is_linear=0
shrinkage=0.484407


Tree=47
num_leaves=13
num_cat=0
split_feature=5 4 5 6 3 4 3 9 5 9 9 6
split_gain=0.0146672 0.0370519 0.0107594 0.0147668 0.00999816 0.0134641 0.0133156 0.0173871 0.0135347 0.0284705 0.0229021 0.00881341
threshold=-0.95573006546543626 0.080460527134499638 -0.45003079979866983 0.55365414900175747 0.52471426542991251 -0.76320932142166997 0.21951830658232335 -0.22870709049027663 0.84916879149087887 -0.57066950805190564 -0.57066950805190564 0.24778884213467658
decision_type=2 2 2 2 2 2 2 2 2 2 2 2
left_child=1 -1 3 -2 6 -6 8 -8 9 -4 -10 -3
right_child=2 11 4 -5 5 -7 7 -9 10 -11 -12 -13
leaf_value=0.014124155704196477 -0.01035873759932791 -0.005626621469351137 -0.0052977493492423989 0.00082276721828140301 -0.0090839872630134964 0.0012192822820845533 0.011180705644779285 -0.0017156759632199576 0.0037818543353845455 0.0077599354495391584 -0.010807201199743233 0.0024532084744047296
leaf_weight=23 30 33 39 39 23 47 30 26 20 58 29 33
leaf_count=23 30 33 39 39 23 47 30 26 20 58 29 33
internal_value=0 0.00472576 -0.00140598 -0.00567363 0.000124585 -0.00384841 0.00189062 0.00662158 -0.000727721 0.00240848 -0.00557168 -0.00198919
internal_weight=0 89 341 69 272 70 202 56 146 97 49 66
internal_count=430 89 341 69 272 70 202 56 146 97 49 66
is_linear=0
shrinkage=0.484407


Tree=48
num_leaves=13
num_cat=0
split_feature=4 4 7 8 2 9 4 3 4 6 9 4
split_gain=0.0122708 0.0385683 0.0158003 0.0228146 0.026235 0.0241703 0.0225251 0.012202 0.0127658 0.00883443 0.00366968 0.0121453
threshold=-0.5324808205474213 -0.73471555444185721 1.0000000180025095e-35 -0.41388561785709427 1.0000000180025095e-35 1.0000000180025095e-35 -0.17882654223643055 0.096630610661137456 -1.0579941217206394 -2.3307072394094588 1.0000000180025095e-35 0.73136476344867418
decision_type=2 2 2 2 2 2 2 2 2 2 2 2
left_child=1 7 3 10 6 -6 -5 -1 -9 -4 11 -2
right_child=2 -3 9 4 5 -7 -8 8 -10 -11 -12 -13
leaf_value=0.0031196168539751714 -0.003367281907322826 0.012053953805507356 -0.0014256838190559269 0 0.0065455469844437784 -0.0070843485630933912 -0.016421091780765319 0.0010127330352648911 -0.0099716908780198271 0.0084122024454306409 0.0040588996829794433 0.0053768211717499792
leaf_weight=35 78 39 20 26 36 23 40 31 26 20 32 24
leaf_count=35 78 39 20 26 36 23 40 31 26 20 32 24
internal_value=0 0.00345043 -0.0016814 -0.0031648 -0.00715553 0.000480009 -0.0120182 -0.00228322 -0.00565902 0.004891 0.00115341 -0.000427125
internal_weight=0 131 299 259 125 59 66 92 57 40 134 102
internal_count=430 131 299 259 125 59 66 92 57 40 134 102
is_linear=0
shrinkage=0.484407


Tree=49
num_leaves=12
num_cat=0
split_feature=5 8 6 8 6 4 4 3 6 9 0
split_gain=0.0144111 0.033456 0.00813762 0.00767843 0.0126507 0.00548525 0.00956446 0.00612206 0.0129443 0.00495543 0.00977069
threshold=-0.96915570968667797 1.0000000180025095e-35 0.51435556100082691 1.0000000180025095e-35 -1.6750289119614401 -0.36032479073287893 -0.65336265013959605 0.52471426542991251 0.64700724574464574 -0.45668203553136266 -0.70973359540770897
decision_type=2 2 2 2 2 2 2 2 2 2 2
left_child=1 2 -1 5 -5 6 7 8 -2 -7 -11
right_child=3 -3 -4 4 -6 9 -8 -9 -10 10 -12
leaf_value=-0.0056224498328628653 -0.0017364659107006041 0.013603482574572718 0.0022635100369019661 0.0023324975389483484 -0.0077307785461863928 0.0052584259759807222 -0.0057040865375531675 -0.0026951611327133544 0.0081677024090766638 -0.0045657301727114489 0.0035556628223337092
leaf_weight=28 44 23 34 24 54 37 49 36 26 33 42
leaf_count=28 44 23 34 24 54 37 49 36 26 33 42
internal_value=0 0.00479777 -0.00187962 -0.00135001 -0.00475261 9.86311e-06 -0.00168543 0.000984779 0.00324343 0.00228871 -0.000207896
internal_weight=0 85 62 345 78 267 155 106 70 112 75
internal_count=430 85 62 345 78 267 155 106 70 112 75
is_linear=0
shrinkage=0.484407


Tree=50
num_leaves=12
num_cat=0
split_feature=9 4 4 4 4 6 4 6 5 3 5
split_gain=0.0129161 0.0140041 0.0130617 0.00760182 0.0136414 0.00679152 0.00627062 0.0099227 0.0150437 0.00592639 0.00493707
threshold=0.41722192045946715 -0.27197872273520274 1.2303364433377497 -0.59868637028162108 -0.95976582240048514 -1.1987461962622048 -0.42788037206851021 0.69754122088514814 -0.96915570968667797 0.29171749014780307 0.44841331148681746
decision_type=2 2 2 2 2 2 2 2 2 2 2
left_child=2 -2 3 4 9 -4 -5 8 -8 -1 -6
right_child=1 -3 5 6 10 -7 7 -9 -10 -11 -12
leaf_value=-0.0014593233867748877 0.010050268251686152 -0.0020128609162947527 0.00033641405950432144 0.0067724682790560953 -0.0088190563215386694 -0.0085931120606170391 -0.0067943725746065073 0.0057476275913619125 0.0016743612627332855 0.0054921217599679757 0
leaf_weight=34 26 20 22 22 28 33 40 34 124 24 23
leaf_count=34 26 20 22 22 28 33 40 34 124 24 23
internal_value=0 0.00598834 -0.000792319 0.000523669 -0.00233289 -0.00608339 0.00210201 0.000658012 -0.00110835 0.00222266 -0.00650786
internal_weight=0 46 384 329 109 55 220 198 164 58 51
internal_count=430 46 384 329 109 55 220 198 164 58 51
is_linear=0
shrinkage=0.484407


Tree=51
num_leaves=13
num_cat=0
split_feature=5 3 6 9 3 4 0 3 3 5 0 4
split_gain=0.0147793 0.0282109 0.0215238 0.00632808 0.0201715 0.022625 0.0129766 0.0134774 0.0113763 0.0091393 0.00843014 0.00732539
threshold=-0.96915570968667797 0.096630610661137456 0.38254610917601634 -0.45668203553136266 0.55623485294522534 -0.81874152131495259 0.39062540547378416 0.39373344568722773 0.05403522212693098 0.12154362684698876 -0.20086728331867368 -0.22718467419970642
decision_type=2 2 2 2 2 2 2 2 2 2 2 2
left_child=1 -1 -3 6 5 10 7 11 -7 -10 -5 -2
right_child=3 2 -4 4 -6 8 -8 -9 9 -11 -12 -13
leaf_value=-0.0028053124468010982 -0.0020858792006942109 0.016343651824790407 -0.00063482167414994327 0.0059911017090056584 0.0051806534028899856 0 0.0063595472095946837 -0.0079473306643003724 -0.011280590999898877 -0.00045607564055195752 -0.0024818071847765781 0.0058739914463708789
leaf_weight=44 28 20 21 32 35 42 38 20 79 28 22 21
leaf_count=44 28 20 21 32 35 42 38 20 79 28 22 21
internal_value=0 0.00496996 0.0110356 -0.00125453 -0.00256005 -0.00447043 0.00148669 -0.00225226 -0.00718301 -0.00929191 0.00276735 0.0021596
internal_weight=0 85 41 345 238 203 107 69 149 107 54 49
internal_count=430 85 41 345 238 203 107 69 149 107 54 49
is_linear=0
shrinkage=0.484407


Tree=52
num_leaves=11
num_cat=0
split_feature=5 4 8 1 6 3 5 6 3 0
split_gain=0.00991518 0.0546355 0.0157143 0.00639272 0.00761924 0.00655567 0.00727869 0.0119866 0.00922122 0.00109323
threshold=-0.78477686238162681 -0.1396756257949176 -0.45687806215211357 1.0000000180025095e-35 -1.3368723949795782 0.86994988949965613 1.5156625227807157 0.69754122088514814 -0.7606015835897677 1.0000000180025095e-35
decision_type=2 2 2 2 2 2 2 2 2 2
left_child=1 -1 -3 5 -5 6 7 8 -2 -4
right_child=3 2 9 4 -6 -7 -8 -9 -10 -11
leaf_value=0.016462327634883433 -0.0056198125127418612 0.0031332357492600774 -0.001007406687068658 0.00091509670750044582 -0.0081105072137569179 -0.0048295166854585882 -0.0039406781889858942 0.0073911945922633514 0.0015242152141494013 -0.008476076616548818
leaf_weight=20 21 38 20 24 21 20 26 40 176 24
leaf_count=20 21 38 20 24 21 20 26 40 176 24
internal_value=0 0.00401482 -0.00270576 -0.000859289 -0.00477313 0.000150406 0.00105383 0.00205058 2.96097e-05 -0.00709342
internal_weight=0 102 82 328 45 283 263 237 197 44
internal_count=430 102 82 328 45 283 263 237 197 44
is_linear=0
shrinkage=0.484407


Tree=53
num_leaves=13
num_cat=0
split_feature=5 4 0 8 9 9 6 2 5 9 0 3
split_gain=0.00924603 0.0185971 0.0107006 0.00396337 0.0188793 0.0137433 0.00928173 0.00826356 0.0057954 0.00954755 0.00764346 0.0042911
threshold=-0.96915570968667797 0.39763695157481194 -0.12984903215053853 -0.35819567905521715 -0.22870709049027663 -0.22870709049027663 0.8154538295463204 1.0000000180025095e-35 0.050879986095853889 -0.45668203553136266 -0.24332171996739357 0.29171749014780307
decision_type=2 2 2 2 2 2 2 2 2 2 2 2
left_child=1 2 -1 5 7 8 -6 11 10 -10 -2 -5
right_child=3 -3 -4 4 6 -7 -8 -9 9 -11 -12 -13
leaf_value=0 0.0051358261738324255 -0.0026463049895118162 0.012380251845545935 -0.0035407438783430253 -0.010889641762695733 0.0050540910676029061 0 0.0055498729572560947 0.00097998551873904093 -0.0077033975504562429 -0.0027548000771019125 0.0022010760094051786
leaf_weight=24 22 40 21 47 32 62 24 32 36 40 30 20
leaf_count=24 22 40 21 47 32 62 24 32 36 40 30 20
internal_value=0 0.00390288 0.00854983 -0.00101992 -0.00261775 0.000421958 -0.00785014 0.0014541 -0.00231443 -0.00441576 0.00113355 -0.00155201
internal_weight=0 85 45 345 155 190 56 99 128 76 52 67
internal_count=430 85 45 345 155 190 56 99 128 76 52 67
is_linear=0
shrinkage=0.484407


Tree=54
num_leaves=13
num_cat=0
split_feature=0 3 9 9 6 0 0 5 0 9 8 0
split_gain=0.009136 0.027617 0.00819862 0.00823108 0.0202659 0.0159228 0.0198385 0.0206821 0.00935809 0.00610367 0.00144128 0.000864544
threshold=0.87973181847747051 0.12857715206179232 0.29780647305699354 -0.45668203553136266 0.6043397260676816 -0.12984903215053853 -0.20086728331867368 -0.052318465818089813 -0.70973359540770897 -0.45668203553136266 -0.35819567905521715 0.39062540547378416
decision_type=2 2 2 2 2 2 2 2 2 2 2 2
left_child=2 9 3 4 8 6 7 -5 -1 -2 -4 -7
right_child=1 -3 10 5 -6 11 -8 -9 -10 -11 -12 -13
leaf_value=6.8043724896993898e-05 0.0012592876142415992 0.010159015791226468 -0.00046649839609047339 0.0067423479945600438 0.0047346855207719063 0.0075736313770361947 -0.0091289317745472335 -0.0039713072781352903 -0.0095474219766001015 -0.0064187215762159886 -0.0067815593833400502 0.0011703213109511335
leaf_weight=31 25 40 21 57 29 45 21 50 41 21 24 25
leaf_count=31 25 40 21 57 29 45 21 50 41 21 24 25
internal_value=0 0.00392588 -0.000952302 0.000144022 -0.0028654 0.00191549 -0.0013152 0.00189229 -0.00655477 -0.00329768 -0.00540825 0.00648927
internal_weight=0 86 344 299 101 198 128 107 72 46 45 70
internal_count=430 86 344 299 101 198 128 107 72 46 45 70
is_linear=0
shrinkage=0.484407


Tree=55
num_leaves=11
num_cat=0
split_feature=9 0 7 8 5 6 4 5 5 0
split_gain=0.00988108 0.011975 0.0118097 0.0300704 0.0137311 0.00806756 0.00366349 0.0064385 0.00467118 0.00405461
threshold=0.41722192045946715 0.18937442006986729 1.0000000180025095e-35 1.0000000180025095e-35 -0.36670230133216369 -2.3307072394094588 0.45034218529469688 0.15166182204997405 -0.19941877433549351 -0.70973359540770897
decision_type=2 2 2 2 2 2 2 2 2 2
left_child=2 -2 3 6 -5 -4 7 8 -1 -9
right_child=1 -3 5 4 -6 -7 -8 9 -10 -11
leaf_value=-0.0002342114079599328 -0.0016388940239265831 0.0092878071331305972 -0.0013102922672923703 -0.014604359400488489 -0.00035550898499689913 0.0081188674161378378 0.0031329066701622052 -0.0012718243300362767 -0.005693942348907197 0.0035101580570113628
leaf_weight=95 25 21 20 23 27 20 47 43 37 72
leaf_count=95 25 21 20 23 27 20 47 43 37 72
internal_value=0 0.00497189 -0.000962347 -0.00200944 -0.0102042 0.00476235 0.000218538 -0.000591955 -0.00265159 0.00175644
internal_weight=0 46 384 344 50 40 294 247 132 115
internal_count=430 46 384 344 50 40 294 247 132 115
is_linear=0
shrinkage=0.484407


Tree=56
num_leaves=13
num_cat=0
split_feature=4 5 3 6 6 0 5 8 9 3 4 5
split_gain=0.0081199 0.0309526 0.0117881 0.0116956 0.0103096 0.0353845 0.0090171 0.0074109 0.00677482 0.0180011 0.0126957 0.00547657
threshold=-0.5324808205474213 0.050879986095853889 0.51193564886965071 0.64700724574464574 -0.8184780333299243 0.091553137469130033 0.58642893408118091 -0.1789230757209174 -0.22870709049027663 0.096630610661137456 0.28315427177342239 -0.052318465818089813
decision_type=2 2 2 2 2 2 2 2 2 2 2 2
left_child=1 -1 3 -3 6 8 -2 -7 10 -10 11 -6
right_child=4 2 -4 -5 5 7 -8 -9 9 -11 -12 -13
leaf_value=0.010736360158361455 0.0045883145387205755 -0.003063963077510788 -0.0066381795492901031 0.0065057641047083182 -0.0035356336398659803 -0.0018220874386572774 -0.0031510164614324924 -0.015176474412130422 -0.008624676373949083 0.0033501641976559564 0.0079444166896763674 0.0028381369987401732
leaf_weight=36 70 32 37 26 45 27 25 21 22 36 31 22
leaf_count=36 70 32 37 26 45 27 25 21 22 36 31 22
internal_value=0 0.00271586 -0.0021811 0.00188871 -0.00145716 -0.00326544 0.00217858 -0.0115566 0.00076509 -0.0025212 0.00294143 -0.00108419
internal_weight=0 131 95 58 299 204 95 48 156 58 98 67
internal_count=430 131 95 58 299 204 95 48 156 58 98 67
is_linear=0
shrinkage=0.484407


Tree=57
num_leaves=13
num_cat=0
split_feature=5 0 9 0 5 5 3 4 0 6 3 9
split_gain=0.0074073 0.0191789 0.00654449 0.0109781 0.00313743 0.00930446 0.0102011 0.00792449 0.0075963 0.00520763 0.005614 0.00477528
threshold=-0.95573006546543626 0.87973181847747051 -0.22870709049027663 -0.24332171996739357 0.12154362684698876 0.50954474484087087 0.17372826390805127 -0.44948087769141393 0.18937442006986729 0.55365414900175747 0.26658621091262141 -0.22870709049027663
decision_type=2 2 2 2 2 2 2 2 2 2 2 2
left_child=1 2 3 -1 7 11 -7 -2 -8 10 -9 -6
right_child=4 -3 -4 -5 5 6 8 9 -10 -11 -12 -13
leaf_value=0.0064428100136652618 -0.0064312754946762307 0.010170000785160997 -0.0051048370706280096 -0.0034360358079100995 0 -0.0056015650950500687 0.0055473902458817821 0.00090473821937819799 -0.0023624639951732897 0.0026721724785566756 -0.0057688989385514186 0.0067616883597334618
leaf_weight=20 46 20 26 23 41 59 25 42 28 53 24 23
leaf_count=20 46 20 26 23 41 59 25 42 28 53 24 23
internal_value=0 0.00304339 -0.00148673 0.00179624 -0.00131064 9.64608e-05 -0.00232852 -0.00264088 0.00191928 -4.14999e-05 -0.00250016 0.00381937
internal_weight=0 89 69 43 341 176 112 165 53 119 66 64
internal_count=430 89 69 43 341 176 112 165 53 119 66 64
is_linear=0
shrinkage=0.484407


Tree=58
num_leaves=13
num_cat=0
split_feature=4 4 9 6 6 9 0 9 0 0 5 5
split_gain=0.00816552 0.0342854 0.0104653 0.022465 0.045483 0.0177263 0.0155139 0.0218383 0.0140434 0.0141109 0.00463614 0.00378869
threshold=-0.42788037206851021 -0.55548535903581364 -0.57066950805190564 0.18487404308475122 -1.3368723949795782 1.0000000180025095e-35 -0.20086728331867368 1.0000000180025095e-35 0.87973181847747051 -0.12984903215053853 0.15166182204997405 1.3396075748928342
decision_type=2 2 2 2 2 2 2 2 2 2 2 2
left_child=1 10 8 4 -4 -6 7 -5 9 -2 -1 -12
right_child=2 -3 3 6 5 -7 -8 -9 -10 -11 11 -13
leaf_value=-0.0045658791416834333 0.0030131574576626055 0.012592974930446596 0.0054165050183766286 0.010870815666460728 -0.01645927584142938 -0.00056527269653494205 -0.0039941618646240854 -0.0031767075171097404 0.0073525592636420646 -0.0074757726349458323 0.0024739094059221044 -0.0023194040980962813
leaf_weight=34 37 24 25 31 44 26 37 23 32 23 60 34
leaf_count=34 37 24 25 31 44 26 37 23 32 23 60 34
internal_value=0 0.0025432 -0.00152841 -0.00345357 -0.00768303 -0.0127072 0.00172198 0.0058018 0.00215688 -0.0020888 -0.00142146 0.000499034
internal_weight=0 152 278 186 95 70 91 54 92 60 128 94
internal_count=430 152 278 186 95 70 91 54 92 60 128 94
is_linear=0
shrinkage=0.484407


Tree=59
num_leaves=13
num_cat=0
split_feature=3 3 9 9 3 0 6 6 0 6 5 8
split_gain=0.00982763 0.0219251 0.0227304 0.0100881 0.0261784 0.00918798 0.0064834 0.00908154 0.0149928 0.00825244 0.00408486 0.00398453
threshold=0.12857715206179232 0.32025640046572146 1.0000000180025095e-35 -0.45668203553136266 0.55623485294522534 0.18937442006986729 0.69754122088514814 -0.8184780333299243 -0.15521735143832963 -2.3307072394094588 0.15166182204997405 -0.35819567905521715
decision_type=2 2 2 2 2 2 2 2 2 2 2 2
left_child=6 2 -2 5 11 -3 7 9 -9 -1 -6 -5
right_child=1 3 -4 4 10 -7 -8 8 -10 -11 -12 -13
leaf_value=-0.0030530113259149044 -0.00048943439448971733 -0.0019745117925023549 0.014684497374626239 -0.0018121505157767282 0.007130551173395016 0.0076666631593094387 0.0022447426460244363 -0.00033727011801709959 -0.010234247433957115 0.0056411810495143825 -0.00018283935726857127 -0.0092338282260437735
leaf_weight=20 35 20 21 54 22 21 34 79 42 20 20 42
leaf_count=20 35 20 21 54 22 21 34 79 42 20 20 42
internal_value=0 0.00207342 0.00835339 -0.000810577 -0.00279671 0.00400588 -0.00225876 -0.00348533 -0.00527722 0.00171099 0.00492407 -0.00665319
internal_weight=0 235 56 179 138 41 195 161 121 40 42 96
internal_count=430 235 56 179 138 41 195 161 121 40 42 96
is_linear=0
shrinkage=0.484407


Tree=60
num_leaves=13
num_cat=0
split_feature=4 4 8 6 3 3 4 6 9 0 9 0
split_gain=0.00926119 0.0263259 0.00864369 0.0169484 0.00988091 0.00928696 0.00786366 0.00417326 0.0051994 0.00339739 0.00266499 0.0066722
threshold=-0.5324808205474213 -0.73471555444185721 -0.35819567905521715 -0.8184780333299243 0.29171749014780307 1.0000000180025095e-35 -0.95976582240048514 -2.3307072394094588 -0.45668203553136266 -0.70973359540770897 1.0000000180025095e-35 -0.20086728331867368
decision_type=2 2 2 2 2 2 2 2 2 2 2 2
left_child=1 6 10 7 5 -5 9 -4 -9 -1 11 -2
right_child=2 -3 3 4 -6 -7 -8 8 -10 -11 -12 -13
leaf_value=-0.0018219811032057509 0.0028080996336323325 0.010386187204760677 -0.0024864099865528765 -0.00024643139305501272 0.00022385600817736515 -0.013395230400283079 -0.0056518261459091758 0.0061076686353356228 -0.00053992182283576118 0.0033157697069147629 0.0037243433990826755 -0.003185480495908053
leaf_weight=21 58 39 20 20 24 26 28 22 41 43 36 52
leaf_count=21 58 39 20 20 24 26 28 22 41 43 36 52
internal_value=0 0.00330949 -0.00114464 -0.00340038 -0.00763111 -0.0102819 -0.00151232 0.001203 0.00294064 0.00146409 0.00134163 -2.3606e-05
internal_weight=0 131 299 153 70 46 92 83 63 64 146 110
internal_count=430 131 299 153 70 46 92 83 63 64 146 110
is_linear=0
shrinkage=0.484407


Tree=61
num_leaves=13
num_cat=0
split_feature=9 5 8 6 0 4 9 9 9 4 6 9
split_gain=0.00789718 0.0133322 0.00979389 0.0115623 0.00455965 0.00298001 0.0103441 0.00569409 0.00266686 0.0018185 0.00159583 0.00605865
threshold=0.41722192045946715 -0.53810302589001469 -0.15300982162528931 -0.8184780333299243 -0.12984903215053853 -0.10495281300609986 -0.22870709049027663 -0.45668203553136266 -0.45668203553136266 -0.8073472545988708 -2.3307072394094588 -0.45668203553136266
decision_type=2 2 2 2 2 2 2 2 2 2 2 2
left_child=2 -2 4 10 5 6 9 -7 -6 -1 -4 -12
right_child=1 -3 3 -5 8 7 -8 -9 -10 -11 11 -13
leaf_value=-0.00066930163836848358 0.0093339310117832638 -0.0019976345926946441 -0.0020249628115016523 -0.0084840145984310042 -0.00021483344753362138 0.005054324038690051 0.0030604734485940874 -0.0016351792370616878 0.0043751133578781524 -0.0060821684527116934 0.0049068171594780973 -0.0020457666585870435
leaf_weight=36 20 26 20 37 32 22 37 38 65 41 22 34
leaf_count=36 20 26 20 37 32 22 37 38 65 41 22 34
internal_value=0 0.00459597 -0.000706101 -0.00395218 0.000885266 -0.000581575 -0.0019089 0.00160074 0.0030952 -0.00460107 1.54969e-05 0.00134867
internal_weight=0 46 384 113 271 174 114 60 97 77 76 56
internal_count=430 46 384 113 271 174 114 60 97 77 76 56
is_linear=0
shrinkage=0.484407


Tree=62
num_leaves=13
num_cat=0
split_feature=5 3 3 3 3 3 4 4 9 6 0 5
split_gain=0.00617238 0.0214491 0.0190542 0.00491906 0.00505502 0.00620726 0.00680511 0.00512939 0.00431102 0.00282504 0.00267454 0.000854832
threshold=-0.95573006546543626 0.05403522212693098 0.35646248071979703 0.86994988949965613 0.29171749014780307 -0.54762464091873531 0.73136476344867418 -0.65336265013959605 1.0000000180025095e-35 0.6043397260676816 0.87973181847747051 0.38817692108084684
decision_type=2 2 2 2 2 2 2 2 2 2 2 2
left_child=1 -1 -3 4 5 11 8 -6 -7 10 -9 -2
right_child=3 2 -4 -5 7 6 -8 9 -10 -11 -12 -13
leaf_value=-0.0038761640172774092 0.0030088245541744826 0.013592299820292827 -0.00057069325814204869 -0.0051930333144980263 0.0051128130251249662 -0.0063769458875553809 0.0015025417616490986 -0.0031525112324819631 0 0.0026231278798532218 0.0013004144791575075 0
leaf_weight=37 27 20 32 20 37 70 35 51 31 22 24 24
leaf_count=37 27 20 32 20 37 70 35 51 31 22 24 24
internal_value=0 0.00314787 0.00785417 -0.000827327 -7.3897e-05 -0.00162421 -0.00317859 0.00191549 -0.00485872 -0.000184891 -0.00165704 0.00200769
internal_weight=0 89 52 341 321 187 136 134 101 97 75 51
internal_count=430 89 52 341 321 187 136 134 101 97 75 51
is_linear=0
shrinkage=0.484407


Tree=63
num_leaves=13
num_cat=0
split_feature=5 5 0 3 4 5 3 3 6 9 5 9
split_gain=0.00591837 0.02758 0.0066361 0.00429747 0.00422045 0.00437268 0.00553102 0.00514533 0.00276094 0.00799275 0.00983806 0.00751248
threshold=-1.0899865076778521 -0.78477686238162681 -0.24332171996739357 0.45762652848853741 -0.47448346294992488 0.15166182204997405 0.52471426542991251 0.05403522212693098 -1.1987461962622048 -0.45668203553136266 0.15689782329625832 -0.45668203553136266
decision_type=2 2 2 2 2 2 2 2 2 2 2 2
left_child=2 -2 -1 -4 5 -3 7 -7 11 10 -10 -6
right_child=1 4 3 -5 8 6 -8 -9 9 -11 -12 -13
leaf_value=0.0017001640452703256 0.011601271568715175 -0.0048028823706981021 -0.0073230765583456904 0 -0.0053571390732178002 -0.0012016910663748509 -0.0032305123836852212 0.0053620435731008935 0.0089031273515248702 -0.00066234374765195014 -0.0012985840884247191 0.0027683545975654873
leaf_weight=31 20 46 28 23 20 31 36 27 28 95 21 24
leaf_count=31 20 46 28 23 20 31 36 27 28 95 21 24
internal_value=0 0.00124948 -0.00272116 -0.00516557 -0.000330338 -0.00212541 0 0.00254899 0.0010692 0.00204032 0.00560736 -0.00147628
internal_weight=0 348 82 51 328 140 94 58 188 144 49 44
internal_count=430 348 82 51 328 140 94 58 188 144 49 44
is_linear=0
shrinkage=0.484407


Tree=64
num_leaves=13
num_cat=0
split_feature=4 5 3 6 5 6 8 5 5 5 4 6
split_gain=0.00498679 0.0257542 0.0110959 0.00706209 0.00623359 0.013823 0.0114102 0.0031328 0.00523116 0.00316242 0.00485634 0.00123247
threshold=-0.5324808205474213 0.050879986095853889 0.51193564886965071 0.64700724574464574 -0.70959325474267387 -0.8184780333299243 -0.47904567315573726 -0.38849659711797918 1.0000000180025095e-35 0.31881109260443197 0.33553549790896381 0.64700724574464574
decision_type=2 2 2 2 2 2 2 2 2 2 2 2
left_child=1 -1 3 -3 5 -2 -7 11 -9 -10 -11 -6
right_child=4 2 -4 -5 7 6 -8 8 9 10 -12 -13
leaf_value=0.0098627485783084074 0.0039277772638905296 -0.0020161285386136353 -0.0062739653343985438 0.0054783252243441943 0.0044469588088892403 0.00051502286983470705 -0.009012590628418575 -0.0033793231947369263 0.0041539505045660478 0.0030092256877629264 -0.0029492479880637032 0
leaf_weight=36 22 32 37 26 28 38 48 48 29 24 42 20
leaf_count=36 22 32 37 26 28 38 48 48 29 24 42 20
internal_value=0 0.00255101 -0.00192419 0.00197157 -0.000714716 -0.0032142 -0.00571143 0.000906586 -0.000313595 0.0016078 -0.000388428 0.00335234
internal_weight=0 131 95 58 299 108 86 191 143 95 66 48
internal_count=430 131 95 58 299 108 86 191 143 95 66 48
is_linear=0
shrinkage=0.484407


Tree=65
num_leaves=13
num_cat=0
split_feature=5 4 3 5 5 9 5 4 4 4 9 0
split_gain=0.00708281 0.0162934 0.0164722 0.00404871 0.00386477 0.00723149 0.00617554 0.00372706 0.00347693 0.00308271 0.00288757 0.00640236
threshold=-0.95573006546543626 0.39763695157481194 0.35646248071979703 -0.10855401424613043 0.58642893408118091 1.0000000180025095e-35 1.0800003678014261 -0.42788037206851021 -0.8073472545988708 0.8951235967023129 -0.45668203553136266 -0.12984903215053853
decision_type=2 2 2 2 2 2 2 2 2 2 2 2
left_child=1 2 -1 7 8 6 -6 -2 -5 -9 -10 -12
right_child=3 -3 -4 4 5 -7 -8 9 10 -11 11 -13
leaf_value=0.01217245744362107 -0.0051361434697558108 -0.0025064075523342582 -0.0013240100279757209 -0.0013949944833553519 -0.0024387108777335527 -0.0056023109456309244 0.0039853185978975447 0.0016054293926588143 -9.1994729957652646e-05 -0.0028939082667163258 -0.00052008922015737806 0.0074290786567858362
leaf_weight=27 38 40 22 24 34 24 44 57 32 27 27 34
leaf_count=27 38 40 22 24 34 24 44 57 32 27 27 34
internal_value=0 0.0036696 0.00784833 -0.000587611 0.000628255 -0.00128627 0.00118574 -0.00252063 0.00229226 -0.0001424 0.00345029 0.00482242
internal_weight=0 89 49 341 219 102 78 122 117 84 93 61
internal_count=430 89 49 341 219 102 78 122 117 84 93 61
is_linear=0
shrinkage=0.484407


Tree=66
num_leaves=13
num_cat=0
split_feature=5 3 8 5 8 5 3 4 3 4 6 5
split_gain=0.00461099 0.0158418 0.00981974 0.00346179 0.0039007 0.00366569 0.0139492 0.010723 0.00750821 0.00431534 0.00189457 0.00187726
threshold=-0.95573006546543626 0.096630610661137456 -0.1789230757209174 -0.36670230133216369 1.0000000180025095e-35 1.5156625227807157 -0.25009585200730322 -0.65336265013959605 0.54558600581167371 0.84098732948491051 0.24778884213467658 -0.63951139190779271
decision_type=2 2 2 2 2 2 2 2 2 2 2 2
left_child=1 10 -3 4 11 6 -5 8 -8 -9 -1 -2
right_child=3 2 -4 5 -6 -7 7 9 -10 -11 -12 -13
leaf_value=-0.0042152586492284014 -0.0018093864840463829 -0.00014535271729933607 0.011019298482736424 -0.0049078759822979139 -0.0057604832221294878 -0.0030628309477734633 0.0097110710543208828 -0.001757171261544136 0 0.0029490492873253393 0.00035687491317788544 0.0018003270458522278
leaf_weight=24 41 24 21 37 22 26 34 84 24 43 20 30
leaf_count=24 41 24 21 37 22 26 34 84 24 43 20 30
internal_value=0 0.00287317 0.00733803 -0.000559452 -0.00265729 0.000400922 0.00118872 0.00300817 0.00704853 3.77956e-05 -0.00271261 -8.61977e-05
internal_weight=0 89 45 341 93 248 222 185 58 127 44 71
internal_count=430 89 45 341 93 248 222 185 58 127 44 71
is_linear=0
shrinkage=0.484407


Tree=67
num_leaves=13
num_cat=0
split_feature=4 4 8 3 5 5 6 0 8 6 3 1
split_gain=0.00425483 0.0173952 0.011072 0.00722858 0.00899971 0.00505905 0.0107404 0.00915714 0.00154178 0.00138654 0.00250025 0.00141854
threshold=-0.76320932142166997 -0.5324808205474213 -0.35819567905521715 0.096630610661137456 0.98476779812541904 -0.70959325474267387 -0.8184780333299243 -0.20086728331867368 -0.47904567315573726 0.8154538295463204 0.53536311256346403 1.0000000180025095e-35
decision_type=2 2 2 2 2 2 2 2 2 2 2 2
left_child=3 2 -2 -1 -5 6 -3 8 -8 10 11 -7
right_child=1 5 -4 4 -6 9 7 -9 -10 -11 -12 -13
leaf_value=0.0019971933830041384 -0.00053114500893021281 0.0034840098596653863 0.01135660787214259 -0.0088960492404128524 0.00055183649246136226 0.0031266313028734394 0.0019324407009932393 -0.0085792276475455641 -0.0016459764737554144 -0.0011687491239789297 -0.0013214048700047843 -9.2403008447318114e-06
leaf_weight=35 21 22 22 20 33 95 21 37 28 29 31 36
leaf_count=35 21 22 22 20 33 95 21 37 28 29 31 36
internal_value=0 0.00105152 0.00765569 -0.002255 -0.00489239 -0.00051532 -0.00277864 -0.00499131 0 0.000928869 0.00149549 0.00236218
internal_weight=0 342 43 88 53 299 108 86 49 191 162 131
internal_count=430 342 43 88 53 299 108 86 49 191 162 131
is_linear=0
shrinkage=0.484407


Tree=68
num_leaves=13
num_cat=0
split_feature=5 3 4 8 9 9 6 9 3 6 9 0
split_gain=0.00582646 0.0125306 0.00800001 0.00227842 0.0128609 0.00901152 0.0069475 0.00578108 0.00805391 0.00432951 0.00379368 0.00286073
threshold=-0.95573006546543626 0.096630610661137456 0.24243731867424881 -0.47904567315573726 -0.22870709049027663 -0.22870709049027663 -1.1987461962622048 0.41722192045946715 0.29171749014780307 0.8154538295463204 -0.57066950805190564 -0.060200278938813571
decision_type=2 2 2 2 2 2 2 2 2 2 2 2
left_child=1 -1 -3 5 6 11 -5 8 -6 10 -8 -2
right_child=3 2 -4 4 7 -7 9 -9 -10 -11 -12 -13
leaf_value=-0.0020603949436297933 -0.003152526665256992 0.010084479770552369 -0.00014625849754298773 -0.0026631652291675707 -0.011171254531598869 0.0048272334623213993 0.0071633081221371226 0 -0.00014172664244757212 -0.0011158664798666539 0.00013405163706658345 0.0011753912699630372
leaf_weight=44 73 23 22 40 22 41 30 27 26 21 32 29
leaf_count=44 73 23 22 40 22 41 30 27 26 21 32 29
internal_value=0 0.00304129 0.00695819 -0.000821172 -0.00178835 0.000534516 0.00123037 -0.00572945 -0.00779688 0.00342714 0.00494417 -0.00184904
internal_weight=0 89 45 341 198 143 123 75 48 83 62 102
internal_count=430 89 45 341 198 143 123 75 48 83 62 102
is_linear=0
shrinkage=0.484407


Tree=69
num_leaves=12
num_cat=0
split_feature=9 4 5 8 6 3 5 5 9 8 3
split_gain=0.0042278 0.0118287 0.0149123 0.0142889 0.00714383 0.00440467 0.00703565 0.00730718 0.00568196 0.00601592 0.00440924
threshold=0.90031168495129232 1.2303364433377497 -0.95573006546543626 -0.54135527050386112 -1.1987461962622048 0.29171749014780307 0.46497160602634874 -0.077155907627386791 -0.22870709049027663 -0.47103612188981586 -0.54762464091873531
decision_type=2 2 2 2 2 2 2 2 2 2 2
left_child=1 2 3 -1 -3 8 7 -7 10 -10 -4
right_child=-2 4 5 -5 -6 6 -8 -9 9 -11 -12
leaf_value=-0.00080096607933289471 -0.0032209288392194744 0.0012638761932965228 0.0033698846244374701 0.01127576483390509 -0.0070540747357082639 0.0022099013327732003 0.0056299146667670415 -0.0051753936743207246 0.0007209383412192851 -0.0076396236927302368 -0.0014048491445682388
leaf_weight=27 42 22 41 32 33 47 39 20 21 20 86
leaf_count=27 42 22 41 32 33 47 39 20 21 20 86
internal_value=0 0.000740062 0.00192335 0.00729083 -0.00435615 8.45876e-05 0.00221215 -0.000842395 -0.00133991 -0.00476597 0.000433764
internal_weight=0 388 333 59 55 274 106 67 168 41 127
internal_count=430 388 333 59 55 274 106 67 168 41 127
is_linear=0
shrinkage=0.484407


Tree=70
num_leaves=11
num_cat=0
split_feature=5 5 8 4 3 4 4 3 9 8
split_gain=0.00466046 0.0166873 0.00688611 0.00421385 0.00374324 0.00775705 0.0055812 0.00152449 0.00714328 0.00127042
threshold=-1.0899865076778521 -0.78477686238162681 -0.45687806215211357 -0.47448346294992488 0.53536311256346403 -0.81874152131495259 -1.409191342517025 0.53536311256346403 1.0000000180025095e-35 1.0326393407683125
decision_type=2 2 2 2 2 2 2 2 2 2
left_child=2 -2 -1 4 5 6 -3 8 9 -5
right_child=1 3 -4 7 -6 -7 -8 -9 -10 -11
leaf_value=0.0013913287200025568 0.008922042187816363 -0.003107961021632525 -0.0055161150551162087 0.0043417498530868969 0.0011691719677985953 -0.0067067619187463345 0.0033842937996081063 -0.00096100984531061868 -0.0025877720936417514 0.0003032757945995707
leaf_weight=39 20 26 43 76 37 43 34 39 37 36
leaf_count=39 20 26 43 76 37 43 34 39 37 36
internal_value=0 0.000863804 -0.00266359 -0.00034914 -0.00214124 -0.00341123 0.000342579 0.00105083 0.00171848 0.00348152
internal_weight=0 348 82 328 140 103 60 188 149 112
internal_count=430 348 82 328 140 103 60 188 149 112
is_linear=0
shrinkage=0.484407


Tree=71
num_leaves=10
num_cat=0
split_feature=9 0 7 8 5 6 4 5 3
split_gain=0.00551957 0.00710148 0.00657046 0.0160897 0.00904262 0.00233494 0.00183455 0.00245022 0.00894256
threshold=0.41722192045946715 0.18937442006986729 1.0000000180025095e-35 1.0000000180025095e-35 -0.38335010016650323 -2.3307072394094588 0.45034218529469688 1.494450004911154 -0.25009585200730322
decision_type=2 2 2 2 2 2 2 2 2
left_child=2 -2 3 6 -5 -4 7 8 -1
right_child=1 -3 5 4 -6 -7 -8 -9 -10
leaf_value=-0.0052981663023302311 -0.0012440837730523032 0.0071246045682386207 -0.00012604363424867851 -0.011086882670752923 0 0.0053352171781973819 0.0022471137727571363 0.0024722931996049614 0.00074222850226050667
leaf_weight=48 25 21 20 22 28 20 47 25 174
leaf_count=48 25 21 20 22 28 20 47 25 174
internal_value=0 0.00378902 -0.000644757 -0.00143614 -0.00743219 0.00360598 0.000181153 -0.000384357 -0.00102401
internal_weight=0 46 384 344 50 40 294 247 222
internal_count=430 46 384 344 50 40 294 247 222
is_linear=0
shrinkage=0.484407


Tree=72
num_leaves=13
num_cat=0
split_feature=0 5 9 9 9 6 0 0 8 6 0 3
split_gain=0.00451075 0.0125014 0.00520914 0.00474378 0.00728287 0.0158316 0.00896656 0.0209669 0.00798797 0.00534805 0.00131819 0.000997921
threshold=0.87973181847747051 -0.53810302589001469 -0.45668203553136266 0.29780647305699354 -0.45668203553136266 0.6043397260676816 -1.0419998853082129 -0.12984903215053853 -0.45687806215211357 0.060813134114817612 -0.12984903215053853 0.55623485294522534
decision_type=2 2 2 2 2 2 2 2 2 2 2 2
left_child=3 -2 -3 4 5 9 -6 8 -8 -1 -5 -9
right_child=1 2 -4 10 6 -7 7 11 -10 -11 -12 -13
leaf_value=0.00023189589033996758 0.0077558818413861145 0.0022343467596690368 -0.0041428412051775013 -0.00025409687963598166 0.0063890383382609094 0.0040003355374009031 -0.0069746515001694476 0.0013275147645091042 0.00072541451732489838 -0.0077161828478589907 -0.0055678333869588568 0.0066008220226946562
leaf_weight=20 27 25 34 24 36 29 55 42 37 52 21 28
leaf_count=20 27 25 34 24 36 29 55 42 37 52 21 28
internal_value=0 0.00264555 -0.00147896 -0.000784003 4.69789e-05 -0.00277505 0.00172359 -0.000141105 -0.00439955 -0.00600797 -0.00417181 0.00496526
internal_weight=0 86 59 344 299 101 198 162 92 72 45 70
internal_count=430 86 59 344 299 101 198 162 92 72 45 70
is_linear=0
shrinkage=0.484407


Tree=73
num_leaves=13
num_cat=0
split_feature=9 4 8 7 5 3 3 9 0 9 9 6
split_gain=0.00446322 0.00707551 0.00449775 0.0139062 0.00653257 0.00230473 0.00292024 0.00587637 0.00462138 0.00285288 0.00958617 0.00170016
threshold=0.41722192045946715 -0.27197872273520274 -0.10141888847126609 1.0000000180025095e-35 -0.38335010016650323 0.83598006714362616 0.29171749014780307 1.0000000180025095e-35 -0.15521735143832963 -0.45668203553136266 1.0000000180025095e-35 -2.3307072394094588
decision_type=2 2 2 2 2 2 2 2 2 2 2 2
left_child=2 -2 5 4 -4 6 7 8 -1 -8 -11 -5
right_child=1 -3 3 11 -6 -7 9 -9 -10 10 -12 -13
leaf_value=0.0031324234404185628 0.0065363829285031965 -0.0017472914493301412 -0.0098090039448779209 -0.00024885354113483713 -0.00023475455508451698 -0.0023261723732116908 0.0055197684899224329 -0.0039860753006635908 -0.0016799799398506089 -0.0027143626485378338 0.0055473440048941858 0.004198864213182084
leaf_weight=86 26 20 23 20 30 24 22 36 48 54 21 20
leaf_count=86 26 20 23 20 30 24 22 36 48 54 21 20
internal_value=0 0.0035504 -0.000431923 -0.00288696 -0.00666242 0.000526344 0.00104419 -0.000179713 0.00134746 0.0027889 0.000462458 0.0026956
internal_weight=0 46 384 93 53 291 267 170 134 97 75 40
internal_count=430 46 384 93 53 291 267 170 134 97 75 40
is_linear=0
shrinkage=0.484407


end of trees

feature_importances:
Column_4=139
Column_3=132
Column_5=130
Column_9=118
Column_6=113
Column_0=110
Column_8=72
Column_1=10
Column_7=7
Column_2=3

parameters:
[boosting: gbdt]
[objective: regression]
[metric: l2]
[tree_learner: serial]
[device_type: cpu]
[data: ]
[valid: ]
[num_iterations: 74]
[learning_rate: 0.484407]
[num_leaves: 13]
[num_threads: 0]
[deterministic: 0]
[force_col_wise: 0]
[force_row_wise: 0]
[histogram_pool_size: -1]
[max_depth: 6]
[min_data_in_leaf: 20]
[min_sum_hessian_in_leaf: 0.001]
[bagging_fraction: 1]
[pos_bagging_fraction: 1]
[neg_bagging_fraction: 1]
[bagging_freq: 0]
[bagging_seed: 3]
[feature_fraction: 1]
[feature_fraction_bynode: 1]
[feature_fraction_seed: 2]
[extra_trees: 0]
[extra_seed: 6]
[early_stopping_round: 0]
[first_metric_only: 0]
[max_delta_step: 0]
[lambda_l1: 0.0238869]
[lambda_l2: 32.2024]
[linear_lambda: 0]
[min_gain_to_split: 0]
[drop_rate: 0.1]
[max_drop: 50]
[skip_drop: 0.5]
[xgboost_dart_mode: 0]
[uniform_drop: 0]
[drop_seed: 4]
[top_rate: 0.2]
[other_rate: 0.1]
[min_data_per_group: 100]
[max_cat_threshold: 32]
[cat_l2: 10]
[cat_smooth: 10]
[max_cat_to_onehot: 4]
[top_k: 20]
[monotone_constraints: ]
[monotone_constraints_method: basic]
[monotone_penalty: 0]
[feature_contri: ]
[forcedsplits_filename: ]
[refit_decay_rate: 0.9]
[cegb_tradeoff: 1]
[cegb_penalty_split: 0]
[cegb_penalty_feature_lazy: ]
[cegb_penalty_feature_coupled: ]
[path_smooth: 0]
[interaction_constraints: ]
[verbosity: -1]
[saved_feature_importance_type: 0]
[linear_tree: 0]
[max_bin: 255]
[max_bin_by_feature: ]
[min_data_in_bin: 3]
[bin_construct_sample_cnt: 200000]
[data_random_seed: 1]
[is_enable_sparse: 1]
[enable_bundle: 1]
[use_missing: 1]
[zero_as_missing: 0]
[feature_pre_filter: 1]
[pre_partition: 0]
[two_round: 0]
[header: 0]
[label_column: ]
[weight_column: ]
[group_column: ]
[ignore_column: ]
[categorical_feature: ]
[forcedbins_filename: ]
[precise_float_parser: 0]
[objective_seed: 5]
[num_class: 1]
[is_unbalance: 0]
[scale_pos_weight: 1]
[sigmoid: 1]
[boost_from_average: 1]
[reg_sqrt: 0]
[alpha: 0.9]
[fair_c: 1]
[poisson_max_delta_step: 0.7]
[tweedie_variance_power: 1.5]
[lambdarank_truncation_level: 30]
[lambdarank_norm: 1]
[label_gain: ]
[eval_at: ]
[multi_error_top_k: 1]
[auc_mu_weights: ]
[num_machines: 1]
[local_listen_port: 12400]
[time_out: 120]
[machine_list_filename: ]
[machines: ]
[gpu_platform_id: -1]
[gpu_device_id: -1]
[gpu_use_dp: 0]
[num_gpu: 1]

end of parameters

pandas_categorical:null
