tree
version=v3
num_class=1
num_tree_per_iteration=1
label_index=0
max_feature_idx=9
feature_names=Column_0 Column_1 Column_2 Column_3 Column_4 Column_5 Column_6 Column_7 Column_8 Column_9
feature_infos=[-1.7184014473981102:3.4296065849366801] [-0.36736956976062929:4.5073862167209775] [-0.37415374890067371:3.5236858115154401] [-3.6517635803490287:1.779148457762294] [-3.1097451489441785:2.371383152867637] [-1.2018668761881994:4.2131429597125756] [-3.3451767903550458:1.118657680389334] [-0.28988551782622374:4.6961453887848252] [-0.59494859147436407:4.6701534906827913] [-0.67380103080858722:3.2777646832369025]
tree_sizes=1259 1266 1260 1260 1187 1174 1263 1166 1258 1267 1270 1192 1275 1267 1286 1290 1280 1109 1292 1278 1285 1287 1283 1287 1289 1283 1289 1289 1300 1202 1296 1294 1124 1210 1034 942 1299 1292 1111 1303 1294 1298 941 1297 1302 950 1038 1219 1305 1304 1307 1218 1124 1126 1309 1034 1304 874 1132 1132 1301 1129 1310 1317 1042 1309 952 961 1301 1131 1314 1050 1216 1313

Tree=0
num_leaves=13
num_cat=0
split_feature=9 6 0 3 6 5 4 3 6 6 3 0
split_gain=815.24 499.86 376.944 154.207 128.732 73.5829 46.0321 32.8082 27.1433 26.977 17.0657 4.05877
threshold=-0.57066950805190542 -1.675028911961441 -1.0419998853082133 0.096630610661139218 0.51435556100082613 0.2163286750489542 -0.53248082054742274 0.022088680726277926 0.10907308037399681 0.60433972606768094 0.54558600581167527 -0.060200278938815695
decision_type=2 2 2 2 2 2 2 2 2 2 2 2
left_child=2 -2 -1 11 -5 6 -3 -8 -7 -9 -10 -4
right_child=1 5 3 4 -6 8 7 9 10 -11 -12 -13
leaf_value=-0.53603789518015998 -0.43401943907038648 0.0079978825789767741 -0.25964329155278248 -0.27337668803517051 -0.43664315221561056 -0.22939530210275433 -0.174819242275954 -0.04599412766329148 -0.12546729039060464 -0.12634307115327845 -0.20183550279780421 -0.20763284661344378
leaf_weight=2100 1500 758 1604 2414 2700 1930 1732 1716 2354 2442 1206 2414
leaf_count=21 15 36 18 31 27 34 33 74 50 45 15 31
internal_value=0 -0.172608 -0.349555 -0.304937 -0.36177 -0.139239 -0.104056 -0.118443 -0.180987 -0.0937943 -0.152919 -0.230298
internal_weight=0 13638 11232 9132 5114 12138 6648 5890 5490 4158 3560 4018
internal_count=430 302 128 107 58 287 188 152 99 119 65 49
is_linear=0
shrinkage=0.484407


Tree=1
num_leaves=13
num_cat=0
split_feature=9 6 6 4 3 5 4 6 9 3 0 3
split_gain=247.532 139.027 76.1357 122.834 43.4595 33.7436 30.0877 19.3386 18.4005 18.34 18.517 19.2842
threshold=-0.57066950805190542 -2.3307072394094597 0.24778884213467581 0.48652303221305948 0.054035222126932771 -0.052318465818090069 -0.44948087769141526 -1.675028911961441 -0.22870709049027657 -0.25009585200730128 -1.0419998853082133 0.5562348529452269
decision_type=2 2 2 2 2 2 2 2 2 2 2 2
left_child=2 -2 3 -1 -4 6 -3 -5 -8 -7 -11 -12
right_child=1 5 4 7 -6 9 8 -9 -10 10 11 -13
leaf_value=-0.3346240390154257 -0.27580564139175706 0.055102496889328882 -0.11402732706666556 -0.21668537805189453 -0.20444187784055659 -0.051722889743629145 -0.091418988886676433 -0.12117474030492949 -0.024234909816511073 -0.18563200900948687 -0.084515045461000873 -0.15779385120520206
leaf_weight=2300 1000 468 2308 1206 3202 1024 3152 1138 1410 1000 2796 1318
leaf_count=23 10 38 27 15 33 22 57 30 68 10 75 22
internal_value=0 -0.105043 -0.207988 -0.254594 -0.167454 -0.0890029 -0.0589636 -0.172591 -0.070972 -0.113182 -0.125085 -0.109037
internal_weight=0 12168 10154 4644 5510 11168 5030 2344 4562 6138 5114 4114
internal_count=430 302 128 68 60 292 163 45 125 129 107 97
is_linear=0
shrinkage=0.484407


Tree=2
num_leaves=13
num_cat=0
split_feature=9 6 8 9 4 3 6 0 0 0 9 8
split_gain=140.228 42.8739 66.1764 144.578 87.062 34.9199 32.6645 21.4611 9.41587 5.93301 5.0441 6.51339
threshold=-0.57066950805190542 -1.1987461962622057 -0.17892307572091723 -0.4566820355313625 1.8367706387007703 0.5562348529452269 0.38254610917601561 -1.0419998853082133 -1.0419998853082133 -0.15521735143833157 -0.22870709049027657 -0.45687806215211302
decision_type=2 2 2 2 2 2 2 2 2 2 2 2
left_child=5 -2 8 -4 -5 6 7 -1 -3 -8 11 -10
right_child=1 2 3 4 -6 -7 9 -9 10 -11 -12 -13
leaf_value=-0.21625418681994527 -0.12506024389902021 -0.096874533487433412 -0.060527912631979937 0.63730541134194307 0.050251026895822205 -0.2242797131689955 -0.070162920999259637 -0.13356172096427926 -0.048017343436502859 -0.11925242507573144 -0.032411328723007428 -0.090473745151562535
leaf_weight=1404 2314 1620 500 110 112 1406 1410 2164 2478 1320 1846 1424
leaf_count=16 30 26 5 55 7 17 19 53 63 23 90 26
internal_value=0 -0.0671705 -0.0501805 0.0870583 0.385064 -0.153688 -0.136866 -0.167747 -0.0639506 -0.0950163 -0.0541814 -0.0641281
internal_weight=0 10404 8090 722 222 7704 6298 3568 7368 2730 5748 3902
internal_count=430 302 272 67 62 128 111 69 205 42 179 89
is_linear=0
shrinkage=0.484407


Tree=3
num_leaves=13
num_cat=0
split_feature=9 9 6 8 6 6 5 4 3 6 5 8
split_gain=50.6721 29.0824 31.4589 26.0087 49.4698 14.2199 12.3924 6.80759 5.63871 2.85909 2.3438 1.2335
threshold=-0.22870709049027657 -0.6303772317531422 -1.3368723949795789 -0.54135527050386045 0.38254610917601561 0.81545382954631973 0.42487368195224029 0.66831828766182289 1.1522508270101108 0.10907308037399681 -0.95071782495617319 1.032639340768311
decision_type=2 2 2 2 2 2 2 2 2 2 2 2
left_child=1 -1 6 -2 -5 7 -3 9 10 -4 -6 -9
right_child=3 2 5 4 8 -7 -8 11 -10 -11 -12 -13
leaf_value=-0.16178873321582671 -0.04154433732726652 -0.088150317649879753 -0.076017561678099879 0.25558441516057717 -0.023199809435977631 -0.095816599126343507 -0.16087929584708782 0.005440950214539538 -0.074466335785986201 -0.051304868133697078 0.056665236202448142 -0.032287020546427146
leaf_weight=1104 1860 1220 1822 192 124 2720 1310 462 200 4150 174 320
leaf_count=13 48 22 29 47 13 37 18 35 2 115 38 13
internal_value=0 -0.0866125 -0.0792833 -0.0118264 0.0665471 -0.066055 -0.127362 -0.0536697 -0.0174096 -0.0592137 0.0243762 -0.0106498
internal_weight=0 13108 12004 2550 690 9474 2530 6754 498 5972 298 782
internal_count=430 282 269 148 100 229 40 192 53 144 51 48
is_linear=0
shrinkage=0.484407


Tree=4
num_leaves=12
num_cat=0
split_feature=9 6 8 4 5 5 8 0 3 0 4
split_gain=19.6003 9.38493 18.1497 9.07289 6.72698 6.60186 3.03997 2.29556 1.66826 0.80278 0.268021
threshold=-0.4566820355313625 -1.1987461962622057 -0.10141888847126605 0.84098732948490962 1.5414397596854996 0.16875714235835484 -0.41388561785709377 -1.0419998853082133 0.35646248071979869 -0.24332171996739541 -0.63613624690533188
decision_type=2 2 2 2 2 2 2 2 2 2 2
left_child=3 -2 4 5 6 9 7 -3 -8 -1 -7
right_child=1 2 -4 -5 -6 10 8 -9 -10 -11 -12
leaf_value=-0.07223290669172458 -0.071528625916262717 -0.033984382636377368 0.062271658252809427 -0.028354825814463924 -0.085714443584469682 -0.085742618299406201 -0.029134597529178106 -0.008204648265932396 -0.058735305718983805 -0.049579271675273144 -0.11031168136000284
leaf_weight=1122 1334 1422 466 960 518 1220 1076 1898 936 1226 1226
leaf_count=22 30 25 37 39 14 22 48 116 27 25 25
internal_value=0 -0.0349271 -0.026871 -0.0726027 -0.034276 -0.0812126 -0.028792 -0.0194703 -0.0436191 -0.0612401 -0.0993354
internal_weight=0 7650 6316 5754 5850 4794 5332 3320 2012 2348 2446
internal_count=430 297 267 133 230 94 216 141 75 47 47
is_linear=0
shrinkage=0.484407


Tree=5
num_leaves=12
num_cat=0
split_feature=9 7 0 6 6 8 8 9 8 6 5
split_gain=14.6231 11.1965 15.9504 8.78094 20.0745 8.07851 7.75564 3.41508 2.19441 1.64959 1.35526
threshold=0.29780647305699343 4.072891525458445 0.87973181847746673 -1.3368723949795789 -1.1987461962622057 -0.45687806215211302 -0.10141888847126605 -0.57066950805190542 -0.41388561785709377 0.81545382954631973 -0.45003079979867017
decision_type=2 2 2 2 2 2 2 2 2 2 2
left_child=1 2 6 -4 -5 -2 7 9 -9 -1 -7
right_child=5 -3 3 4 -6 10 -8 8 -10 -11 -12
leaf_value=-0.039801475539038567 -0.015462734605762432 -0.10075600142430118 -0.012557322773890227 -0.021695695992800187 0.18834585843868634 0.12319595689847969 -0.082407614415291514 -0.018001137504889735 -0.040260343251540466 -0.065400146112865251 0.042477407323563712
leaf_weight=2706 316 608 628 216 168 148 918 2904 1690 906 138
leaf_count=79 11 10 20 10 35 25 18 129 61 12 20
internal_value=0 -0.0381749 -0.0341126 0.0229925 0.0776324 0.037915 -0.0405064 -0.0355137 -0.0264154 -0.0467468 0.0925246
internal_weight=0 10744 10136 1012 384 602 9124 8206 4594 3612 286
internal_count=430 374 364 65 45 56 299 281 190 91 45
is_linear=0
shrinkage=0.484407


Tree=6
num_leaves=13
num_cat=0
split_feature=9 9 8 9 0 6 0 4 3 5 5 3
split_gain=6.82002 10.8034 13.9791 5.2965 2.58748 2.24886 3.43447 7.1033 2.34102 2.1155 2.43833 1.14543
threshold=-0.22870709049027657 0.41722192045946699 -0.45687806215211302 1.0000000180025095e-35 0.39062540547378127 -2.3307072394094597 0.87973181847746673 1.8367706387007703 -0.54762464091873331 0.12816694466280101 0.44841331148681729 0.86994988949965757
decision_type=2 2 2 2 2 2 2 2 2 2 2 2
left_child=5 3 -3 -2 11 -1 8 -8 -7 -10 -11 -5
right_child=1 2 -4 4 -6 6 7 -9 9 10 -12 -13
leaf_value=-0.056887775219334517 0.029940402939245592 -0.013664100424807629 0.16174893571913451 0.011916727160557391 -0.043111659833481496 -0.012842574369407524 0.061849437469173721 -0.040377540734117014 -0.025831524855175935 -0.073291172653165593 -0.036395437527845693 -0.025803088172123033
leaf_weight=726 444 218 168 398 1016 1278 264 314 2346 622 1678 306
leaf_count=20 26 11 35 52 18 51 34 10 95 17 55 6
internal_value=0 -0.00215196 0.06923 -0.0157183 -0.0278448 -0.0313059 -0.0281815 0.00709532 -0.0316451 -0.0366907 -0.0472525 -0.00487433
internal_weight=0 2550 386 2164 1720 7228 6502 578 5924 4646 2300 704
internal_count=430 148 46 102 76 282 262 44 218 167 72 58
is_linear=0
shrinkage=0.484407


Tree=7
num_leaves=12
num_cat=0
split_feature=0 6 4 3 5 4 9 3 8 9 5
split_gain=4.26864 19.2773 23.3983 2.75028 1.96223 2.56272 3.99159 2.60227 1.50724 1.9757 0.25754
threshold=0.87973181847746673 -1.3368723949795789 1.8367706387007703 1.1522508270101108 1.5414397596854996 -0.7192441922894538 -0.4566820355313625 0.054035222126932771 -0.17892307572091723 -0.6303772317531422 -0.48945744166171629
decision_type=2 2 2 2 2 2 2 2 2 2 2
left_child=3 -2 -3 4 5 6 -1 -8 9 -7 -10
right_child=1 2 -4 -5 -6 8 7 -9 10 -11 -12
leaf_value=-0.020136135069906136 -0.040402166582038074 0.20246259979263542 -0.018871878666310217 -0.055382075505939377 -0.044132022048405169 -0.04247612925128718 0.0053846009395022675 0.081724039963996395 -0.042427864052133703 -0.010686303122781586 -0.02525780412707964
leaf_weight=524 648 186 220 506 634 510 226 172 636 3306 642
leaf_count=17 30 44 12 8 23 10 15 37 24 183 27
internal_value=0 0.010968 0.0899281 -0.021766 -0.0189518 -0.0160754 0.00720895 0.0420503 -0.0203109 -0.0152578 -0.0346441
internal_weight=0 1054 406 7156 6650 6016 922 398 5094 3816 1278
internal_count=430 86 56 344 336 313 69 52 244 193 51
is_linear=0
shrinkage=0.484407


Tree=8
num_leaves=13
num_cat=0
split_feature=4 5 6 4 0 3 4 4 6 3 3 6
split_gain=7.09506 28.7642 14.5888 4.59645 4.49356 3.22966 4.69467 1.60875 1.1276 3.60246 2.85848 1.02848
threshold=-0.16532622622211701 -0.2916081979880194 0.81545382954631973 -0.5554853590358152 -0.54193748865324554 0.45762652848853902 0.98841078036122709 1.0000000180025095e-35 0.55365414900175669 0.86994988949965757 -0.25009585200730128 -1.3368723949795789
decision_type=2 2 2 2 2 2 2 2 2 2 2 2
left_child=1 2 3 -1 7 11 -7 -2 -3 10 -10 -6
right_child=4 8 -4 -5 5 6 -8 -9 9 -11 -12 -13
leaf_value=0.10242646432964911 -0.020672453546768721 -0.018526255947909093 -0.0024683697488392868 0.29256024801097386 -0.027177707806742443 -0.036112309954880205 0.016568263441090338 0.021917538822507361 0.0034536563679831889 -0.019582504501812831 0.071516920694343747 -0.054574142594052764
leaf_weight=122 314 2302 120 74 550 1150 574 492 442 1012 186 1460
leaf_count=12 10 73 11 37 30 36 42 50 25 16 44 44
internal_value=0 9.34683e-06 0.133512 0.205417 -0.0274673 -0.0344959 -0.0185837 0.00515484 -0.0116848 -0.00190291 0.0261351 -0.04763
internal_weight=0 4258 316 196 4540 3734 1724 806 3942 1640 628 2010
internal_count=430 218 60 49 212 152 78 60 158 85 69 74
is_linear=0
shrinkage=0.484407


Tree=9
num_leaves=13
num_cat=0
split_feature=4 0 4 0 4 8 4 5 5 0 4 3
split_gain=5.29393 4.37638 4.26838 3.33945 2.72875 2.02367 2.19103 1.62033 1.49525 1.02795 0.902004 1.06403
threshold=-0.42788037206851154 -0.060200278938815695 0.84098732948490962 0.39062540547378127 -0.17882654223643182 1.032639340768311 1.0021001007997425 1.0223148497974914 -0.68497957367039797 -0.15521735143833157 0.39763695157481083 0.18501604186961776
decision_type=2 2 2 2 2 2 2 2 2 2 2 2
left_child=1 9 3 4 8 6 -4 -3 -2 -1 11 -6
right_child=2 7 5 -5 10 -7 -8 -9 -10 -11 -12 -13
leaf_value=-0.0055970064540621662 -0.052302083195869653 0.053533443687743848 -0.013499076757899318 -0.050548805021280986 0.017862529873158416 -0.020850644147473632 0.038601527518028894 0.0062324287530059821 -0.022723226814135081 -0.027763049458041571 -0.02608001216492958 -0.011964981880342654
leaf_weight=1934 812 342 320 1642 378 662 390 330 940 638 532 858
leaf_count=85 14 24 13 37 42 37 48 18 29 25 21 37
internal_value=0 -0.00223136 -0.026178 -0.0325261 -0.0237336 -0.00208753 0.0155371 0.0316689 -0.0371352 -0.0113752 -0.0100202 -0.00261191
internal_weight=0 3244 6534 5162 3520 1372 710 672 1752 2572 1768 1236
internal_count=430 152 278 180 143 98 61 42 43 110 100 79
is_linear=0
shrinkage=0.484407


Tree=10
num_leaves=13
num_cat=0
split_feature=1 4 7 4 5 5 4 0 0 3 6 8
split_gain=3.79407 14.4329 6.07399 2.09318 9.13052 1.99224 1.3372 4.03097 0.95115 0.757073 2.14665 0.520809
threshold=1.0000000180025095e-35 1.3348288892885456 1.5798760721529195 -0.17882654223643182 -0.45003079979867017 -0.53810302589001491 0.10819017622790102 -1.0419998853082133 0.87973181847746673 0.86994988949965757 0.62960671363793208 -0.10141888847126605
decision_type=2 2 2 2 2 2 2 2 2 2 2 2
left_child=3 2 -2 4 -1 6 -5 -8 11 10 -6 -7
right_child=1 -3 -4 5 9 8 7 -9 -10 -11 -12 -13
leaf_value=-0.050202114635443731 0.16039434955235232 -0.033586616784346747 0.018634405794300368 -0.0054651358124499887 -0.0089904605042792195 0.0069789014078393864 -0.008485161648188088 0.062469252736004295 -0.025570665199160254 -0.019819992572773015 0.025526029334075617 -0.014641248606071111
leaf_weight=1628 146 430 134 858 2156 470 420 298 1020 718 492 518
leaf_count=30 24 19 18 37 98 39 14 51 20 16 50 14
internal_value=0 0.0217676 0.101509 -0.0144099 -0.0207947 -0.00540415 0.00740098 0.0223659 -0.0154182 -0.00622716 -0.00234332 -0.00444937
internal_weight=0 710 280 8578 4994 3584 1576 718 2008 3366 2648 988
internal_count=430 61 42 369 194 175 102 65 73 164 148 53
is_linear=0
shrinkage=0.484407


Tree=11
num_leaves=12
num_cat=0
split_feature=7 6 4 0 9 3 6 5 4 0 5
split_gain=2.87344 4.10575 19.3091 2.33214 1.48375 1.00859 1.43639 0.977573 0.838693 0.892502 0.368799
threshold=1.0000000180025095e-35 0.060813134114816848 0.50779953025161972 0.39062540547378127 -0.57066950805190542 0.54558600581167527 0.69754122088514736 -0.65521044521716487 0.73136476344867318 0.87973181847746673 0.50954474484087076
decision_type=2 2 2 2 2 2 2 2 2 2 2
left_child=1 2 -1 4 7 6 -6 -3 -4 -10 -9
right_child=-2 3 8 -5 5 -7 -8 10 9 -11 -12
leaf_value=0.12538085835101703 -0.033843275366453887 -0.032531547203556908 -0.023218569405649599 -0.035798300758941512 -0.001981030307378541 -0.014795039470014386 0.029445992350015861 -0.0028936094663244028 0.018722456335964435 -0.0094862156361015578 -0.019473653680077987
leaf_weight=272 962 726 506 824 1874 960 384 744 366 744 534
leaf_count=38 40 20 8 20 104 39 45 29 36 29 22
internal_value=0 -0.00616327 0.0133972 -0.012312 -0.00840712 -0.0019077 0.00369735 -0.0186429 -0.00752589 7.05069e-05 -0.0101386
internal_weight=0 7934 1888 6046 5222 3218 2258 2004 1616 1110 1278
internal_count=430 390 111 279 259 188 149 71 73 65 51
is_linear=0
shrinkage=0.484407


Tree=12
num_leaves=13
num_cat=0
split_feature=9 6 6 5 8 5 0 9 3 8 9 3
split_gain=3.38113 2.51889 3.44605 3.6412 2.20433 1.80381 1.42425 1.49113 2.45499 1.19648 1.08045 0.794964
threshold=0.41722192045946699 -0.083377141619416742 0.18487404308475044 -0.052318465818090069 -0.35819567905521671 0.84916879149087887 -0.54193748865324554 -0.6303772317531422 0.18501604186961776 -0.17892307572091723 -0.4566820355313625 0.51193564886965226
decision_type=2 2 2 2 2 2 2 2 2 2 2 2
left_child=1 5 3 -3 -2 10 7 -4 -9 -8 -1 -12
right_child=4 2 6 -5 -6 -7 9 8 -10 -11 11 -13
leaf_value=0.009335843218368365 -0.0044126649283997722 0.059291213707353935 -0.019342931166581697 -0.00028990544323275109 0.058709095391385219 -0.034253441002541928 -0.0095565472529185094 0.046674549246536502 -0.0052258764876114243 -0.032381766985917673 -0.02851000507311062 -0.0018371083427597657
leaf_weight=464 228 348 410 654 256 1328 2066 318 534 722 638 440
leaf_count=36 16 27 9 33 30 27 102 61 22 18 25 24
internal_value=0 -0.00996674 -0.00340668 0.0215936 0.0305313 -0.0213444 -0.00971632 0.00371658 0.0151267 -0.0157739 -0.0097462 -0.0180026
internal_weight=0 7922 5052 1002 484 2870 4050 1262 852 2788 1542 1078
internal_count=430 384 272 60 46 112 212 92 83 120 85 49
is_linear=0
shrinkage=0.484407


Tree=13
num_leaves=13
num_cat=0
split_feature=1 5 4 5 6 3 8 5 5 5 8 6
split_gain=2.31022 12.3103 1.2959 1.27465 1.24761 1.30421 4.32802 1.93388 1.15747 1.63542 0.611936 0.29478
threshold=1.0000000180025095e-35 -0.38335010016650356 1.1621598474654589 0.12154362684698854 0.69754122088514736 0.52471426542991406 -0.10141888847126605 -0.68497957367039797 -0.65521044521716487 1.4586482869878432 -0.41388561785709377 0.51435556100082613
decision_type=2 2 2 2 2 2 2 2 2 2 2 2
left_child=2 -2 4 -4 8 6 7 -6 11 10 -10 -1
right_child=1 -3 3 -5 5 -7 -8 -9 9 -11 -12 -13
leaf_value=-0.027952533101584069 0.10220314439641585 -0.025978325630504832 0.036401624537985559 -0.0072546987098422201 0.025442431165379878 -0.009060195474842098 -0.01471478193158275 0.12440635916419479 0.0070885791696246271 -0.023469304882021164 -0.0080156714245892807 -0.015887125872814961
leaf_weight=1040 240 470 258 322 128 756 300 68 1186 1032 1270 1238
leaf_count=30 22 39 31 14 15 35 3 34 103 26 47 31
internal_value=0 0.0198894 -0.00844619 0.0130392 -0.0102749 0.00350461 0.0220625 0.0725379 -0.0132718 -0.00760717 -0.00071985 -0.0217133
internal_weight=0 710 7598 580 7018 1252 496 196 5766 3488 2456 2278
internal_count=430 61 369 45 324 87 52 49 237 176 150 61
is_linear=0
shrinkage=0.484407


Tree=14
num_leaves=13
num_cat=0
split_feature=4 5 1 4 9 6 9 8 4 5 5 4
split_gain=2.24059 7.03493 1.9518 1.37056 0.895859 0.868667 0.712644 0.580244 0.394438 0.77485 0.345901 0.327555
threshold=-0.36032479073288026 -0.45003079979867017 1.0000000180025095e-35 -0.13967562579491885 -0.57066950805190542 0.10907308037399681 1.0000000180025095e-35 -0.35819567905521671 -1.0290224435539215 -0.19941877433549379 -0.52843656205072098 1.8367706387007703
decision_type=2 2 2 2 2 2 2 2 2 2 2 2
left_child=1 -1 3 4 -2 -3 -5 8 -7 -10 -8 -4
right_child=2 5 11 6 -6 7 10 -9 9 -11 -12 -13
leaf_value=0.066595098662994873 -0.03266809814689714 -0.02166291681846683 -0.022923633846859314 -0.0069630724667779434 -0.0066536746296486284 0.00059074176893458776 0.023521489494125025 -0.0090862261149134062 -0.0016006929354579135 0.039527658986344541 0.0016850109626393589 -0.048183014692061682
leaf_weight=338 716 522 366 2188 568 874 258 952 214 178 428 314
leaf_count=22 15 16 36 114 39 45 31 35 9 40 18 10
internal_value=0 0.00390451 -0.0127564 -0.00866161 -0.0216133 -0.00450843 -0.00269591 -0.000213789 0.00650904 0.0186306 0.0106001 -0.036255
internal_weight=0 3078 4838 4158 1284 2740 2874 2218 1266 392 686 680
internal_count=430 167 263 217 54 145 163 129 94 49 49 46
is_linear=0
shrinkage=0.484407


Tree=15
num_leaves=13
num_cat=0
split_feature=1 5 8 4 5 5 4 5 5 6 3 5
split_gain=2.64826 6.89291 0.918684 1.46111 1.48383 0.6833 0.824981 1.32779 0.480517 0.352291 0.279809 0.353478
threshold=1.0000000180025095e-35 1.0000000180025095e-35 -0.41388561785709377 -0.13967562579491885 -0.24596100763579801 -0.65521044521716487 -0.21716743971708605 1.4586482869878432 -0.52843656205072098 0.10907308037399681 -0.25009585200730128 0.050879986095853647
decision_type=2 2 2 2 2 2 2 2 2 2 2 2
left_child=2 -2 5 4 -4 9 10 -8 -5 -1 -7 -12
right_child=1 -3 3 8 -6 6 7 -9 -10 -11 11 -13
leaf_value=-0.020779506701538164 0.081146677339574785 -0.018247997056966295 -0.03639610256390273 0.0091549808791260602 -0.0090757340241911354 0.0096186249808764192 0.050500909206514052 -0.0035356739668809438 -0.007447388087067984 -0.0042410326334557632 0.0088776116590037514 -0.0081535072010564674
leaf_weight=424 258 354 830 568 1084 454 178 208 1256 972 356 1072
leaf_count=16 31 30 23 39 52 31 40 6 40 45 31 46
internal_value=0 0.0255975 -0.00679102 -0.0121006 -0.0213353 -0.00131286 0.00386311 0.023325 -0.00220199 -0.00962755 -0.000447743 -0.00379758
internal_weight=0 612 7402 3738 1914 3664 2268 386 1824 1396 1882 1428
internal_count=430 61 369 154 75 215 154 46 79 61 108 77
is_linear=0
shrinkage=0.484407


Tree=16
num_leaves=13
num_cat=0
split_feature=4 1 5 8 0 0 5 5 5 9 3 3
split_gain=2.3557 5.82483 10.7009 0.836207 0.642726 0.651066 0.451654 0.445528 0.391148 0.355464 0.350306 0.330239
threshold=1.8367706387007703 1.0000000180025095e-35 0.43516667585519225 -0.47103612188981531 -0.12984903215054053 -0.060200278938815695 0.12816694466280101 -0.9691557096866783 1.5156625227807157 -0.4566820355313625 0.5562348529452269 0.39373344568722934
decision_type=2 2 2 2 2 2 2 2 2 2 2 2
left_child=1 3 -3 4 -1 -6 7 -5 10 -7 -8 -9
right_child=-2 2 -4 6 5 9 8 11 -10 -11 -12 -13
leaf_value=-0.0026304543724560378 -0.036770680027279824 0.1109585482267308 -0.025044868604806401 -0.0021752828176805779 -0.00040266020571817106 0.0074915368549036531 0.012322734892767617 -0.022113912190403973 -0.013503411450402887 0.042957331747901006 -0.0075947681086907266 -0.0085896025429535745
leaf_weight=2578 434 256 238 640 342 126 474 1170 416 164 322 756
leaf_count=113 21 30 21 26 24 14 41 46 12 33 14 35
internal_value=0 -0.0012708 0.0478899 -0.00495148 0.000797374 0.0142469 -0.00980453 -0.0134097 -0.00201298 0.0298728 0.00426966 -0.0170398
internal_weight=0 7482 494 6988 3210 632 3778 2566 1212 290 796 1926
internal_count=430 409 51 358 184 71 174 107 67 47 55 81
is_linear=0
shrinkage=0.484407


Tree=17
num_leaves=11
num_cat=0
split_feature=7 0 0 9 5 3 4 8 3 4
split_gain=3.2529 3.3807 0.482504 0.63077 0.752961 1.20417 0.528607 0.330477 0.234498 0.100483
threshold=1.0000000180025095e-35 0.87973181847746673 0.18937442006986474 1.0000000180025095e-35 -0.95071782495617319 1.1522508270101108 -0.24684113431655 -0.47103612188981531 0.54558600581167527 0.48652303221305948
decision_type=2 2 2 2 2 2 2 2 2 2
left_child=1 2 3 7 -5 -6 -4 8 -1 -9
right_child=-2 -3 6 4 5 -7 -8 9 -10 -11
leaf_value=0.0029138377877460124 -0.036374121258228247 0.032387033918472023 -0.015486794220534046 -0.0012095091818454932 0.047272686333813506 -0.011985007630344959 0.0024274942045594298 -0.0051133363492178565 -0.0075447946078079312 -0.013633245679891224
leaf_weight=2190 570 680 1146 424 218 102 562 986 618 518
leaf_count=115 40 46 34 16 60 2 36 52 15 14
internal_value=0 0.000636264 -0.00269234 -0.000293534 0.0124251 0.0289826 -0.00964979 -0.00256653 0.000548525 -0.00827953
internal_weight=0 7444 6764 5056 744 320 1708 4312 2808 1504
internal_count=430 390 344 274 78 62 70 196 130 66
is_linear=0
shrinkage=0.484407


Tree=18
num_leaves=13
num_cat=0
split_feature=6 6 6 6 2 5 0 0 5 3 4 5
split_gain=1.39279 4.78784 4.96353 1.86324 2.12146 0.869676 0.242716 0.284912 0.352458 0.182191 0.209877 0.200169
threshold=-0.39837225332854842 0.060813134114816848 -0.083377141619416742 -1.3368723949795789 1.0000000180025095e-35 -0.38335010016650356 0.18937442006986474 -0.12984903215054053 1.5414397596854996 0.022088680726277926 -0.53248082054742274 -0.63141125322764402
decision_type=2 2 2 2 2 2 2 2 2 2 2 2
left_child=3 2 -2 5 -5 -1 7 9 -9 11 -11 -3
right_child=1 6 -4 4 -6 -7 -8 8 -10 10 -12 -13
leaf_value=-0.0071509582545348062 -0.0047806534424021776 -0.013462036733157186 0.075460639790470491 -0.045241588532386572 -0.0075854613971938862 0.028809409401135213 -0.0099320316919138188 0.01991763114669216 -0.0031137645198583189 0.0085377044550709862 -0.0027853680481383348 -0.0032057360488299885
leaf_weight=318 330 628 358 546 938 262 1060 264 312 478 1522 1488
leaf_count=12 18 20 32 28 28 33 40 34 9 43 75 58
internal_value=0 0.00122262 0.0384639 -0.0131468 -0.0221143 0.00973525 -0.00341917 -0.00188768 0.00791893 -0.00331365 7.55874e-06 -0.00641122
internal_weight=0 6440 688 2064 1484 580 5752 4692 576 4116 2000 2116
internal_count=430 329 50 101 56 45 279 239 43 196 118 78
is_linear=0
shrinkage=0.484407


Tree=19
num_leaves=13
num_cat=0
split_feature=5 6 3 8 9 6 4 3 5 5 3 0
split_gain=2.04084 5.65029 21.0648 1.10696 1.20962 0.468701 0.42687 0.704245 0.264428 0.935272 0.220048 0.174452
threshold=-0.48945744166171629 0.060813134114816848 0.12857715206179407 -0.47103612188981531 -0.4566820355313625 0.18487404308475044 -0.59868637028162253 0.35646248071979869 -0.38335010016650356 1.1711157399162524 0.096630610661139218 -0.20086728331867557
decision_type=2 2 2 2 2 2 2 2 2 2 2 2
left_child=1 2 -1 5 8 -2 -6 -8 -5 -10 -7 -3
right_child=3 11 -4 4 6 10 7 -9 9 -11 -12 -13
leaf_value=-0.036585112994198747 0.014405825624824103 0.002114204030765596 0.17486266020349517 -0.0058780650649974085 -0.0049190625418027052 0.0039378182193157687 -0.029187691086225341 -0.01131580489613968 0.037953987019204202 -0.0070499631990115367 -0.0057694165317828568 -0.0080357486007548665
leaf_weight=224 468 1096 170 204 648 872 952 1246 174 210 1364 582
leaf_count=14 38 58 36 4 30 44 35 35 38 7 45 46
internal_value=0 0.0111313 0.0609403 -0.00633985 -0.0120711 0.000990841 -0.0161766 -0.0193714 0.00758967 0.0146734 -0.00197651 -0.00148448
internal_weight=0 2072 394 6138 3434 2704 2846 2198 588 384 2236 1678
internal_count=430 154 50 276 149 127 100 70 49 45 89 104
is_linear=0
shrinkage=0.484407


Tree=20
num_leaves=13
num_cat=0
split_feature=1 4 5 6 5 4 8 0 9 3 5 5
split_gain=3.66533 8.42922 6.61422 1.9277 0.978406 0.65467 0.484734 0.312523 0.124803 0.251268 0.79239 0.168824
threshold=1.0000000180025095e-35 1.3348288892885456 0.43516667585519225 0.10907308037399681 -0.42586464020043524 1.0000000180025095e-35 -0.15300982162528917 0.39062540547378127 0.29780647305699343 0.35646248071979869 0.050879986095853647 -0.10855401424613069
decision_type=2 2 2 2 2 2 2 2 2 2 2 2
left_child=3 2 -2 4 -1 8 -7 -6 9 11 -11 -5
right_child=1 -3 -4 5 7 6 -8 -9 -10 10 -12 -13
leaf_value=-0.027029396242564334 0.15201545313344419 -0.020875923422379886 0.0081560151041033778 -0.0099022648311317268 -0.014288238875878722 0.034599182216257962 0.001657269921060628 -0.0027973933736190949 -0.0063300747313081466 0.025413316133785037 -0.0037743932433588864 -0.00064104553573464775
leaf_weight=1144 140 332 140 642 1352 172 224 964 1258 292 646 1492
leaf_count=33 21 19 21 27 39 37 14 41 41 48 29 60
internal_value=0 0.0310133 0.0883833 -0.006941 -0.0155718 -0.000557186 0.0175184 -0.00961423 -0.00233006 -0.000639626 0.00584176 -0.00353835
internal_weight=0 612 280 8186 3460 4726 396 2316 4330 3072 938 2134
internal_count=430 61 42 369 113 256 51 80 205 164 77 87
is_linear=0
shrinkage=0.484407


Tree=21
num_leaves=13
num_cat=0
split_feature=4 0 4 8 6 4 5 3 5 4 6 4
split_gain=2.31852 3.47007 1.73471 0.987068 0.558624 0.348796 0.244771 0.211209 0.386374 0.131416 0.188613 0.186931
threshold=0.48652303221305948 0.39062540547378127 1.1621598474654589 -0.35819567905521671 -1.1987461962622057 1.8367706387007703 0.12154362684698854 0.54558600581167527 -0.95573006546543671 -0.72162024790797319 0.62960671363793208 -0.20231709210133972
decision_type=2 2 2 2 2 2 2 2 2 2 2 2
left_child=1 7 3 -2 -5 6 -4 8 -1 10 -10 -11
right_child=2 -3 5 4 -6 -7 -8 -9 9 11 -12 -13
leaf_value=0.014428779636059753 -0.043265114820972617 0.036644247515483078 0.013662175624031382 -0.028926572499128486 -0.0030833133459742751 -0.011719745321971758 -0.0041084823146362425 -0.0069338179990602617 -0.0017255445060590244 -0.0073273855185046607 0.0097049365392346335 0.0016289602367643957
leaf_weight=358 526 578 352 348 426 434 322 1390 1050 1388 462 870
leaf_count=32 18 44 29 27 17 21 14 58 35 57 35 43
internal_value=0 0.00197796 -0.0156815 -0.0274617 -0.0154084 -0.00146462 0.00535574 -0.00184272 -8.52403e-05 -0.00157707 0.00188916 -0.0038971
internal_weight=0 6096 2408 1300 774 1108 674 5518 4128 3770 1512 2258
internal_count=430 304 126 62 44 64 43 260 202 170 70 100
is_linear=0
shrinkage=0.484407


Tree=22
num_leaves=13
num_cat=0
split_feature=1 4 4 0 0 5 3 6 3 8 0 4
split_gain=2.34461 3.71433 4.70525 1.342 1.01127 0.382421 0.201512 0.431261 0.400354 0.212401 0.131624 0.149519
threshold=1.0000000180025095e-35 1.3348288892885456 0.84098732948490962 0.39062540547378127 0.87973181847746673 -0.73966669779825545 0.32025640046572318 0.69754122088514736 0.18501604186961776 -0.54135527050386045 -0.70973359540770997 0.28315427177342128
decision_type=2 2 2 2 2 2 2 2 2 2 2 2
left_child=3 2 -2 6 5 -5 7 9 -9 -1 -8 -12
right_child=1 -3 -4 4 -6 -7 10 8 -10 -11 11 -13
leaf_value=-0.0029353867142345421 0.11480980607383813 -0.015725589857110173 -0.004270236488799299 -0.035755786996615406 -0.00024913701771023342 -0.016341522159631569 -0.010017999835982241 0.025687873611667775 0.00089282880556706284 0.0072668352536758869 0.00034597158112436422 -0.0089213723488070652
leaf_weight=2436 146 234 134 420 644 758 636 270 316 562 1522 524
leaf_count=91 24 19 18 14 28 36 24 37 11 36 75 17
internal_value=0 0.0284516 0.0632221 -0.00433903 -0.0157877 -0.0240402 -0.000944495 0.00142642 0.0130789 -0.000962175 -0.00409639 -0.00212338
internal_weight=0 514 280 8088 1822 1178 6266 3584 586 2998 2682 2046
internal_count=430 61 42 369 78 50 291 175 48 127 116 92
is_linear=0
shrinkage=0.484407


Tree=23
num_leaves=13
num_cat=0
split_feature=6 6 6 3 6 6 9 4 5 4 4 8
split_gain=1.29459 3.84036 2.11288 1.88212 0.131064 0.117519 0.20544 0.0822074 0.251637 0.162896 0.120859 0.0217529
threshold=-0.083377141619416742 0.060813134114816848 -1.3368723949795789 0.51193564886965226 0.38254610917601561 0.10907308037399681 -0.6303772317531422 -0.59868637028162253 0.98476779812541893 -0.36032479073288026 0.28315427177342128 -0.45687806215211302
decision_type=2 2 2 2 2 2 2 2 2 2 2 2
left_child=2 -2 -1 -4 5 -3 -7 8 11 -9 -11 -6
right_child=1 4 3 -5 7 6 -8 9 -10 10 -12 -13
leaf_value=0.020036057193086845 0.043426414452821381 -0.0031067318698967572 -0.031344348574802332 3.0379050939780655e-05 0.0048657532905353844 -0.0028620267567991738 0.012704507406867533 -0.0095739222011112929 -0.0033258981129830134 0.00044127080447909457 -0.0085391616586095054 0.01248097554709348
leaf_weight=384 456 432 1048 766 240 312 468 848 1352 1536 422 240
leaf_count=45 32 20 34 40 22 9 38 32 39 82 15 22
internal_value=0 0.00214911 -0.0114213 -0.01832 -0.00128656 0.00313809 0.00659705 -0.00245896 6.33545e-05 -0.00409185 -0.00159528 0.00924125
internal_weight=0 6306 2198 1814 5850 1212 780 4638 1832 2806 1958 480
internal_count=430 311 119 74 279 67 47 212 83 129 97 44
is_linear=0
shrinkage=0.484407


Tree=24
num_leaves=13
num_cat=0
split_feature=1 5 6 4 3 9 0 9 4 0 6 4
split_gain=2.23047 7.69128 0.326986 0.668437 0.228209 0.0799327 0.311027 0.235953 0.244306 0.152628 0.0450379 0.0325107
threshold=1.0000000180025095e-35 1.0000000180025095e-35 0.060813134114816848 1.1621598474654589 0.26658621091262308 0.29780647305699343 -0.060200278938815695 -0.22870709049027657 0.28315427177342128 -0.20086728331867557 0.57513108843647032 -0.42788037206851154
decision_type=2 2 2 2 2 2 2 2 2 2 2 2
left_child=2 -2 3 4 -1 6 7 9 -9 -4 -7 -8
right_child=1 -3 5 -5 -6 10 11 8 -10 -11 -12 -13
leaf_value=-0.00659034481604669 0.10582637234695405 -0.020337882945867192 -0.0011144841937948729 0.0031306594410006406 -0.02018196622081448 -0.007166318632674906 0.01452516180382088 0.01403663805003218 -0.0036598556102432518 -0.0083728136934224703 -0.0013492732082780556 0.0061207260121632877
leaf_weight=542 160 256 2264 770 736 620 238 384 306 950 646 338
leaf_count=26 31 30 103 42 25 16 21 45 6 34 29 22
internal_value=0 0.032278 -0.0028592 -0.00806489 -0.0147302 -0.000967164 1.11362e-07 -0.00157262 0.00635935 -0.00332525 -0.00431407 0.0101976
internal_weight=0 416 7794 2048 1278 5746 4480 3904 690 3214 1266 576
internal_count=430 61 369 93 51 276 231 188 51 137 45 43
is_linear=0
shrinkage=0.484407


Tree=25
num_leaves=13
num_cat=0
split_feature=4 0 1 6 4 9 6 3 4 4 3 3
split_gain=1.75445 2.63566 1.63647 1.63966 0.345249 0.379929 0.172532 0.133081 0.147688 0.249142 0.126912 0.174364
threshold=0.48652303221305948 0.39062540547378127 1.0000000180025095e-35 -1.3368723949795789 0.66831828766182289 1.0000000180025095e-35 -1.0391430581101189 0.86994988949965757 -0.2271846741997077 -0.17882654223643182 0.15243056964094978 0.53536311256346558
decision_type=2 2 2 2 2 2 2 2 2 2 2 2
left_child=1 7 4 -4 -2 6 -6 8 10 -10 -1 -12
right_child=2 -3 3 -5 5 -7 -8 -9 9 -11 11 -13
leaf_value=0.0001888866576006021 -0.014512785502699991 0.032578431438435584 -0.0054782730609001006 -0.05001163466858153 -0.01039027412306053 0.013297978314705139 0.003020917974138095 -0.0069589720418585738 -0.011911271537328277 5.1193709165771472e-05 0.001774185829093423 0.017174596592924859
leaf_weight=1636 506 578 354 424 530 338 354 734 512 1630 456 256
leaf_count=83 8 44 30 16 20 22 30 24 11 80 32 30
internal_value=0 0.00245185 -0.0128064 -0.0307858 -0.00428988 0.000197889 -0.00508968 -0.00105842 -4.85916e-05 -0.00293693 0.00258556 0.00783052
internal_weight=0 5802 2506 778 1728 1222 884 5224 4490 2142 2348 712
internal_count=430 304 126 46 80 72 50 260 236 91 145 62
is_linear=0
shrinkage=0.484407


Tree=26
num_leaves=13
num_cat=0
split_feature=4 1 4 5 8 6 9 4 4 3 5 3
split_gain=0.917268 2.56384 3.45821 3.29451 0.396943 0.304003 0.317564 0.230658 0.150848 0.0513703 0.0946901 0.0457769
threshold=1.5397636863858446 1.0000000180025095e-35 1.3348288892885456 0.43516667585519225 -0.47103612188981531 0.55365414900175669 -0.22870709049027657 -0.056135670298338651 0.39763695157481083 0.54558600581167527 0.050879986095853647 0.18501604186961776
decision_type=2 2 2 2 2 2 2 2 2 2 2 2
left_child=1 4 3 -3 7 6 -6 9 -9 10 -1 -7
right_child=-2 2 -4 -5 5 11 -8 8 -10 -11 -12 -13
leaf_value=0.0057118030350273089 -0.016408546986407934 0.11028071561113938 -0.012934217833924955 0.0080974096532128656 -0.0010467624487875713 0.0020219882727480548 -0.014007707494194168 0.0017161680999175984 0.015847230796681055 -0.004260484271585859 -0.0015364195346908545 -0.0029672690594158583
leaf_weight=570 854 140 214 140 668 674 1334 354 346 644 1388 1080
leaf_count=40 35 21 9 21 40 43 30 30 26 28 57 50
internal_value=0 6.32037e-05 0.0326881 0.0653312 -0.00235672 -0.00574261 -0.0097738 0.00150949 0.00910653 -0.000616245 0.000626099 -0.00104171
internal_weight=0 7552 494 280 7058 3756 2002 3302 700 2602 1958 1754
internal_count=430 395 51 42 344 163 70 181 56 125 97 93
is_linear=0
shrinkage=0.484407


Tree=27
num_leaves=13
num_cat=0
split_feature=7 0 5 5 0 0 3 5 9 6 6 4
split_gain=0.958787 1.48079 2.41778 0.176943 0.519521 0.347571 0.381261 0.217535 0.130412 0.239102 0.0925623 0.0660383
threshold=1.0000000180025095e-35 0.87973181847746673 0.12154362684698854 -0.45003079979867017 0.39062540547378127 -0.060200278938815695 0.86994988949965757 1.5156625227807157 -0.4566820355313625 0.64700724574464497 0.62960671363793208 0.28315427177342128
decision_type=2 2 2 2 2 2 2 2 2 2 2 2
left_child=1 3 -3 4 11 8 7 -7 9 -5 -10 -1
right_child=-2 2 -4 5 -6 6 -8 -9 10 -11 -12 -13
leaf_value=0.0024803823123230005 -0.016926776548746168 0.048335310769570303 -0.004354405138600052 0.012045535442182896 -0.013631296464604398 0.026067840306812085 -0.0035365786915983522 0.0050949824973662242 -0.004989001009096496 -0.0054429588203020783 0.0012516672913363768 -0.0029270044115675296
leaf_weight=1116 766 350 428 370 932 266 318 224 1904 310 764 952
leaf_count=68 40 28 18 38 25 35 12 14 70 8 39 35
internal_value=0 0.000683088 0.0203139 -0.00153101 -0.00434539 0.000515576 0.00933147 0.0174078 -0.00167724 0.00417098 -0.00320404 -1.01004e-05
internal_weight=0 7934 778 7156 3000 4156 808 490 3348 680 2668 2068
internal_count=430 390 46 344 128 216 61 49 155 46 109 103
is_linear=0
shrinkage=0.484407


Tree=28
num_leaves=13
num_cat=0
split_feature=4 1 5 8 0 5 4 9 6 6 9 4
split_gain=0.797802 1.14424 3.32246 0.130851 0.288442 0.214543 0.116724 0.134518 0.426671 0.167773 0.0646731 0.0360482
threshold=1.8124700698750036 1.0000000180025095e-35 1.0000000180025095e-35 -0.47103612188981531 -0.060200278938815695 -0.64626001573633718 0.77996590110020658 -0.22870709049027657 0.57513108843647032 0.57513108843647032 -0.6303772317531422 0.28315427177342128
decision_type=2 2 2 2 2 2 2 2 2 2 2 2
left_child=1 3 -3 4 10 -6 7 8 -5 -9 -1 -12
right_child=-2 2 -4 6 5 -7 -8 9 -10 -11 11 -13
leaf_value=-0.0053201542184262134 -0.016759512288282756 0.061101413344382086 -0.0094858384480369269 0.015067450923096366 0.00018148162820606051 0.017165287399172044 -0.0083373183243236598 -0.0078000332246013094 -0.00354096507450309 0.0022480151856551938 0.0011297913446090941 -0.0029681062340889135
leaf_weight=614 638 238 354 378 312 370 744 1132 950 566 1958 642
leaf_count=13 25 21 30 42 9 38 29 27 34 38 97 27
internal_value=0 0.000615894 0.0205618 -0.00100248 0.000961228 0.00977028 -0.00302581 -0.00164205 0.00197852 -0.00446449 -0.000982837 8.95972e-05
internal_weight=0 8258 592 7666 3896 682 3770 3026 1328 1698 3214 2600
internal_count=430 405 51 354 184 47 170 141 76 65 137 124
is_linear=0
shrinkage=0.484407


Tree=29
num_leaves=12
num_cat=0
split_feature=9 0 4 1 0 9 8 3 4 0 4
split_gain=0.912863 1.05736 0.907491 1.18487 0.719231 1.39205 1.98585 0.173169 0.0944998 0.0937037 0.0580578
threshold=0.41722192045946699 -0.12984903215054053 1.0021001007997425 1.0000000180025095e-35 0.39062540547378127 1.0000000180025095e-35 -0.17892307572091723 0.5562348529452269 1.8124700698750036 -0.12984903215054053 -0.72162024790797319
decision_type=2 2 2 2 2 2 2 2 2 2 2
left_child=2 -2 4 8 7 6 -6 9 -4 10 -1
right_child=1 -3 3 -5 5 -7 -8 -9 -10 -11 -12
leaf_value=0.0016904267327746652 -0.0011792392097092735 0.03900790316605806 0.0058921911651316416 -0.027948334854513077 -2.432704594112015e-05 -0.0090626648243281576 0.066055811475703177 -0.0071762586997232451 -0.0050821625350755181 0.0044417983105333779 -0.002401541548261926
leaf_weight=1082 332 250 356 644 216 318 178 1046 318 760 3004
leaf_count=51 19 27 31 28 10 12 40 33 12 37 130
internal_value=0 0.0172045 -0.00217799 -0.013621 0.000159037 0.0143538 0.0325373 -0.00162303 0.000702357 -0.000382547 -0.00131041
internal_weight=0 582 7922 1318 6604 712 394 5892 674 4846 4086
internal_count=430 46 384 71 313 62 50 251 43 218 181
is_linear=0
shrinkage=0.484407


Tree=30
num_leaves=13
num_cat=0
split_feature=4 6 0 1 6 4 0 0 5 5 5 4
split_gain=0.488343 2.52812 1.87683 0.644335 1.8547 0.314807 0.228936 0.130993 0.154756 0.178483 0.147809 0.080585
threshold=-0.27197872273520401 0.18487404308475044 -1.0419998853082133 1.0000000180025095e-35 -1.3368723949795789 1.1621598474654589 1.0000000180025095e-35 0.18937442006986474 0.98476779812541893 0.1516618220499738 -0.15466662693135513 1.0000000180025095e-35
decision_type=2 2 2 2 2 2 2 2 2 2 2 2
left_child=1 2 -1 5 -5 6 11 8 9 10 -3 -2
right_child=3 7 -4 4 -6 -7 -8 -9 -10 -11 -12 -13
leaf_value=0.001129532069330775 -0.0036866175991942707 0.0064621114979619776 0.060492886144922972 0.0052126918507684828 -0.038225454659416555 0.0064680724951655657 -0.0086884152724648056 -0.0074049258271341152 -0.0038230863701463496 0.011970661208108193 -0.0063267610865680593 0.002277684666541237
leaf_weight=226 1064 354 252 452 424 776 1466 832 1442 366 438 1000
leaf_count=15 42 30 28 30 16 45 47 24 35 36 23 59
internal_value=0 0.00246971 0.0342912 -0.00467621 -0.0164093 -0.00218251 -0.0041287 -0.00223653 -0.000507887 0.00360239 -0.000567342 -0.000800818
internal_weight=0 3910 478 5182 876 4306 3530 3432 2600 1158 792 2064
internal_count=430 191 43 239 46 193 148 148 124 89 53 101
is_linear=0
shrinkage=0.484407


Tree=31
num_leaves=13
num_cat=0
split_feature=5 4 6 4 6 3 0 4 3 0 5 9
split_gain=0.621056 1.78158 0.319493 0.410071 0.33601 0.203639 0.183503 0.177912 0.469477 0.119278 0.0728655 0.104307
threshold=-0.68497957367039797 -0.13967562579491885 -1.0391430581101189 -0.056135670298338651 -1.3368723949795789 0.53536311256346558 -0.20086728331867557 0.08046052713449843 0.022088680726277926 0.39062540547378127 1.494450004911154 -0.22870709049027657
decision_type=2 2 2 2 2 2 2 2 2 2 2 2
left_child=1 -1 4 9 -2 7 -5 -3 -9 10 11 -4
right_child=2 5 3 6 -6 -7 -8 8 -10 -11 -12 -13
leaf_value=0.035744595538845216 -0.00093320532194371615 -0.0054689611603759344 -0.0041035113993103259 0.0025855978906073281 -0.014327699509938546 -0.0093277560271267119 0.019708412433337701 -0.0026600716159781443 0.019244764750858796 -0.009508977897578012 0.0031830136403408794 0.0017804693897087692
leaf_weight=358 758 416 2940 342 1036 422 244 548 354 530 534 904
leaf_count=32 36 12 98 24 28 15 24 29 30 20 22 60
internal_value=0 0.00616166 -0.00323666 -0.00138025 -0.00879085 -0.000457322 0.0103892 0.00252899 0.00629138 -0.00284639 -0.00197365 -0.00271348
internal_weight=0 2098 7288 5494 1794 1740 586 1318 902 4908 4378 3844
internal_count=430 118 312 248 64 86 48 71 59 200 180 158
is_linear=0
shrinkage=0.484407


Tree=32
num_leaves=11
num_cat=0
split_feature=0 5 0 9 4 9 5 4 3 5
split_gain=0.666687 2.53364 0.384921 0.283333 0.239638 0.070293 0.117699 0.0951776 0.0863206 0.0536257
threshold=0.87973181847746673 -0.36670230133216397 0.39062540547378127 1.0000000180025095e-35 0.84098732948490962 -0.66294508104472583 -0.95573006546543671 0.50779953025161972 0.054035222126932771 -0.63141125322764402
decision_type=2 2 2 2 2 2 2 2 2 2
left_child=2 -2 5 -4 -3 -1 8 9 -7 -8
right_child=1 4 3 -5 -6 6 7 -9 -10 -11
leaf_value=-0.0071082414179922107 0.040911339185804939 -0.013231785267545345 -0.0014421501161850506 -0.015611872848658682 0.0023347439809038523 0.010044712816066215 -0.0038856520186828281 -0.0076120465921950924 6.1436836912378184e-05 -2.1887752934810673e-05
leaf_weight=408 372 418 558 816 460 344 1054 520 448 3792
leaf_count=8 39 13 34 16 34 25 37 15 28 181
internal_value=0 0.00914727 -0.00275411 -0.0100304 -0.00526943 -0.0011882 -0.00075916 -0.00158031 0.00463468 -0.000884727
internal_weight=0 1250 7940 1374 878 6566 6158 5366 792 4846
internal_count=430 86 344 50 47 294 286 233 53 218
is_linear=0
shrinkage=0.484407


Tree=33
num_leaves=12
num_cat=0
split_feature=6 8 3 5 9 0 0 6 0 3 6
split_gain=0.402706 1.43395 0.802357 0.515527 0.128021 0.161506 0.116612 0.0909988 0.0575085 0.0475946 0.0412599
threshold=-0.083377141619416742 -0.15300982162528917 0.51193564886965226 1.0000000180025095e-35 0.29780647305699343 -0.060200278938815695 0.39062540547378127 0.24778884213467581 -0.24332171996739541 -0.25009585200730128 0.57513108843647032
decision_type=2 2 2 2 2 2 2 2 2 2 2
left_child=2 4 3 -1 5 7 -4 9 -9 -2 -6
right_child=1 -3 6 -5 10 -7 -8 8 -10 -11 -12
leaf_value=-0.023673011050275358 -0.00076827855374902022 0.023757041701353145 -0.0020939088063541742 -0.0043566527998770716 -0.0081413391012177695 0.0073702356476644578 0.0082594236474930628 0.0031541619003497747 -0.0012861041514886453 -0.0067350983688151895 -0.0026517298559608706
leaf_weight=638 538 560 422 666 620 576 570 1104 1688 770 744
leaf_count=25 24 35 15 39 16 43 40 62 60 42 29
internal_value=0 0.00100709 -0.00639821 -0.0141589 -0.00121508 0 0.00391643 -0.00108445 0.000481494 -0.00436692 -0.00528552
internal_weight=0 6600 2296 1304 6040 4676 992 4100 2792 1308 1364
internal_count=430 311 119 64 276 231 55 188 122 66 45
is_linear=0
shrinkage=0.484407


Tree=34
num_leaves=10
num_cat=0
split_feature=1 4 2 4 0 4 3 6 4
split_gain=0.384882 3.54068 0.171759 0.160758 0.0898727 0.0771054 0.0639771 0.0630883 0.0546357
threshold=1.0000000180025095e-35 1.0565063743374312 0.76610353107676887 1.1621598474654589 0.18937442006986474 -0.2271846741997077 0.022088680726277926 0.57513108843647032 -0.24684113431655
decision_type=2 2 2 2 2 2 2 2 2
left_child=2 -2 3 4 5 7 -7 -1 -6
right_child=1 -3 -4 -5 8 6 -8 -9 -10
leaf_value=-0.0014209418357315625 0.052032805654492364 -0.013333893141630035 -0.0082057825330597769 0.0059233518801927827 -0.0074903856060705952 -0.0060809986241449994 -0.00085910319386709182 0.0033721936622042575 -0.0019253986898429337
leaf_weight=1188 262 546 860 666 852 818 1618 1336 848
leaf_count=55 33 28 38 39 34 17 74 80 32
internal_value=0 0.00902987 -0.00185512 -0.00107539 -0.00180213 -0.00074503 -0.00267375 0.00112215 -0.00480852
internal_weight=0 808 8186 7326 6660 4960 2436 2524 1700
internal_count=430 61 369 331 292 226 91 135 66
is_linear=0
shrinkage=0.484407


Tree=35
num_leaves=9
num_cat=0
split_feature=7 1 5 3 5 4 5 8
split_gain=0.552827 0.871666 1.3382 0.0772275 0.140961 0.15727 0.073628 0.00587413
threshold=4.072891525458445 1.0000000180025095e-35 1.0000000180025095e-35 -2.2887111472544217 1.0800003678014261 -1.7816920619840011 0.48524432880042334 -0.41388561785709377
decision_type=2 2 2 2 2 2 2 2
left_child=1 3 -3 -1 5 -5 -7 -6
right_child=-2 2 -4 4 7 6 -8 -9
leaf_value=0.004918225493198123 -0.017374384986499875 0.042025815157592572 -0.0062149047183500577 -0.016959078597839086 -0.0042611613558014121 -0.00077994444476409651 0.0039333325510685089 -0.0068414120398622011
leaf_weight=440 412 250 244 100 718 5110 884 738
leaf_count=24 10 27 24 1 16 252 50 26
internal_value=0 0.000154524 0.0192543 -0.00109747 -0.00146898 -0.000432394 -6.56022e-05 -0.00569652
internal_weight=0 8484 494 7990 7550 6094 5994 1456
internal_count=430 420 51 369 345 303 302 42
is_linear=0
shrinkage=0.484407


Tree=36
num_leaves=13
num_cat=0
split_feature=6 6 8 1 6 9 5 2 5 5 4 3
split_gain=0.33189 1.30569 1.49663 0.356382 0.826138 0.12638 0.213915 0.067606 0.053002 0.0707963 0.078168 0.0458466
threshold=-0.083377141619416742 0.10907308037399681 -0.47268514715044618 1.0000000180025095e-35 -1.3368723949795789 1.0000000180025095e-35 0.12816694466280101 0.76610353107676887 1.0223148497974914 -0.9691557096866783 -0.27197872273520401 0.45762652848853902
decision_type=2 2 2 2 2 2 2 2 2 2 2 2
left_child=3 2 -2 5 -5 6 -1 8 9 11 -11 -3
right_child=1 7 -4 4 -6 -7 -8 -9 -10 10 -12 -13
leaf_value=-0.0099079949391244777 0.0012079762519340998 0.0060549813061014351 0.049053153883634432 0.0016625485867038897 -0.027423687450491546 0.0059614048773523271 0.0040680475548325141 -0.0058779738587360734 0.0028743177953352668 -0.00020298661219407682 -0.0048179682328902528 -0.00079284816607102051
leaf_weight=534 350 450 244 452 424 442 444 536 966 2270 1364 420
leaf_count=22 28 29 24 30 16 25 26 23 42 106 45 14
internal_value=0 0.00134119 0.0223919 -0.00538115 -0.0128762 -0.000566493 -0.00362417 -0.000847152 -0.000320567 -0.00102388 -0.00196545 0.002826
internal_weight=0 6600 594 2296 876 1420 978 6006 5470 4504 3634 870
internal_count=430 311 52 119 46 73 48 259 236 194 151 43
is_linear=0
shrinkage=0.484407


Tree=37
num_leaves=13
num_cat=0
split_feature=5 8 9 3 6 4 6 6 4 0 4 9
split_gain=0.418861 1.80538 0.312983 0.354423 0.442546 0.281069 0.241819 0.223066 0.331257 0.131411 0.127391 0.0834445
threshold=-0.45003079979867017 -0.10141888847126605 -0.4566820355313625 0.54558600581167527 0.060813134114816848 0.66831828766182289 -1.3368723949795789 0.57513108843647032 -0.95976582240048669 -0.48324471909280331 -0.76320932142167142 -0.22870709049027657
decision_type=2 2 2 2 2 2 2 2 2 2 2 2
left_child=1 11 6 4 5 -4 -2 8 -8 -6 -5 -1
right_child=2 -3 3 10 9 -7 7 -9 -10 -11 -12 -13
leaf_value=0.0020379171699750139 -0.0064949929779696981 0.034630070067237388 -0.018487704167607848 -0.0028947564952854156 -0.0049713953273837026 -0.0062849931960007434 0.001314563959872109 -0.00057484904146386901 0.023720599647420956 0.0024133640330739493 0.011417545601379024 -0.0035962297724245469
leaf_weight=1228 424 362 820 214 1278 1040 308 530 290 966 358 1176
leaf_count=75 16 34 18 9 51 30 7 20 47 42 32 49
internal_value=0 0.00424361 -0.0028855 -0.00485699 -0.00643347 -0.0118939 0.00302504 0.00669441 0.0128556 -0.00179814 0.0061749 -0.000724576
internal_weight=0 2766 6228 4676 4104 1860 1552 1128 598 2244 572 2404
internal_count=430 158 272 182 141 48 90 74 54 93 41 124
is_linear=0
shrinkage=0.484407


Tree=38
num_leaves=11
num_cat=0
split_feature=9 4 4 4 2 4 0 5 4 9
split_gain=0.318928 0.542168 0.468601 0.358175 0.39032 0.370054 0.418973 0.577665 0.217421 0.0895183
threshold=0.41722192045946699 -0.81874152131495403 1.5397636863858446 0.84098732948490962 1.0000000180025095e-35 0.48652303221305948 -0.060200278938815695 -0.68497957367039797 1.3348288892885456 -0.6303772317531422
decision_type=2 2 2 2 2 2 2 2 2 2
left_child=2 -2 3 5 8 6 9 -8 -5 -1
right_child=1 -3 -4 4 -6 -7 7 -9 -10 -11
leaf_value=-0.0071326883294581872 -0.0056322297944813877 0.020837044147175496 -0.01293840754871479 0.026039677891860756 -0.0024248602410274203 -0.011025132764308337 0.027748173858142239 0.0017121013890272138 0.0050756047156654696 -0.0013239615592659491
leaf_weight=710 310 370 748 262 418 838 238 792 226 4082
leaf_count=12 8 38 31 33 13 27 21 53 15 179
internal_value=0 0.00904487 -0.00163441 -0.000465233 0.00839882 -0.0017074 -0.000310996 0.00839794 0.0172684 -0.00222887
internal_weight=0 680 8314 7566 906 6660 5822 1030 488 4792
internal_count=430 46 384 353 61 292 265 74 48 191
is_linear=0
shrinkage=0.484407


Tree=39
num_leaves=13
num_cat=0
split_feature=8 4 3 5 8 3 4 4 6 5 5 6
split_gain=0.460287 1.45492 0.327042 0.162564 0.180396 0.102415 0.0719088 0.0908182 0.110517 0.0612528 0.0863568 0.0449205
threshold=1.0000000180025095e-35 0.98841078036122709 0.51193564886965226 -0.52843656205072098 -0.4859951367541096 0.53536311256346558 0.3355354979089627 -0.76320932142167142 0.69754122088514736 0.15689782329625809 0.48524432880042334 0.55365414900175669
decision_type=2 2 2 2 2 2 2 2 2 2 2 2
left_child=3 -2 -3 4 5 -1 7 8 -5 -9 -11 -6
right_child=1 2 -4 6 11 -7 -8 9 -10 10 -12 -13
leaf_value=0.0031293299274714904 0.031253851858677247 -0.010499965900198895 0.0051787518590788277 -0.0010695614222273164 -0.010658276411028945 -0.0050267796489981489 0.0043046220327363563 -0.00039251811651550694 0.0074217301261949673 -0.0095371195679476769 -0.0019966504874662228 -0.0050859060428135993
leaf_weight=662 380 546 648 1386 1024 722 542 990 450 620 846 668
leaf_count=37 43 28 30 56 22 18 26 54 29 16 31 40
internal_value=0 0.00643406 -0.00206894 -0.00255763 -0.00529208 -0.0011349 -0.000791737 -0.00146525 0.0010975 -0.00337512 -0.00532983 -0.0086011
internal_weight=0 1574 1194 7910 3076 1384 4834 4292 1836 2456 1466 1692
internal_count=430 101 58 329 117 55 212 186 85 101 47 62
is_linear=0
shrinkage=0.484407


Tree=40
num_leaves=13
num_cat=0
split_feature=4 5 4 4 6 5 4 6 9 9 3 5
split_gain=0.266956 1.12728 0.330282 0.436288 0.320831 0.259609 0.25571 0.0816849 0.128172 0.274172 0.0741596 0.115891
threshold=-0.27197872273520401 -0.45003079979867017 0.73136476344867318 0.50779953025161972 -0.81847803332992508 -0.38335010016650356 1.5397636863858446 0.51435556100082613 -0.57066950805190542 0.90031168495129199 0.86994988949965757 0.98476779812541893
decision_type=2 2 2 2 2 2 2 2 2 2 2 2
left_child=1 -1 3 7 5 -4 -7 -2 -9 -10 11 -3
right_child=2 10 4 -5 -6 6 -8 8 9 -11 -12 -13
leaf_value=0.026765733684525596 -0.005468535911960397 0.0036516275145048009 0.016967649872729432 -0.017235159863815793 -0.0067865717011929352 0.0083669998281021632 -0.006932006993031016 -0.0061542120133365246 0.01230767766770216 -0.0050792471810733649 -0.0058962552440749317 -0.0024248641143696324
leaf_weight=356 1858 1268 344 622 644 572 414 524 378 414 522 1666
leaf_count=31 47 95 25 17 28 41 11 17 42 11 16 49
internal_value=0 0.00201373 -0.00319178 -0.00581886 0.00186665 0.00612652 0.00191584 -0.0034274 -0.000475241 0.00336167 -0.000756199 0.000208473
internal_weight=0 3812 5770 3796 1974 1330 986 3174 1316 792 3456 2934
internal_count=430 191 239 134 105 77 52 117 70 53 160 144
is_linear=0
shrinkage=0.484407


Tree=41
num_leaves=13
num_cat=0
split_feature=4 5 4 5 1 6 3 9 9 6 3 0
split_gain=0.153835 0.407683 0.119243 0.258845 0.393981 0.224423 0.165038 0.325937 0.0987287 0.0686085 0.130933 0.0699415
threshold=-0.53248082054742274 0.050879986095853647 0.84098732948490962 -0.30771897105350926 1.0000000180025095e-35 -1.1987461962622057 0.26658621091262308 -0.22870709049027657 -0.57066950805190542 0.64700724574464497 0.86994988949965757 -0.43609486087924793
decision_type=2 2 2 2 2 2 2 2 2 2 2 2
left_child=1 -1 5 4 -4 -2 7 8 -7 11 -11 -3
right_child=2 9 3 -5 -6 6 -8 -9 -10 10 -12 -13
leaf_value=0.013004840901139089 -0.012114125630855684 -0.0059885311368073173 0.003442468541039466 0.0091198533590296626 -0.01435242498197418 -0.0051612015972058133 -0.0049906158545815048 0.013401895624102043 0.0027782656658322425 0.0077530224868282271 -0.0037241529603748952 0.00020511294744732169
leaf_weight=562 622 818 766 568 430 948 2516 362 560 458 416 850
leaf_count=36 17 17 40 39 19 33 82 34 35 33 12 33
internal_value=0 0.00157782 -0.00252395 0.000883987 -0.0031545 -0.00372462 -0.00245263 0.00098272 -0.0022089 -0.00107512 0.00233922 -0.00288139
internal_weight=0 3104 6772 1764 1196 5008 4386 1870 1508 2542 874 1668
internal_count=430 131 299 98 59 201 184 102 68 95 45 50
is_linear=0
shrinkage=0.484407


Tree=42
num_leaves=9
num_cat=0
split_feature=1 4 4 0 9 8 9 4
split_gain=0.356991 0.949365 0.172684 0.227143 0.0723904 0.0745594 0.1449 0.0488095
threshold=1.0000000180025095e-35 1.0565063743374312 1.4368912783567656 0.39062540547378127 -0.6303772317531422 -0.10141888847126605 -0.57066950805190542 -0.24684113431655
decision_type=2 2 2 2 2 2 2 2
left_child=2 -2 3 4 -1 6 -6 -5
right_child=1 -3 -4 7 5 -7 -8 -9
leaf_value=-0.006052290955704768 0.026286925405877508 -0.0047158929600797641 0.0061823936100148386 -0.0098680190603846821 0.005798665795909097 -0.0055326668890639885 -0.0011193527835414374 -0.0040576947860452364
leaf_weight=612 360 546 552 926 810 618 4508 650
leaf_count=12 33 28 31 22 62 15 196 31
internal_value=0 0.0080702 -0.00187522 -0.00244638 -0.00117113 -0.000636002 -3.49271e-05 -0.00760806
internal_weight=0 906 8676 8124 6548 5936 5318 1576
internal_count=430 61 369 338 285 273 258 53
is_linear=0
shrinkage=0.484407


Tree=43
num_leaves=13
num_cat=0
split_feature=4 6 0 5 9 3 6 4 6 0 0 9
split_gain=0.154792 1.23243 0.87204 0.456907 0.197129 0.500893 0.209427 0.134622 0.108069 0.0752962 0.109595 0.080285
threshold=0.16948161093289041 0.10907308037399681 1.0000000180025095e-35 0.84916879149087887 -0.57066950805190542 0.17372826390805302 -0.81847803332992508 1.5397636863858446 0.24778884213467581 0.39062540547378127 -0.060200278938815695 -0.22870709049027657
decision_type=2 2 2 2 2 2 2 2 2 2 2 2
left_child=1 2 -1 4 5 -2 7 -6 -8 10 11 -3
right_child=3 9 -4 -5 6 -7 8 -9 -10 -11 -12 -13
leaf_value=0.0015765318768295349 0.021708847452295118 -0.0026052937256843844 0.042046925703958737 -0.015879467674718543 0.0098716338510372124 -0.004005483877073536 -0.010586403639965632 -0.0020218107451101153 -0.0018750014621638721 -0.0051846771166218844 0.0064034613198037417 0.0020282626870158325
leaf_weight=234 260 2956 244 530 340 432 732 534 630 922 458 1212
leaf_count=19 32 106 24 20 23 20 23 22 21 20 33 67
internal_value=0 0.000821184 0.0236077 -0.00322872 -0.000787055 0.00617569 -0.00300408 0.00277854 -0.00670158 -0.00126487 -0.000450698 -0.00124994
internal_weight=0 6026 478 3458 2928 692 2236 874 1362 5548 4626 4168
internal_count=430 269 43 161 141 52 89 45 44 226 206 173
is_linear=0
shrinkage=0.484407


Tree=44
num_leaves=13
num_cat=0
split_feature=5 8 6 5 6 5 6 9 9 6 9 4
split_gain=0.276214 1.15105 0.259934 0.139826 0.103241 0.337862 0.101366 0.0720671 0.0674438 0.0509711 0.0799452 0.043963
threshold=-0.73966669779825545 -0.15300982162528917 -1.0391430581101189 0.56136773153486319 0.18487404308475044 0.84916879149087887 0.24778884213467581 -0.22870709049027657 1.0000000180025095e-35 0.91652177982732452 0.29780647305699343 -0.95976582240048669
decision_type=2 2 2 2 2 2 2 2 2 2 2 2
left_child=1 6 3 -2 5 7 -1 -4 -8 10 11 -6
right_child=2 -3 4 -5 9 -7 8 -9 -10 -11 -12 -13
leaf_value=-0.0054596158573492672 -0.0032412501009811742 0.027785145833719684 0.017182237362534672 -0.012185472326362579 0.0029688003088727704 -0.0073283097149550629 0.0069518010441734493 0.0048085204443142435 -0.0013791381838409293 -0.0047622384845744051 -0.0047525694382752632 -0.00078711996164377413
leaf_weight=736 958 362 264 738 1066 324 356 236 528 824 840 2154
leaf_count=25 38 34 34 26 43 15 31 20 19 20 28 97
internal_value=0 0.00430613 -0.00208874 -0.00729448 -0.000507715 0.00440166 -0.0013727 0.0120079 0.00208965 -0.00136176 -0.000636738 0.000469826
internal_weight=0 1982 7404 1696 5708 824 1620 500 884 4884 4060 3220
internal_count=430 109 321 64 257 69 75 54 50 188 168 140
is_linear=0
shrinkage=0.484407


Tree=45
num_leaves=9
num_cat=0
split_feature=4 1 4 4 9 8 5 0
split_gain=0.18779 0.590073 0.635726 0.0895883 0.0762184 0.0532291 0.181906 0.0459563
threshold=1.5397636863858446 1.0000000180025095e-35 1.0565063743374312 0.89512359670231179 -0.6303772317531422 -0.47103612188981531 1.5156625227807157 -0.060200278938815695
decision_type=2 2 2 2 2 2 2 2
left_child=1 3 -3 4 -1 7 -7 -6
right_child=-2 2 -4 -5 5 6 -8 -9
leaf_value=-0.0065279282887371684 -0.0073051784144836365 0.030815784465372198 -0.00010802594586010989 0.0047367535708061773 -0.00046676155989228623 -0.00093961617546739419 -0.011466438357822146 0.0041946756440496115
leaf_weight=612 854 262 330 554 2874 2820 416 566
leaf_count=12 35 33 18 32 114 136 12 38
internal_value=0 0.000105966 0.014443 -0.00102952 -0.00148834 -0.000995508 -0.00239607 0.000328665
internal_weight=0 8434 592 7842 7288 6676 3236 3440
internal_count=430 395 51 344 312 300 148 152
is_linear=0
shrinkage=0.484407


Tree=46
num_leaves=10
num_cat=0
split_feature=7 0 5 4 4 6 3 5 9
split_gain=0.320763 0.181008 0.433068 0.0549367 0.0553484 0.0618356 0.11333 0.0382774 0.0404782
threshold=1.0000000180025095e-35 0.87973181847746673 0.56136773153486319 0.89512359670231179 -0.76320932142167142 0.60433972606768094 0.52471426542991406 0.75008753713811582 -0.4566820355313625
decision_type=2 2 2 2 2 2 2 2 2
left_child=1 3 -3 4 5 -1 -7 8 -6
right_child=-2 2 -4 -5 7 6 -8 -9 -10
leaf_value=-0.0011096352608354644 -0.0098917410998148689 0.016531653894603718 -0.0044057277400081632 0.0040216045729275715 -0.0040721623439869238 0.0093412518032234323 -0.0013854117207786443 0.0018240581052372735 -0.0010924106725988395
leaf_weight=1056 766 458 418 556 1584 456 422 642 3322
leaf_count=38 40 33 13 33 57 32 15 27 142
internal_value=0 0.000242628 0.00672627 -0.000486561 -0.000838909 0.00137347 0.00430629 -0.00161568 -0.00207711
internal_weight=0 8914 876 8038 7482 1934 878 5548 4906
internal_count=430 390 46 344 311 85 47 226 199
is_linear=0
shrinkage=0.484407


Tree=47
num_leaves=12
num_cat=0
split_feature=6 8 3 6 9 5 3 0 3 5 5
split_gain=0.304696 0.434498 0.231041 0.102383 0.0739936 0.0418383 0.105165 0.0307037 0.0466054 0.0798859 0.0499462
threshold=-0.083377141619416742 -0.15300982162528917 0.51193564886965226 -1.3368723949795789 1.0000000180025095e-35 -0.9691557096866783 0.53536311256346558 0.18937442006986474 0.2195183065823251 -0.10855401424613069 -0.077155907627387069
decision_type=2 2 2 2 2 2 2 2 2 2 2
left_child=2 5 3 -1 -4 6 -2 8 9 -7 -10
right_child=1 -3 4 -5 -6 7 -8 -9 10 -11 -12
leaf_value=-0.0031454466541656081 0.0069450235975516 0.013760298890676405 -0.0029350069014518151 -0.012435286957414683 0.0047806501017304149 -0.0057298845952308995 -0.0029105340436273172 -0.0027029174428112777 0.0055830014740036425 0.00043247714022397231 7.3834994155144259e-05
leaf_weight=452 576 560 758 852 430 642 410 1142 576 1818 1072
leaf_count=30 43 35 36 34 19 27 9 32 43 76 46
internal_value=0 0.00122108 -0.00500734 -0.00937726 -8.03559e-05 2.82944e-05 0.00287307 -0.000518049 0.000102836 -0.00122436 0.00207635
internal_weight=0 6796 2492 1304 1188 6236 986 5250 4108 2460 1648
internal_count=430 311 119 64 55 276 52 224 192 103 89
is_linear=0
shrinkage=0.484407


Tree=48
num_leaves=13
num_cat=0
split_feature=3 5 0 2 5 5 8 5 6 0 0 9
split_gain=0.273256 0.260822 1.01578 0.213379 0.184134 0.394829 0.215085 0.139422 0.103058 0.136385 0.0330071 0.0875883
threshold=0.022088680726277926 -0.73966669779825545 0.39062540547378127 1.0000000180025095e-35 0.84916879149087887 1.0000000180025095e-35 -0.15300982162528917 0.50954474484087076 0.24778884213467581 -0.43609486087924793 -0.12984903215054053 -0.22870709049027657
decision_type=2 2 2 2 2 2 2 2 2 2 2 2
left_child=4 2 -2 8 5 6 -1 -7 9 -3 11 -10
right_child=1 3 -4 -5 -6 7 -8 -9 10 -11 -12 -13
leaf_value=-0.00052532477475946641 -0.0015489534145687899 -0.000873137236561386 0.02510971119886465 -0.0064599757964019858 -0.0094110471759143305 0.016849519926605706 -0.011836149401284034 0.00058576172094674086 -0.00051845736146470783 0.012481404703164122 -0.0017341989849138661 0.0069093429861029109
leaf_weight=960 1068 318 454 1050 1032 270 644 216 1470 364 1370 464
leaf_count=39 44 12 31 35 26 37 28 10 49 35 48 36
internal_value=0 0.00126488 0.00675116 -0.000423282 -0.00421747 -0.00154365 -0.00521722 0.0101291 0.00120306 0.0064797 5.83792e-05 0.00134169
internal_weight=0 6558 1522 5036 3122 2090 1604 486 3986 682 3304 1934
internal_count=430 290 75 215 140 114 67 47 180 47 133 85
is_linear=0
shrinkage=0.484407


Tree=49
num_leaves=13
num_cat=0
split_feature=4 1 5 8 0 9 5 5 3 5 0 9
split_gain=0.16145 0.375442 1.34913 0.116441 0.182868 0.169027 0.0900829 0.0821353 0.0764119 0.142663 0.0492564 0.0949491
threshold=1.5397636863858446 1.0000000180025095e-35 0.84916879149087887 -0.46974045918503388 -0.060200278938815695 1.0000000180025095e-35 0.38817692108084662 1.339607574892834 -0.37788201760992063 -0.077155907627387069 -0.54193748865324554 -0.4566820355313625
decision_type=2 2 2 2 2 2 2 2 2 2 2 2
left_child=1 3 -3 4 8 -6 10 -8 -1 -10 11 -5
right_child=-2 2 -4 6 5 -7 7 -9 9 -11 -12 -13
leaf_value=-0.0045369524869754065 -0.006646671550935606 0.029514876532785859 -0.011777161701025655 -0.0066040050779648616 0.017080519991673968 0.00081930566397031318 0.0043053794000841705 -0.0032504563307384328 0.006781420025893839 -0.0011295041914430599 -0.0057157906471666763 0.0043149558764051608
leaf_weight=750 854 372 318 320 264 314 652 634 684 2082 1776 366
leaf_count=32 35 39 12 13 34 10 32 23 48 61 55 36
internal_value=0 0.000221185 0.010792 -0.000747781 0.00103315 0.00877497 -0.00268841 0.000583156 -0.000304364 0.00087817 -0.00438739 -0.000830058
internal_weight=0 8532 690 7842 4094 578 3748 1286 3516 2766 2462 686
internal_count=430 395 51 344 185 44 159 55 141 109 104 49
is_linear=0
shrinkage=0.484407


Tree=50
num_leaves=13
num_cat=0
split_feature=3 0 8 9 4 4 5 3 6 0 5 5
split_gain=0.132635 0.2901 0.212478 0.238152 0.133706 0.182259 0.0964533 0.146386 0.0848731 0.0433375 0.0325712 0.0118571
threshold=0.022088680726277926 0.87973181847746673 -0.10141888847126605 -0.4566820355313625 -1.7816920619840011 -0.87706288649679409 -0.68497957367039797 0.86994988949965757 0.24778884213467581 -1.0419998853082133 -0.63141125322764402 0.50954474484087076
decision_type=2 2 2 2 2 2 2 2 2 2 2 2
left_child=2 4 9 -4 -2 -6 8 -8 -7 10 -1 -12
right_child=1 -3 3 -5 5 6 7 -9 -10 -11 11 -13
leaf_value=-0.0049115580123596722 -0.011810702702222802 0.0093197571761415906 0.00014698090374473124 -0.014310235937889944 0.0073119085418752823 -0.0089745851969791086 0.0023028574723565538 -0.0050472293603888068 -0.001616739491308415 0.0034350961148619246 0.0017823675105572557 -0.0016553716275652971
leaf_weight=422 204 766 442 636 662 518 2506 816 1184 548 458 420
leaf_count=15 4 40 25 24 37 14 126 16 53 29 33 14
internal_value=0 0.000652203 -0.00324302 -0.00853976 -0.000517615 -4.61911e-05 -0.00105843 0.000462845 -0.00398782 -5.37504e-05 -0.0015806 0.000124793
internal_weight=0 6656 2926 1078 5890 5686 5024 3322 1702 1848 1300 878
internal_count=430 290 140 49 250 246 209 142 67 91 62 47
is_linear=0
shrinkage=0.484407


Tree=51
num_leaves=12
num_cat=0
split_feature=5 8 0 0 4 5 4 0 6 3 5
split_gain=0.1683 0.887879 0.248308 0.125089 0.118059 0.0754445 0.0407808 0.0443312 0.0535829 0.0375393 0.0252766
threshold=-0.73966669779825545 -0.15300982162528917 0.87973181847746673 0.39062540547378127 0.45034218529469583 0.43516667585519225 0.10819017622790102 -0.24332171996739541 0.24778884213467581 0.17372826390805302 1.5414397596854996
decision_type=2 2 2 2 2 2 2 2 2 2 2
left_child=1 3 4 9 6 -4 7 8 -2 -1 -9
right_child=2 -3 5 -5 -6 -7 -8 10 -10 -11 -12
leaf_value=0.0036717508482729841 -0.0018006333534615548 0.023983866657992646 -0.0097064614950090299 -0.0085656668737754491 0.0063516928873855912 -0.0023952830263985155 -0.0048585366721806749 -0.0022762037121229865 0.0032965347027501921 -0.0018271694503142182 0.0013411034591028004
leaf_weight=558 764 362 940 420 552 550 516 2444 1208 544 528
leaf_count=34 39 34 29 14 31 30 13 95 65 27 19
internal_value=0 0.00348803 -0.00159617 -0.00177529 -0.000193833 -0.00712307 -0.000891047 -0.000445878 0.00131879 0.000972213 -0.00162222
internal_weight=0 1884 7502 1522 6012 1490 5460 4944 1972 1102 2972
internal_count=430 109 321 75 262 59 231 218 104 61 114
is_linear=0
shrinkage=0.484407


Tree=52
num_leaves=11
num_cat=0
split_feature=9 4 4 2 4 4 5 4 6 7
split_gain=0.169359 0.214905 0.112166 0.0546233 0.242807 0.142969 0.0961865 0.229916 0.156867 0.0851216
threshold=0.41722192045946699 1.5397636863858446 -0.81874152131495403 1.0000000180025095e-35 0.84098732948490962 0.86596291411139192 -0.68497957367039797 0.08046052713449843 0.060813134114816848 1.0000000180025095e-35
decision_type=2 2 2 2 2 2 2 2 2 2
left_child=1 3 -2 4 6 -5 7 -1 -8 -6
right_child=2 -3 -4 5 9 -7 8 -9 -10 -11
leaf_value=0.012655969423423497 -0.0015608476835512453 -0.0083983432749423336 0.0096204327033141673 0.0018506153220090092 0.015703179861587424 -0.0090911492734133074 -0.0068334634188694917 -0.0021103835028466193 -0.00022251407195928794 0.0037203668537028741
leaf_weight=362 310 846 566 552 244 516 1056 642 3754 342
leaf_count=34 8 31 38 31 24 13 38 27 162 24
internal_value=0 -0.00122944 0.0057358 -0.000383209 0.000156303 -0.0035367 -0.000808056 0.00343043 -0.00171208 0.0092866
internal_weight=0 8314 876 7468 6400 1068 5814 1004 4810 586
internal_count=430 384 46 353 309 44 261 61 200 48
is_linear=0
shrinkage=0.484407


Tree=53
num_leaves=11
num_cat=0
split_feature=0 3 4 5 4 6 6 9 6 5
split_gain=0.0837641 0.602173 0.177238 0.142405 0.0637316 0.058906 0.0441492 0.037831 0.0331944 0.0520157
threshold=0.87973181847746673 0.12857715206179407 1.3348288892885456 -0.65521044521716487 0.45034218529469583 0.62960671363793208 0.91652177982732452 -0.22870709049027657 0.69754122088514736 0.050879986095853647
decision_type=2 2 2 2 2 2 2 2 2 2
left_child=3 2 -2 5 6 7 8 -1 9 -5
right_child=1 -3 -4 4 -6 -7 -8 -9 -10 -11
leaf_value=-0.0026636350801886835 0.00078097912667253174 0.014626850557589709 -0.013546522496595175 0.0029540696200019761 0.0048262201500646005 0.00016520507542233908 -0.0042210868946647526 -0.0069397917338818605 0.0036927379340467885 -0.0012405799898245944
leaf_weight=960 446 570 332 892 650 658 528 1134 568 2746
leaf_count=39 27 40 19 54 31 35 19 28 39 99
internal_value=0 0.00307789 -0.0056142 -0.00100178 0.000448241 -0.00381511 -0.000178995 -0.00505485 0.000353916 -0.000192047
internal_weight=0 1348 778 8136 5384 2752 4734 2094 4206 3638
internal_count=430 86 46 344 242 102 211 67 192 153
is_linear=0
shrinkage=0.484407


Tree=54
num_leaves=13
num_cat=0
split_feature=5 8 0 3 3 6 9 6 6 6 5 9
split_gain=0.0761026 0.370109 0.14184 0.141144 0.0606625 0.0497437 0.0318564 0.231949 0.0762947 0.121464 0.0221214 0.0220714
threshold=-0.73966669779825545 -0.15300982162528917 0.87973181847746673 0.12857715206179407 0.17372826390805302 1.0000000180025095e-35 -0.57066950805190542 0.64700724574464497 0.62960671363793208 0.91652177982732452 -0.24596100763579801 1.0000000180025095e-35
decision_type=2 2 2 2 2 2 2 2 2 2 2 2
left_child=1 4 5 -4 -1 -2 7 -7 10 -10 -8 -6
right_child=2 -3 3 -5 11 6 8 -9 9 -11 -12 -13
leaf_value=0.0028045828145890094 0.0041149433786357437 0.012525231256112939 0.00069902865301918764 -0.00891087769656565 -0.00090158728161243229 0.0074229524732097093 -0.0044155077021707624 -0.0057901357757860327 0.0067649091890038451 -0.003112733971264063 -0.0015365412522359992 -0.0048583713049028636
leaf_weight=558 562 558 562 928 640 672 938 528 590 522 2004 716
leaf_count=34 36 34 36 23 26 42 28 19 50 16 71 15
internal_value=0 0.00191479 -0.0011775 -0.00534049 -0.00132865 -8.54732e-05 -0.000559295 0.00160042 -0.00120899 0.00216088 -0.0024962 -0.00306343
internal_weight=0 2472 7306 1490 1914 5816 5254 1200 4054 1112 2942 1356
internal_count=430 109 321 59 75 262 226 61 165 66 99 41
is_linear=0
shrinkage=0.484407


Tree=55
num_leaves=10
num_cat=0
split_feature=9 4 4 9 2 5 9 3 4
split_gain=0.100407 0.139042 0.0985169 0.0767035 0.0915446 0.137501 0.258978 0.12872 0.112711
threshold=0.41722192045946699 -0.81874152131495403 1.5397636863858446 -0.6303772317531422 1.0000000180025095e-35 -0.95573006546543671 -0.4566820355313625 0.51193564886965226 0.77996590110020658
decision_type=2 2 2 2 2 2 2 2 2
left_child=2 -2 3 -1 5 6 -5 -7 -6
right_child=1 -3 -4 4 8 7 -8 -9 -10
leaf_value=-0.0053739140786354311 -0.0035036679384941767 0.0088372485975056481 -0.0057301533859550067 -0.003687809876929037 0.0018369619481232518 -0.0011098489105731094 0.013589773742671243 0.0051260487546749833 -0.0080150366922107866
leaf_weight=614 310 566 846 322 448 4480 470 906 620
leaf_count=13 8 38 31 14 28 182 39 61 16
internal_value=0 0.00448791 -0.000863079 -0.000316509 0.000132328 0.000854791 0.00668163 -3.45171e-05 -0.00393904
internal_weight=0 876 8706 7860 7246 6178 792 5386 1068
internal_count=430 46 384 353 340 296 53 243 44
is_linear=0
shrinkage=0.484407


Tree=56
num_leaves=13
num_cat=0
split_feature=0 3 9 4 5 4 9 9 3 4 5 4
split_gain=0.114791 0.448882 0.196815 0.0954024 0.100255 0.0471847 0.040601 0.0625667 0.0357556 0.028082 0.102465 0.0806176
threshold=0.87973181847746673 0.12857715206179407 -0.4566820355313625 0.89512359670231179 -0.68497957367039797 0.28315427177342128 0.90031168495129199 -0.4566820355313625 0.86994988949965757 -0.64423643651392071 0.98476779812541893 -0.47448346294992627
decision_type=2 2 2 2 2 2 2 2 2 2 2 2
left_child=3 2 -2 4 5 6 7 -1 9 10 -6 -11
right_child=1 -3 -4 -5 8 -7 -8 -9 -10 11 -12 -13
leaf_value=-0.0048795534281160322 0.0028123728777922183 0.013616787366618172 -0.01217569381119264 0.0048760020524830118 0.0065406220216552308 -0.0074171053358737336 -0.0056179852539455935 0.0027148143644104726 -0.0038169595416293915 -0.0056942343440995451 -0.00077585958930872297 0.00028308521011729675
leaf_weight=420 442 570 336 556 594 716 610 550 628 634 1562 2552
leaf_count=14 25 40 21 33 52 15 11 30 20 23 46 100
internal_value=0 0.0036593 -0.003873 -0.00108987 -0.00150991 -0.00420708 -0.00262613 -0.000613053 -0.000453676 -3.56362e-05 0.00130121 -0.000947856
internal_weight=0 1348 778 8822 8266 2296 1580 970 5970 5342 2156 3186
internal_count=430 86 46 344 311 70 55 44 241 221 98 123
is_linear=0
shrinkage=0.484407


Tree=57
num_leaves=8
num_cat=0
split_feature=4 4 9 4 4 4 1
split_gain=0.331741 0.151649 0.110315 0.114993 0.0566693 0.0469014 0.049736
threshold=-2.0442462078303953 -1.7816920619840011 0.41722192045946699 1.5397636863858446 -0.36032479073288026 -1.5232420122059585 1.0000000180025095e-35
decision_type=2 2 2 2 2 2 2
left_child=-1 -2 3 5 -4 -3 -7
right_child=1 2 4 -5 -6 6 -8
leaf_value=0.039618945548334436 -0.012795146585374699 0.0085501955385808327 0.0082398779336589935 -0.0061985072144034956 0.0011229800755995787 -0.00090719481541076761 0.0030860613081458836
leaf_weight=15.999999999999998 204 104 438 846 632 7346 780
leaf_count=8 4 3 23 31 22 292 47
internal_value=0 -0.000659278 -0.000374421 -0.000928216 0.00420237 -0.00036301 -0.000511803
internal_weight=0 10350 10146 9076 1070 8230 8126
internal_count=430 422 418 373 45 342 339
is_linear=0
shrinkage=0.484407


Tree=58
num_leaves=11
num_cat=0
split_feature=5 8 0 3 3 4 9 9 3 6
split_gain=0.0488077 0.393085 0.101402 0.112073 0.066476 0.0589433 0.0392419 0.0432442 0.0566034 0.00744021
threshold=-0.73966669779825545 -0.15300982162528917 0.87973181847746673 0.12857715206179407 0.17372826390805302 0.45034218529469583 0.29780647305699343 1.0000000180025095e-35 0.54558600581167527 0.57513108843647032
decision_type=2 2 2 2 2 2 2 2 2 2
left_child=1 4 5 -4 -1 6 7 8 -2 -6
right_child=2 -3 3 -5 9 -7 -8 -9 -10 -11
leaf_value=0.0027565170350215343 0.00048498136457190115 0.012576125435366502 0.00097069296751448476 -0.0075751457927766561 -0.0044511448494941024 0.0042704769228338454 -0.0031279338691195349 0.00362925817840369 -0.0039343966053135447 -0.002059937248246416
leaf_weight=558 3002 558 562 928 724 650 1044 668 844 730
leaf_count=34 129 34 36 23 19 31 32 40 30 22
internal_value=0 0.00157626 -0.000848786 -0.00439187 -0.0016188 1.80217e-05 -0.000498962 0.000124372 -0.000506478 -0.00332904
internal_weight=0 2570 7698 1490 2012 6208 5558 4514 3846 1454
internal_count=430 109 321 59 75 262 231 199 159 41
is_linear=0
shrinkage=0.484407


Tree=59
num_leaves=11
num_cat=0
split_feature=6 0 5 8 4 4 5 3 4 6
split_gain=0.0870974 0.169491 0.529007 0.0567936 0.0805197 0.0474179 0.0318017 0.0642635 0.0234384 0.0199086
threshold=-2.3307072394094597 0.87973181847746673 -0.36670230133216397 -0.17892307572091723 0.50779953025161972 0.50779953025161972 0.78723181948355092 0.15243056964094978 -0.42788037206851154 0.51435556100082613
decision_type=2 2 2 2 2 2 2 2 2 2
left_child=-1 3 -3 4 6 8 9 -8 -5 -2
right_child=1 2 -4 5 -6 -7 7 -9 -10 -11
leaf_value=-0.0066873866027581264 -0.0022642185766719647 0.020120015630327229 -0.0023184639157851255 -0.0037717780119714672 0.0054295985663804485 -0.0063760474385343132 -0.0010213799066321777 0.0053982664274360957 0.00073947985681245782 -0.00024519083348737542
leaf_weight=432 1984 356 658 416 558 616 936 558 652 2710
leaf_count=20 61 31 35 12 34 14 27 34 32 130
internal_value=0 0.000107894 0.0059251 -0.000610345 2.0817e-05 -0.00309843 -0.000490641 0.00143205 -0.00106616 -0.00111063
internal_weight=0 9444 1014 8430 6746 1684 6188 1494 1068 4694
internal_count=430 410 66 344 286 58 252 61 44 191
is_linear=0
shrinkage=0.484407


Tree=60
num_leaves=13
num_cat=0
split_feature=6 6 2 6 5 0 3 6 0 9 6 0
split_gain=0.090029 0.314286 0.240725 0.226575 0.0870105 0.31418 0.521529 0.134968 0.0423554 0.0383159 0.0910351 0.0415462
threshold=-0.81847803332992508 -3.0070202733731834 1.0000000180025095e-35 -0.083377141619416742 -0.9691557096866783 -1.0419998853082133 0.53536311256346558 0.060813134114816848 0.87973181847746673 -0.57066950805190542 0.64700724574464497 0.39062540547378127
decision_type=2 2 2 2 2 2 2 2 2 2 2 2
left_child=1 -1 -3 -2 5 -5 -7 -6 -4 10 -9 -11
right_child=3 2 8 4 7 6 -8 9 -10 11 -12 -13
leaf_value=-0.0081207900190222882 -0.010145499859960019 0.016548051212662455 -0.0012414485117209439 -0.0055806845423495895 -0.0069246960237409 0.021832305129099769 -0.0025208355242081508 0.0059815545566237307 0.005316602212245029 -0.00011129799710944934 -0.002312960528019865 -0.0046730601426009802
leaf_weight=412 538 378 422 520 730 370 410 670 448 3346 530 514
leaf_count=10 24 42 15 15 22 38 9 41 28 154 20 12
internal_value=0 0.00304832 0.00685612 -0.000855485 -0.000106235 0.00342401 0.00942464 -0.000915405 0.00219198 -7.8718e-06 0.00234405 -0.000755355
internal_weight=0 1660 1248 7628 7090 1300 780 5790 870 5060 1200 3860
internal_count=430 95 85 335 311 62 47 249 43 227 61 166
is_linear=0
shrinkage=0.484407


Tree=61
num_leaves=11
num_cat=0
split_feature=5 5 0 3 0 3 8 9 6 3
split_gain=0.0757239 0.142557 0.0985246 0.1156 0.0826719 0.064238 0.0760891 0.0234354 0.0771973 0.0515066
threshold=-1.0899865076778525 -0.73966669779825545 0.87973181847746673 0.12857715206179407 0.39062540547378127 0.51193564886965226 -0.45687806215211302 -0.22870709049027657 0.60433972606768094 0.54558600581167527
decision_type=2 2 2 2 2 2 2 2 2 2
left_child=5 -2 4 -4 7 6 -1 9 -9 -3
right_child=1 2 3 -5 -6 -7 -8 8 -10 -11
leaf_value=5.9792466673336432e-06 0.0070532527071486975 0.00034088060357134487 0.001393153622129499 -0.0074519199536430131 0.0065547663256835852 0.0015158062532080389 -0.0071170135717910366 -0.00061900394460190399 0.0065567729545964876 -0.003912330995624924
leaf_weight=542 642 2780 562 830 464 530 954 1162 468 844
leaf_count=26 27 116 36 23 36 20 36 42 38 30
internal_value=0 0.000320298 -0.000315097 -0.00392197 0.000578001 -0.00298321 -0.00458304 1.12667e-05 0.00152143 -0.000672227
internal_weight=0 7752 7110 1392 5718 2026 1496 5254 1630 3624
internal_count=430 348 321 59 262 82 62 226 80 146
is_linear=0
shrinkage=0.484407


Tree=62
num_leaves=13
num_cat=0
split_feature=6 6 5 9 4 5 8 3 5 4 5 9
split_gain=0.0871412 0.121553 0.165633 0.0825571 0.0914287 0.394544 0.0626564 0.0528301 0.117579 0.0522023 0.0352994 0.0263091
threshold=-0.81847803332992508 -3.0070202733731834 -0.36670230133216397 2.2735893300797385 -0.038585259479729399 -0.73966669779825545 -0.35819567905521671 0.15243056964094978 -0.10855401424613069 -1.0290224435539215 0.56136773153486319 -0.22870709049027657
decision_type=2 2 2 2 2 2 2 2 2 2 2 2
left_child=1 -1 -3 4 5 -2 11 8 -7 -9 -4 -6
right_child=3 2 10 -5 6 7 -8 9 -10 -11 -12 -13
leaf_value=-0.0041515303087756462 0.015936199611180007 0.01360527746476845 0.0043917117993680027 -0.0049861825732791252 0.00018417256071967062 -0.0074729570171142264 -0.0072135288256532674 0.0065872784077662038 6.8408369369607992e-05 0.00021465260944180821 -0.0014946796320717847 -0.003408285006019474
leaf_weight=412 342 352 450 1028 1064 628 548 340 1816 1626 446 824
leaf_count=10 24 29 29 24 42 20 29 23 75 78 27 20
internal_value=0 0.00282143 0.00517896 -0.000994271 -0.000402068 0.000833371 -0.0027962 -0.000442299 -0.0019367 0.00141092 0.00149899 -0.00140856
internal_weight=0 1660 1248 8216 7188 4752 2436 4410 2444 1966 896 1888
internal_count=430 95 85 335 311 220 91 196 95 101 56 62
is_linear=0
shrinkage=0.484407


Tree=63
num_leaves=13
num_cat=0
split_feature=0 4 5 0 4 5 4 6 3 9 4 3
split_gain=0.0854292 0.305033 0.141341 0.0822691 0.0763336 0.0275244 0.0212618 0.0344748 0.0570344 0.029674 0.0187821 0.0450599
threshold=0.87973181847746673 1.0565063743374312 -0.73966669779825545 -0.24332171996739541 0.45034218529469583 1.0000000180025095e-35 -0.47448346294992627 0.60433972606768094 0.52471426542991406 1.0000000180025095e-35 -0.084324330136228129 0.29171749014780474
decision_type=2 2 2 2 2 2 2 2 2 2 2 2
left_child=2 -2 3 -1 6 -3 7 9 -9 -4 11 -8
right_child=1 5 4 -5 -6 -7 10 8 -10 -11 -12 -13
leaf_value=0.00012447063076954646 0.014449854199969529 0.001198451680124407 -0.00051299866857379796 -0.0059108224787735178 0.0061844027890038452 -0.0035682195276399574 0.0052536834581689605 0.0044842535142642663 -0.0020097233936963175 -0.004367133615567443 -0.00076725275268923619 -0.00035074254087457378
leaf_weight=766 370 552 1072 1652 454 524 568 562 650 826 836 750
leaf_count=40 38 31 46 42 31 17 39 36 31 21 26 32
internal_value=0 0.00306267 -0.000938811 -0.00401767 0.000376357 -0.00114866 -0.000156938 -0.000965054 0.00103033 -0.00224117 0.00100158 0.00212365
internal_weight=0 1446 8136 2418 5718 1076 5264 3110 1212 1898 2154 1318
internal_count=430 86 344 82 262 48 231 134 67 67 97 71
is_linear=0
shrinkage=0.484407


Tree=64
num_leaves=10
num_cat=0
split_feature=9 8 4 9 5 9 8 6 3
split_gain=0.0911166 0.0937054 0.0883096 0.0776479 0.0994383 0.178735 0.0929369 0.226112 0.0730116
threshold=0.41722192045946699 -0.35819567905521671 1.7968097032983985 -0.6303772317531422 -0.9691557096866783 -0.4566820355313625 1.0000000180025095e-35 -1.3368723949795789 0.51193564886965226
decision_type=2 2 2 2 2 2 2 2 2
left_child=2 -2 3 -1 5 -5 8 -8 -6
right_child=1 -3 -4 4 6 -7 7 -9 -10
leaf_value=-0.0051576219768699255 -0.00047477773002905474 0.0080432043205685266 -0.0066925362014786192 -0.0029543766874263874 -0.00064596255261786285 0.009861035760238725 0.0026740338873150254 -0.0090958975213755299 0.0039490159106854049
leaf_weight=712 620 550 540 422 3556 568 660 840 1016
leaf_count=13 16 30 25 15 161 39 36 28 67
internal_value=0 0.00362797 -0.00088227 -0.00045125 4.28793e-05 0.00446601 -0.000696143 -0.00396222 0.000393109
internal_weight=0 1170 8314 7774 7062 990 6072 1500 4572
internal_count=430 46 384 359 346 54 292 64 228
is_linear=0
shrinkage=0.484407


Tree=65
num_leaves=13
num_cat=0
split_feature=0 3 9 5 0 9 4 9 9 3 9 8
split_gain=0.133424 0.325714 0.264355 0.0730596 0.0733608 0.0946543 0.0585297 0.0614213 0.0569479 0.0419124 0.105898 0.0361475
threshold=0.87973181847746673 0.12857715206179407 -0.4566820355313625 -0.36670230133216397 -0.060200278938815695 -0.4566820355313625 -1.4091913425170268 -0.57066950805190542 -0.22870709049027657 0.18501604186961776 -0.4566820355313625 -0.17892307572091723
decision_type=2 2 2 2 2 2 2 2 2 2 2 2
left_child=3 2 -2 9 6 -6 -5 -8 -9 10 -1 -11
right_child=1 -3 -4 4 5 -7 7 8 -10 11 -12 -13
leaf_value=-0.0043332909269148895 0.005279384149105712 0.012550185939613573 -0.012037154585914483 -0.0044429590440650578 -0.0022166698172543619 0.0077919707367918581 0.0047241636607642818 -0.0030107622194744436 0.0022555333351263413 -0.0023406767771901398 0.0045196997344687942 -0.0061688148383167571
leaf_weight=630 442 570 336 726 330 570 562 1162 776 2074 576 828
leaf_count=21 25 40 21 20 18 40 36 42 45 57 43 22
internal_value=0 0.00407849 -0.00236613 -0.00106617 0.000371267 0.00415992 -0.000712821 0.000408568 -0.000893797 -0.00250436 -8.80732e-05 -0.00349258
internal_weight=0 1348 778 8234 4126 900 3226 2500 1938 4108 1206 2902
internal_count=430 86 46 344 201 58 143 123 87 143 64 79
is_linear=0
shrinkage=0.484407


Tree=66
num_leaves=9
num_cat=0
split_feature=9 3 4 4 4 0 4 4
split_gain=0.0546808 0.0786869 0.11101 0.0791224 0.13036 0.130328 0.0872153 0.0122414
threshold=-0.6303772317531422 -0.25009585200730128 -1.7816920619840011 -1.1308418269338838 -0.73471555444185854 0.87973181847746673 -0.87706288649679409 -0.36032479073288026
decision_type=2 2 2 2 2 2 2 2
left_child=-1 7 -3 -4 6 -6 -5 -2
right_child=1 2 3 4 5 -7 -8 -9
leaf_value=-0.0043435989613385458 0.0019514888006447069 -0.010920719353914995 0.0067961655007397143 -0.00059743732538437193 -0.00088092635240115294 0.0042766628728795495 -0.0089834928064769486 0.0051971946770928501
leaf_weight=712 652 204 324 536 5212 1440 626 562
leaf_count=13 32 4 15 23 205 83 19 36
internal_value=0 -3.1266e-05 -0.000566779 -0.000263794 -0.000584695 0.000249063 -0.00524534 0.00355879
internal_weight=0 9556 8342 8138 7814 6652 1162 1214
internal_count=430 417 349 345 330 288 42 68
is_linear=0
shrinkage=0.484407


Tree=67
num_leaves=9
num_cat=0
split_feature=6 1 4 3 5 5 9 4
split_gain=0.121835 0.13508 0.225305 0.0775881 0.0440841 0.0316211 0.0581191 0.0250983
threshold=-3.0070202733731834 1.0000000180025095e-35 -2.0442462078303953 0.12857715206179407 1.5156625227807157 0.12816694466280101 -0.22870709049027657 1.0021001007997425
decision_type=2 2 2 2 2 2 2 2
left_child=-1 2 -2 -3 5 7 -7 -4
right_child=1 3 4 -5 -6 6 -8 -9
leaf_value=-0.008090467324422498 0.032666058489190609 0.0022156350384333707 -0.0012887441059982357 0.013476722308619897 -0.003854699397926026 -0.00030775942172475788 0.0046196113534236697 0.0015143471020711494
leaf_weight=412 15.999999999999998 366 4672 226 820 1828 774 860
leaf_count=10 8 36 180 15 18 81 44 38
internal_value=0 0.000115028 -0.000361955 0.00700664 -0.000539109 -0.000189561 0.00119212 -0.000844656
internal_weight=0 9562 8970 592 8954 8134 2602 5532
internal_count=430 420 369 51 361 343 125 218
is_linear=0
shrinkage=0.484407


Tree=68
num_leaves=13
num_cat=0
split_feature=9 3 8 6 6 5 3 4 8 5 9 3
split_gain=0.0853393 0.225725 0.0783686 0.115301 0.115742 0.0573278 0.057781 0.0586639 0.0386752 0.0434502 0.0389549 0.0369118
threshold=0.41722192045946699 0.52471426542991406 -0.10141888847126605 -1.3368723949795789 -3.0070202733731834 -0.73966669779825545 0.29171749014780474 -0.47448346294992627 -0.4859951367541096 0.050879986095853647 -0.22870709049027657 -0.7606015835897656
decision_type=2 2 2 2 2 2 2 2 2 2 2 2
left_child=2 -2 5 4 -4 -1 7 11 9 -8 -10 -7
right_child=1 -3 3 -5 -6 6 8 -9 10 -11 -12 -13
leaf_value=-0.0019187276274427077 0.011448252987294287 -0.0029054795224413865 -0.004455504252133125 -0.0057885025065456935 0.0063233607935608586 0.00067473486524523806 0.0047950992400169496 0.0021437568390584995 0.0094367427045607688 -0.0015106818226094387 0.0019840035506875696 -0.0039941652018642476
leaf_weight=2002 466 508 412 1370 462 650 436 1400 358 538 330 944
leaf_count=70 37 9 10 48 35 31 22 63 32 24 18 31
internal_value=0 0.00409702 -0.000608302 -0.00306246 0.00125171 0.000227872 0.00116018 -0.000114127 0.00342114 0.00136365 0.00612664 -0.00210751
internal_weight=0 974 8902 2244 874 6658 4656 2994 1662 974 688 1594
internal_count=430 46 384 93 45 291 221 125 96 46 50 62
is_linear=0
shrinkage=0.484407


Tree=69
num_leaves=11
num_cat=0
split_feature=4 2 9 4 9 9 8 8 9 5
split_gain=0.0530189 0.094465 0.165891 0.0744818 0.0552822 0.100311 0.190926 0.0772406 0.0270093 0.0284775
threshold=0.84098732948490962 2.4423137506114272 -0.4566820355313625 1.5397636863858446 0.90031168495129199 1.0000000180025095e-35 -0.35819567905521671 1.0000000180025095e-35 -0.6303772317531422 0.75008753713811582
decision_type=2 2 2 2 2 2 2 2 2 2
left_child=4 2 -2 -4 5 7 -7 8 -1 -10
right_child=1 -3 3 -5 -6 6 -8 -9 9 -11
leaf_value=-0.0036713952091983696 0.011072695975449739 -0.004295745360319278 0.0041683815770350869 -0.0036275429372679452 -0.0036026090575590852 -0.001037774550141085 0.011203412307578549 -0.0059793615824207079 -0.00068751618193272192 0.0022058449506096194
leaf_weight=514 462 412 554 532 1346 760 454 638 3712 982
leaf_count=12 35 10 32 21 36 37 31 25 141 50
internal_value=0 0.00198235 0.00371408 0.000344549 -0.000795549 -0.000244819 0.00370199 -0.00108219 -0.000446996 -6.88619e-05
internal_weight=0 1960 1548 1086 8406 7060 1214 5846 5208 4694
internal_count=430 98 88 53 332 296 68 228 203 191
is_linear=0
shrinkage=0.484407


Tree=70
num_leaves=13
num_cat=0
split_feature=5 6 5 8 6 6 8 9 4 4 3 6
split_gain=0.0469231 0.194872 0.071072 0.057788 0.0471244 0.0740214 0.0579666 0.119709 0.0394518 0.0379518 0.0354438 0.0181479
threshold=-0.9691557096866783 0.060813134114816848 -0.10855401424613069 -0.47904567315573671 -1.3368723949795789 -1.0391430581101189 -0.4859951367541096 -0.22870709049027657 0.45034218529469583 -1.0984410684995283 0.39373344568722934 0.55365414900175669
decision_type=2 2 2 2 2 2 2 2 2 2 2 2
left_child=1 -1 3 -2 -4 -6 9 -8 10 -7 -5 -3
right_child=2 11 4 8 5 6 7 -9 -10 -11 -12 -13
leaf_value=0.0092965433236765049 0.0019101200817925844 -0.002773016523752427 0.0050046650447222304 -0.0065011522141437033 -0.0047684318464280163 -0.0028289015214533141 0.010394098876710875 -0.00024770310775279334 -0.0006876566748393202 0.00098051833414172416 -0.0019915584896474229 0.00055773602971228176
leaf_weight=556 550 730 446 1052 632 942 370 638 856 1624 734 746
leaf_count=33 30 22 27 36 22 30 38 25 36 77 24 30
internal_value=0 0.00183542 -0.000758767 -0.00250753 0.000447676 -6.71675e-05 0.000796118 0.00384824 -0.00344343 -0.000431227 -0.00472229 -0.00110595
internal_weight=0 2032 7844 3192 4652 4206 3574 1008 2642 2566 1786 1476
internal_count=430 85 345 126 219 192 170 63 96 107 60 52
is_linear=0
shrinkage=0.484407


Tree=71
num_leaves=10
num_cat=0
split_feature=9 4 4 5 8 5 2 4 6
split_gain=0.0601651 0.0911805 0.0489722 0.0408323 0.0988107 0.0375789 0.0506682 0.110967 0.0446714
threshold=0.41722192045946699 1.7968097032983985 -0.5554853590358152 -0.9691557096866783 -0.54135527050386045 -0.52843656205072098 1.0000000180025095e-35 0.84098732948490962 0.51435556100082613
decision_type=2 2 2 2 2 2 2 2 2
left_child=1 3 -2 4 -1 8 7 -7 -5
right_child=2 -3 -4 5 -6 6 -8 -9 -10
leaf_value=-0.001002137695177339 -0.00015036766671998959 -0.0064805059406691434 0.0062810709642124969 -0.0057889675185798829 0.0078702339742800585 -0.00016276781459805852 -0.0030202669200765416 0.0074961867984004379 -0.00028307097788076617
leaf_weight=746 522 540 550 618 446 4176 1058 464 756
leaf_count=30 16 25 30 15 27 177 39 36 35
internal_value=0 -0.000566344 0.00322581 -0.000154842 0.00242781 -0.000600813 -4.50309e-05 0.000647039 -0.00284361
internal_weight=0 8804 1072 8264 1192 7072 5698 4640 1374
internal_count=430 384 46 359 57 302 252 213 50
is_linear=0
shrinkage=0.484407


Tree=72
num_leaves=12
num_cat=0
split_feature=0 5 5 9 9 5 3 6 5 6 6
split_gain=0.0520944 0.330045 0.051717 0.0706619 0.0720906 0.0489941 0.0400056 0.0274073 0.0339388 0.0402499 0.0371314
threshold=0.87973181847746673 -0.38335010016650356 -0.65521044521716487 -0.22870709049027657 -0.4566820355313625 0.12154362684698854 0.86994988949965757 0.69754122088514736 0.98476779812541893 0.51435556100082613 0.51435556100082613
decision_type=2 2 2 2 2 2 2 2 2 2 2
left_child=2 -2 3 4 -1 -3 7 8 10 -10 -4
right_child=1 5 6 -5 -6 -7 -8 -9 9 -11 -12
leaf_value=-0.002846275455416338 0.014699734745590299 -0.0048710146506141128 0.00016097900993553103 -0.0046440192644676449 0.0037868438817802962 0.0012233535752971393 -0.0028395287932172762 0.0033510939286509529 0.001239076091886184 -0.0037756840333932136 0.0042383659320772886
leaf_weight=842 354 534 1930 1452 654 656 824 764 640 828 692
leaf_count=29 30 22 83 40 33 34 20 39 26 22 52
internal_value=0 0.00238612 -0.00064123 -0.0022758 6.46181e-05 -0.00155825 0.000213456 0.000749387 0.000238207 -0.00160203 0.00127981
internal_weight=0 1544 8626 2948 1496 1190 5678 4854 4090 1468 2622
internal_count=430 86 344 102 62 56 242 222 183 48 135
is_linear=0
shrinkage=0.484407


Tree=73
num_leaves=13
num_cat=0
split_feature=9 8 6 3 8 5 3 3 5 3 8 8
split_gain=0.0452774 0.298527 0.12134 0.106167 0.0921574 0.110027 0.0644988 0.0562772 0.0667458 0.0593514 0.028703 0.0262784
threshold=-0.22870709049027657 1.0000000180025095e-35 0.60433972606768094 0.86994988949965757 1.032639340768311 1.0000000180025095e-35 0.54558600581167527 0.18501604186961776 0.050879986095853647 0.45762652848853902 -0.47904567315573671 -0.41388561785709377
decision_type=2 2 2 2 2 2 2 2 2 2 2 2
left_child=4 2 10 -4 6 -6 7 11 9 -9 -2 -1
right_child=1 -3 3 -5 5 -7 -8 8 -10 -11 -12 -13
leaf_value=0.00058294395136042842 0.00032512694374966204 0.011303341749873552 0.010109204140814117 -0.00087176352397465968 -0.0096705569018658323 0.00044012617277552056 -0.0031868127263323526 0.001995584557908919 -0.00082850348996080345 0.010525537178662402 -0.0033940361929909158 -0.0023597899602791077
leaf_weight=2024 656 544 366 416 536 446 1264 432 534 348 1744 1056
leaf_count=81 34 27 36 12 23 27 44 20 22 27 39 38
internal_value=0 0.00115562 -0.000671516 0.00445001 -0.000946275 -0.00519896 -0.000180903 0.000698073 0.00331235 0.00608193 -0.00238186 -0.000436253
internal_weight=0 3726 3182 782 6640 982 5658 4394 1314 780 2400 3080
internal_count=430 148 121 48 282 50 232 188 69 47 73 119
is_linear=0
shrinkage=0.484407


end of trees

feature_importances:
Column_4=160
Column_5=147
Column_6=121
Column_9=102
Column_3=99
Column_0=90
Column_8=62
Column_1=22
Column_2=10
Column_7=8

parameters:
[boosting: gbdt]
[objective: custom]
[metric: l2]
[tree_learner: serial]
[device_type: cpu]
[data: ]
[valid: ]
[num_iterations: 74]
[learning_rate: 0.484407]
[num_leaves: 13]
[num_threads: 0]
[deterministic: 0]
[force_col_wise: 0]
[force_row_wise: 0]
[histogram_pool_size: -1]
[max_depth: 6]
[min_data_in_leaf: 20]
[min_sum_hessian_in_leaf: 0.001]
[bagging_fraction: 1]
[pos_bagging_fraction: 1]
[neg_bagging_fraction: 1]
[bagging_freq: 0]
[bagging_seed: 3]
[feature_fraction: 1]
[feature_fraction_bynode: 1]
[feature_fraction_seed: 2]
[extra_trees: 0]
[extra_seed: 6]
[early_stopping_round: 0]
[first_metric_only: 0]
[max_delta_step: 0]
[lambda_l1: 0.0238869]
[lambda_l2: 32.2024]
[linear_lambda: 0]
[min_gain_to_split: 0]
[drop_rate: 0.1]
[max_drop: 50]
[skip_drop: 0.5]
[xgboost_dart_mode: 0]
[uniform_drop: 0]
[drop_seed: 4]
[top_rate: 0.2]
[other_rate: 0.1]
[min_data_per_group: 100]
[max_cat_threshold: 32]
[cat_l2: 10]
[cat_smooth: 10]
[max_cat_to_onehot: 4]
[top_k: 20]
[monotone_constraints: ]
[monotone_constraints_method: basic]
[monotone_penalty: 0]
[feature_contri: ]
[forcedsplits_filename: ]
[refit_decay_rate: 0.9]
[cegb_tradeoff: 1]
[cegb_penalty_split: 0]
[cegb_penalty_feature_lazy: ]
[cegb_penalty_feature_coupled: ]
[path_smooth: 0]
[interaction_constraints: ]
[verbosity: -1]
[saved_feature_importance_type: 1]
[linear_tree: 0]
[max_bin: 255]
[max_bin_by_feature: ]
[min_data_in_bin: 3]
[bin_construct_sample_cnt: 200000]
[data_random_seed: 1]
[is_enable_sparse: 1]
[enable_bundle: 1]
[use_missing: 1]
[zero_as_missing: 0]
[feature_pre_filter: 1]
[pre_partition: 0]
[two_round: 0]
[header: 0]
[label_column: ]
[weight_column: ]
[group_column: ]
[ignore_column: ]
[categorical_feature: ]
[forcedbins_filename: ]
[precise_float_parser: 0]
[objective_seed: 5]
[num_class: 1]
[is_unbalance: 0]
[scale_pos_weight: 1]
[sigmoid: 1]
[boost_from_average: 1]
[reg_sqrt: 0]
[alpha: 0.9]
[fair_c: 1]
[poisson_max_delta_step: 0.7]
[tweedie_variance_power: 1.5]
[lambdarank_truncation_level: 30]
[lambdarank_norm: 1]
[label_gain: ]
[eval_at: ]
[multi_error_top_k: 1]
[auc_mu_weights: ]
[num_machines: 1]
[local_listen_port: 12400]
[time_out: 120]
[machine_list_filename: ]
[machines: ]
[gpu_platform_id: -1]
[gpu_device_id: -1]
[gpu_use_dp: 0]
[num_gpu: 1]

end of parameters

pandas_categorical:null
